{"learner":{"attributes":{"best_iteration":"580","best_ntree_limit":"581","scikit_learn":"{\"objective\": \"reg:squarederror\", \"learning_rate\": 0.5, \"verbosity\": 0, \"booster\": null, \"tree_method\": null, \"gamma\": 0.5, \"max_delta_step\": null, \"subsample\": 1.0, \"colsample_bytree\": 0.4, \"colsample_bylevel\": null, \"colsample_bynode\": null, \"reg_alpha\": 5.0, \"reg_lambda\": null, \"scale_pos_weight\": null, \"base_score\": null, \"missing\": NaN, \"num_parallel_tree\": null, \"random_state\": null, \"n_jobs\": null, \"monotone_constraints\": null, \"interaction_constraints\": null, \"importance_type\": null, \"gpu_id\": null, \"validate_parameters\": null, \"predictor\": null, \"enable_categorical\": false, \"kwargs\": {\"nthread\": -1, \"seed\": 1}, \"_estimator_type\": \"regressor\"}"},"feature_names":["engine_size_cm3","power_ps","manufacturer","transmission","transmission_type","fuel","powertrain"],"feature_types":["int","int","int","int","int","int","int"],"gradient_booster":{"model":{"gbtree_model_param":{"num_trees":"581","size_leaf_vector":"0"},"tree_info":[0,0,0,0,0,0,0,0,0,0,0,0,0,0,0,0,0,0,0,0,0,0,0,0,0,0,0,0,0,0,0,0,0,0,0,0,0,0,0,0,0,0,0,0,0,0,0,0,0,0,0,0,0,0,0,0,0,0,0,0,0,0,0,0,0,0,0,0,0,0,0,0,0,0,0,0,0,0,0,0,0,0,0,0,0,0,0,0,0,0,0,0,0,0,0,0,0,0,0,0,0,0,0,0,0,0,0,0,0,0,0,0,0,0,0,0,0,0,0,0,0,0,0,0,0,0,0,0,0,0,0,0,0,0,0,0,0,0,0,0,0,0,0,0,0,0,0,0,0,0,0,0,0,0,0,0,0,0,0,0,0,0,0,0,0,0,0,0,0,0,0,0,0,0,0,0,0,0,0,0,0,0,0,0,0,0,0,0,0,0,0,0,0,0,0,0,0,0,0,0,0,0,0,0,0,0,0,0,0,0,0,0,0,0,0,0,0,0,0,0,0,0,0,0,0,0,0,0,0,0,0,0,0,0,0,0,0,0,0,0,0,0,0,0,0,0,0,0,0,0,0,0,0,0,0,0,0,0,0,0,0,0,0,0,0,0,0,0,0,0,0,0,0,0,0,0,0,0,0,0,0,0,0,0,0,0,0,0,0,0,0,0,0,0,0,0,0,0,0,0,0,0,0,0,0,0,0,0,0,0,0,0,0,0,0,0,0,0,0,0,0,0,0,0,0,0,0,0,0,0,0,0,0,0,0,0,0,0,0,0,0,0,0,0,0,0,0,0,0,0,0,0,0,0,0,0,0,0,0,0,0,0,0,0,0,0,0,0,0,0,0,0,0,0,0,0,0,0,0,0,0,0,0,0,0,0,0,0,0,0,0,0,0,0,0,0,0,0,0,0,0,0,0,0,0,0,0,0,0,0,0,0,0,0,0,0,0,0,0,0,0,0,0,0,0,0,0,0,0,0,0,0,0,0,0,0,0,0,0,0,0,0,0,0,0,0,0,0,0,0,0,0,0,0,0,0,0,0,0,0,0,0,0,0,0,0,0,0,0,0,0,0,0,0,0,0,0,0,0,0,0,0,0,0,0,0,0,0,0,0,0,0,0,0,0,0,0,0,0,0,0,0,0,0,0,0,0,0,0,0,0,0,0,0,0,0,0,0,0,0,0,0,0,0,0,0,0,0,0,0,0,0,0,0,0,0,0,0,0,0,0,0,0,0,0,0,0,0,0,0,0,0,0,0,0,0,0,0,0,0,0,0,0,0,0,0,0,0,0,0,0,0,0,0,0,0,0,0,0,0,0],"trees":[{"base_weights":[1.5425606E2,1.5672867E2,-4.360465E-1,1.6674048E2,1.3211017E2,1.4662161E2,1.823697E2,3.0357407E1,1.5356711E2,3.8432243E1,-4.0350878E-1,1.331989E2,1.5679205E2,1.7524338E2,1.4956116E2],"categories":[],"categories_nodes":[],"categories_segments":[],"categories_sizes":[],"default_left":[true,true,false,true,true,false,false,true,true,false,false,false,true,false,false],"id":0,"left_children":[1,3,-1,5,7,-1,-1,9,11,-1,-1,-1,13,-1,-1],"loss_changes":[2.068224E6,1.28772E6,0E0,1.159584E6,3.363254E6,0E0,0E0,6.7270766E4,6.135E4,0E0,0E0,0E0,1.18126E5,0E0,0E0],"parents":[2147483647,0,0,1,1,3,3,4,4,7,7,8,8,12,12],"right_children":[2,4,-1,6,8,-1,-1,10,12,-1,-1,-1,14,-1,-1],"split_conditions":[1.5E0,5E-1,-2.1802326E-1,5E-1,2.5E0,7.331081E1,9.118485E1,1.5E0,5E-1,1.9216122E1,-2.0175439E-1,6.659945E1,4.5E0,8.762169E1,7.478058E1],"split_indices":[4,6,0,4,6,0,0,6,4,0,0,0,6,0,0],"split_type":[0,0,0,0,0,0,0,0,0,0,0,0,0,0,0],"sum_hessian":[5.404E3,5.319E3,8.5E1,3.777E3,1.542E3,1.656E3,2.121E3,2.69E2,1.273E3,2.13E2,5.6E1,1.8E2,1.093E3,3.01E2,7.92E2],"tree_param":{"num_deleted":"0","num_feature":"7","num_nodes":"15","size_leaf_vector":"0"}},{"base_weights":[7.7205696E1,6.816759E1,1.5637337E2,5.635105E1,8.86239E1,1.3126978E2,1.9767566E2,-2.511956E-1,5.9069286E1,9.1452415E1,5.147537E1,1.363909E2,1.1382122E2,1.8762204E2,2.5057132E2,6.3006523E1,4.447847E1,8.5153946E1,9.764147E1,1.0622081E1,5.9806973E1,1.1831831E2,1.4604149E2,6.020706E1,7.288895E1,1.4252835E1,5.287289E1,9.269009E1,7.53887E1,1.12061005E2,8.6959E1,5.588901E1,8.810857E1,1.4059718E2,1.051103E2,5.571094E1,6.2796864E1,9.936099E1,7.051144E1,6.041283E1,4.671274E1,6.2379948E1,9.859243E1,4.5379433E1,8.07788E1,1.0365054E2,1.1813394E2,6.908114E1,1.0034142E2,6.404945E1,5.3595013E1,6.7526886E1,5.7571976E1,7.5699715E1,6.467052E1,6.831752E1,5.7477306E1,4.4310787E1,8.0265335E1,8.364243E1,3.0699518E1,8.8853065E1,1.02307175E2,8.668934E1,7.231238E1,1.0841702E2,9.243157E1],"categories":[],"categories_nodes":[],"categories_segments":[],"categories_sizes":[],"default_left":[true,true,true,true,true,true,true,false,true,true,true,true,false,false,false,true,true,true,true,false,true,true,false,true,true,false,true,true,true,true,true,false,false,false,false,true,true,false,true,true,true,true,true,false,true,false,false,false,true,false,false,false,false,false,false,false,false,false,false,false,false,false,false,false,false,false,false],"id":1,"left_children":[1,3,5,7,9,11,13,-1,15,17,19,21,-1,-1,-1,23,25,27,29,-1,31,33,-1,35,37,-1,39,41,43,45,47,-1,-1,-1,-1,49,51,-1,53,55,57,59,61,-1,63,-1,-1,-1,65,-1,-1,-1,-1,-1,-1,-1,-1,-1,-1,-1,-1,-1,-1,-1,-1,-1,-1],"loss_changes":[3.855632E6,1.167362E6,5.45777E5,4.74038E5,1.81086E5,1.42315E4,6.08775E4,0E0,1.65441E5,5.5014E4,4.2580375E4,2.7269E4,0E0,0E0,0E0,5.8881E4,1.5825112E5,5.28855E4,1.16186E5,0E0,6.1094688E3,1.2536375E4,0E0,1.69495E4,2.392825E4,0E0,1.9447875E4,7.551825E4,5.474325E4,4.37E3,1.0658225E5,0E0,0E0,0E0,0E0,7.80025E3,2.36115E4,0E0,8.55475E3,4.796875E2,1.798325E4,4.9401656E4,3.8465E3,0E0,8.349E3,0E0,0E0,0E0,6.28525E3,0E0,0E0,0E0,0E0,0E0,0E0,0E0,0E0,0E0,0E0,0E0,0E0,0E0,0E0,0E0,0E0,0E0,0E0],"parents":[2147483647,0,0,1,1,2,2,3,3,4,4,5,5,6,6,8,8,9,9,10,10,11,11,15,15,16,16,17,17,18,18,20,20,21,21,23,23,24,24,26,26,27,27,28,28,29,29,30,30,35,35,36,36,38,38,39,39,40,40,41,41,42,42,44,44,48,48],"right_children":[2,4,6,8,10,12,14,-1,16,18,20,22,-1,-1,-1,24,26,28,30,-1,32,34,-1,36,38,-1,40,42,44,46,48,-1,-1,-1,-1,50,52,-1,54,56,58,60,62,-1,64,-1,-1,-1,66,-1,-1,-1,-1,-1,-1,-1,-1,-1,-1,-1,-1,-1,-1,-1,-1,-1,-1],"split_conditions":[2.4955E3,1.9685E3,3.6275E3,4.375E2,2.374E3,5E-1,5.9425E3,-1.255978E-1,5E-1,1.994E3,3E0,2.952E3,5.691061E1,9.381102E1,1.2528566E2,1.5445E3,2E0,1.9855E3,1.9975E3,5.3110404E0,2.491E3,2.908E3,7.3020744E1,1.2205E3,1.594E3,7.1264176E0,4.5E0,2.5E0,1.989E3,1.9955E3,1.9985E3,2.7944506E1,4.4054283E1,7.029859E1,5.255515E1,9.93E2,1.4235E3,4.9680496E1,1.8745E3,3.5E0,1.874E3,5E-1,4.5E0,2.2689716E1,1.9915E3,5.182527E1,5.906697E1,3.454057E1,1.9995E3,3.2024727E1,2.6797506E1,3.3763443E1,2.8785988E1,3.7849857E1,3.233526E1,3.415876E1,2.8738653E1,2.2155394E1,4.0132668E1,4.1821217E1,1.5349759E1,4.4426533E1,5.1153587E1,4.334467E1,3.615619E1,5.420851E1,4.6215786E1],"split_indices":[0,0,0,0,0,6,0,0,6,0,6,0,0,0,0,0,6,0,0,0,0,0,0,0,0,0,6,6,0,0,0,0,0,0,0,0,0,0,0,6,0,6,6,0,0,0,0,0,0,0,0,0,0,0,0,0,0,0,0,0,0,0,0,0,0,0,0],"split_type":[0,0,0,0,0,0,0,0,0,0,0,0,0,0,0,0,0,0,0,0,0,0,0,0,0,0,0,0,0,0,0,0,0,0,0,0,0,0,0,0,0,0,0,0,0,0,0,0,0,0,0,0,0,0,0,0,0,0,0,0,0,0,0,0,0,0,0],"sum_hessian":[5.404E3,4.852E3,5.52E2,3.078E3,1.774E3,3.46E2,2.06E2,1.41E2,2.937E3,1.647E3,1.27E2,2.62E2,8.4E1,1.77E2,2.9E1,2.31E3,6.27E2,8.24E2,8.23E2,2.2E1,1.05E2,9.6E1,1.66E2,1.806E3,5.04E2,1.37E2,4.9E2,4.6E2,3.64E2,3.46E2,4.77E2,9.5E1,1E1,3.2E1,6.4E1,6.69E2,1.137E3,3.8E1,4.66E2,2.16E2,2.74E2,7.7E1,3.83E2,5.7E1,3.07E2,1.53E2,1.93E2,2.07E2,2.7E2,1.29E2,5.4E2,5.9E2,5.47E2,2.4E2,2.26E2,5.2E1,1.64E2,2.58E2,1.6E1,4.5E1,3.2E1,1.13E2,2.7E2,1.75E2,1.32E2,1.27E2,1.43E2],"tree_param":{"num_deleted":"0","num_feature":"7","num_nodes":"67","size_leaf_vector":"0"}},{"base_weights":[3.8880535E1,3.4338104E1,7.964772E1,2.8304926E1,4.4711258E1,7.267951E1,1.1941521E2,3.6540825E1,2.0290104E1,4.6046776E1,2.863523E1,6.687579E1,8.714902E1,1.0917555E2,1.4075542E2,3.0959133E1,4.1216396E1,-1.2648231E-1,2.2318138E1,4.2904175E1,4.9131237E1,2.3154806E1,4.699689E1,7.1298546E1,5.673853E1,3.9340675E1,4.6828186E1,2.0020552E1,3.258701E1,4.6692657E1,3.7988026E1,5.6357273E1,4.3772312E1,6.1548153E1,7.6488106E1,4.5015053E1,3.4376617E1,4.8309643E1,2.774488E1,1.5803892E1,2.0623207E1,2.3080921E1,4.0655636E1,5.2161797E1,5.937143E1,3.470663E1,5.0550503E1,8.371206E1,5.3363686E1,1.0468885E2,7.214004E1,3.811662E1,5.7679585E1,2.6194965E1,4.0392994E1,4.690891E1,6.4061066E1,2.8801517E1,1.2701171E1,2.3173912E1,1.9881914E1,4.3435165E1,3.6140564E1,5.331012E1,4.1095486E1],"categories":[],"categories_nodes":[],"categories_segments":[],"categories_sizes":[],"default_left":[true,true,true,true,true,true,true,true,true,true,true,true,false,false,false,false,true,false,true,true,true,false,false,true,false,true,true,true,false,false,true,true,true,true,true,true,true,true,false,true,true,false,true,false,false,false,true,false,false,false,false,false,false,false,false,false,false,false,false,false,false,false,false,false,false],"id":2,"left_children":[1,3,5,7,9,11,13,15,17,19,21,23,-1,-1,-1,-1,25,-1,27,29,31,-1,-1,33,-1,35,37,39,-1,-1,41,43,45,47,49,51,53,55,-1,57,59,-1,61,-1,-1,-1,63,-1,-1,-1,-1,-1,-1,-1,-1,-1,-1,-1,-1,-1,-1,-1,-1,-1,-1],"loss_changes":[9.976045E5,3.02836E5,1.40276E5,2.02217E5,3.66745E4,3.2283E4,6.46125E2,3.7953E4,6.4830625E4,1.340625E4,1.2649195E4,1.0334E4,0E0,0E0,0E0,0E0,6.379375E3,0E0,3.2634625E4,1.316825E4,2.8940875E4,0E0,0E0,6.189625E3,0E0,1.560425E4,3.9335625E3,2.4524375E3,0E0,0E0,1.3257625E4,7.335E2,2.7191875E4,1.02664375E4,9.3433125E3,2.2396312E4,1.5197406E4,4.998125E2,0E0,5.516203E3,1.2431562E3,0E0,1.8976875E3,0E0,0E0,0E0,4.4081875E3,0E0,0E0,0E0,0E0,0E0,0E0,0E0,0E0,0E0,0E0,0E0,0E0,0E0,0E0,0E0,0E0,0E0,0E0],"parents":[2147483647,0,0,1,1,2,2,3,3,4,4,5,5,6,6,7,7,8,8,9,9,10,10,11,11,16,16,18,18,19,19,20,20,23,23,25,25,26,26,27,27,30,30,31,31,32,32,33,33,34,34,35,35,36,36,37,37,39,39,40,40,42,42,46,46],"right_children":[2,4,6,8,10,12,14,16,18,20,22,24,-1,-1,-1,-1,26,-1,28,30,32,-1,-1,34,-1,36,38,40,-1,-1,42,44,46,48,50,52,54,56,-1,58,60,-1,62,-1,-1,-1,64,-1,-1,-1,-1,-1,-1,-1,-1,-1,-1,-1,-1,-1,-1,-1,-1,-1,-1],"split_conditions":[2.6265E3,1.9685E3,4.677E3,5E-1,2.374E3,3.6275E3,6.207E3,1.289E3,4.49E2,1.994E3,2.4875E3,2.997E3,4.357451E1,5.4587776E1,7.037771E1,1.5479567E1,1.5895E3,-6.3241154E-2,1.7985E3,1.9855E3,1.9975E3,1.1577403E1,2.3498446E1,2.952E3,2.8369265E1,1.4235E3,1.874E3,1.198E3,1.6293505E1,2.3346329E1,1.989E3,1.9955E3,1.9985E3,2.908E3,2.983E3,1.3605E3,1.469E3,1.7785E3,1.387244E1,9.97E2,1.3325E3,1.1540461E1,1.9925E3,2.6080898E1,2.9685715E1,1.7353315E1,2.174E3,4.185603E1,2.6681843E1,5.2344425E1,3.607002E1,1.905831E1,2.8839792E1,1.3097483E1,2.0196497E1,2.3454454E1,3.2030533E1,1.4400759E1,6.3505855E0,1.1586956E1,9.940957E0,2.1717583E1,1.8070282E1,2.665506E1,2.0547743E1],"split_indices":[0,0,0,4,0,0,0,0,0,0,0,0,0,0,0,0,0,0,0,0,0,0,0,0,0,0,0,0,0,0,0,0,0,0,0,0,0,0,0,0,0,0,0,0,0,0,0,0,0,0,0,0,0,0,0,0,0,0,0,0,0,0,0,0,0],"split_type":[0,0,0,0,0,0,0,0,0,0,0,0,0,0,0,0,0,0,0,0,0,0,0,0,0,0,0,0,0,0,0,0,0,0,0,0,0,0,0,0,0,0,0,0,0,0,0,0,0,0,0,0,0,0,0,0,0,0,0,0,0,0,0,0,0],"sum_hessian":[5.404E3,4.864E3,5.4E2,3.078E3,1.786E3,4.62E2,7.8E1,1.516E3,1.562E3,1.647E3,1.39E2,3.34E2,1.28E2,5.7E1,2.1E1,6.95E2,8.21E2,1.41E2,1.421E3,8.24E2,8.23E2,1.09E2,3E1,2.28E2,1.06E2,6.22E2,1.99E2,1.164E3,2.57E2,4.6E2,3.64E2,3.46E2,4.77E2,8.4E1,1.44E2,2.86E2,3.36E2,1.83E2,1.6E1,1.5E2,1.014E3,5.7E1,3.07E2,1.53E2,1.93E2,2.07E2,2.7E2,2E1,6.4E1,1.6E1,1.28E2,1.88E2,9.8E1,1.45E2,1.91E2,1.72E2,1.1E1,2.7E1,1.23E2,2.2E2,7.94E2,1.84E2,1.23E2,2.05E2,6.5E1],"tree_param":{"num_deleted":"0","num_feature":"7","num_nodes":"65","size_leaf_vector":"0"}},{"base_weights":[1.9603724E1,2.1899818E1,1.5432165E1,1.9083565E1,2.5288338E1,1.1983052E1,2.505748E1,3.032911E1,1.7349907E1,4.7326836E1,2.1332035E1,1.553032E1,3.7299566E0,3.541331E1,2.3104538E1,2.1924032E1,4.1731205E1,2.0490816E1,1.3810899E1,1.9355656E1,2.9066826E1,1.253444E1,2.3465487E1,-1.7203739E0,7.453986E0,-3.681252E0,2.6266106E1,2.8278624E1,1.813531E1,2.1703398E1,1.5386533E1,1.0928677E1,2.8832424E1,2.2502169E1,-1.1340545E1,2.1448456E1,3.339264E1,1.7231152E1,1.2255559E1,7.206E1,1.9895657E1,-5.979968E0,5.3766478E-2,-4.8970075E0,8.322241E0,2.1674704E1,2.8082172E1,1.4096206E1,2.2608603E1,9.120967E-1,1.8652746E1,6.027267E0,1.2481284E1,2.4473824E1,3.478085E1,4.7954483E1,2.1265743E1,-1.6388777E1,-0E0,7.4129233E0,1.3022474E1,1.669467E1,2.2852133E1,-4.324047E0,-7.662475E0,-7.001223E-1,3.2370155E0,1.35610895E1,7.567477E0,2.2258955E1,2.9628937E1,-1.3939273E0,2.9477947E0,1.6999409E1,1.0956788E1,2.7523092E1,1.7735409E1,3.5376995E1,5.43782E1,1.3417189E1,2.4458284E1,3.5922253E1,1.8783278E1,-0E0,-1.3689104E0],"categories":[],"categories_nodes":[],"categories_segments":[],"categories_sizes":[],"default_left":[true,true,true,true,true,true,true,true,true,false,true,true,true,false,true,true,false,true,true,true,true,true,true,true,true,false,true,false,false,true,true,true,true,true,true,false,false,false,true,false,true,true,true,false,true,false,false,false,true,true,false,false,true,true,false,true,true,false,false,false,false,false,true,false,false,true,false,false,false,false,false,false,false,false,false,false,false,false,false,false,false,false,false,false,false],"id":3,"left_children":[1,3,5,7,9,11,13,15,17,-1,19,21,23,-1,25,27,-1,29,31,33,35,37,39,41,43,-1,45,-1,-1,47,49,51,53,55,57,-1,-1,-1,59,-1,61,63,65,-1,67,-1,-1,-1,69,71,-1,-1,73,75,-1,77,79,-1,-1,-1,-1,-1,81,-1,-1,83,-1,-1,-1,-1,-1,-1,-1,-1,-1,-1,-1,-1,-1,-1,-1,-1,-1,-1,-1],"loss_changes":[5.1246125E4,3.25335E4,6.3355812E4,3.6414125E4,1.3614725E5,4.1359047E4,9.122719E3,2.3013188E4,1.7941938E4,0E0,1.9664375E4,2.3084719E4,8.728689E3,0E0,3.653953E4,2.8183047E3,0E0,4.890125E3,3.334308E4,1.03658E5,7.9075938E3,5.870781E2,4.4944547E4,1.3448911E3,2.7924531E3,0E0,2.3444375E3,0E0,0E0,4.3386875E3,8.0167383E3,4.839586E3,2.0933594E3,2.9191375E4,5.672051E3,0E0,0E0,0E0,2.3490234E3,0E0,1.8150547E3,5.1811523E1,3.101281E2,0E0,7.367617E2,0E0,0E0,0E0,6.1765625E2,1.6679251E2,0E0,0E0,3.1041172E3,8.4716406E2,0E0,1.1824375E3,2.2735219E4,0E0,0E0,0E0,0E0,0E0,5.858828E3,0E0,0E0,3.9547092E1,0E0,0E0,0E0,0E0,0E0,0E0,0E0,0E0,0E0,0E0,0E0,0E0,0E0,0E0,0E0,0E0,0E0,0E0,0E0],"parents":[2147483647,0,0,1,1,2,2,3,3,4,4,5,5,6,6,7,7,8,8,10,10,11,11,12,12,14,14,15,15,17,17,18,18,19,19,20,20,21,21,22,22,23,23,24,24,26,26,29,29,30,30,31,31,32,32,33,33,34,34,38,38,40,40,41,41,42,42,44,44,48,48,49,49,52,52,53,53,55,55,56,56,62,62,65,65],"right_children":[2,4,6,8,10,12,14,16,18,-1,20,22,24,-1,26,28,-1,30,32,34,36,38,40,42,44,-1,46,-1,-1,48,50,52,54,56,58,-1,-1,-1,60,-1,62,64,66,-1,68,-1,-1,-1,70,72,-1,-1,74,76,-1,78,80,-1,-1,-1,-1,-1,82,-1,-1,84,-1,-1,-1,-1,-1,-1,-1,-1,-1,-1,-1,-1,-1,-1,-1,-1,-1,-1,-1],"split_conditions":[2.85E1,1.85E1,3.95E1,7.5E0,1.95E1,5E-1,5E-1,2.5E0,1.45E1,2.3663418E1,3E0,3.15E1,3.5E1,1.7706656E1,3E0,5E-1,2.0865602E1,5E-1,4.5E0,5E-1,2.25E1,2.95E1,3.25E1,1.5E0,3.5E0,-1.840626E0,4.5E0,1.4139312E1,9.067655E0,8.5E0,2.5E0,1.55E1,1.7E1,2.25E1,1.5E0,1.0724228E1,1.669632E1,8.615576E0,3.05E1,3.603E1,3.4E1,3.2E1,3.2E1,-2.4485037E0,3.8E1,1.0837352E1,1.4041086E1,7.048103E0,1.35E1,1.15E1,9.326373E0,3.0136335E0,1.75E1,1.55E1,1.7390425E1,2.15E1,2.35E1,-8.194388E0,-0E0,3.7064617E0,6.511237E0,8.347335E0,3.55E1,-2.1620235E0,-3.8312376E0,3.5E0,1.6185077E0,6.7805448E0,3.7837386E0,1.11294775E1,1.4814468E1,-6.9696367E-1,1.4738973E0,8.499704E0,5.478394E0,1.3761546E1,8.867704E0,1.7688498E1,2.71891E1,6.7085943E0,1.2229142E1,1.7961126E1,9.391639E0,-0E0,-6.844552E-1],"split_indices":[2,2,2,2,2,6,6,2,2,0,6,2,2,0,6,2,0,6,6,6,2,2,2,6,6,0,6,0,0,2,6,2,2,2,6,0,0,0,2,0,2,2,2,0,2,0,0,0,2,2,0,0,2,2,0,2,2,0,0,0,0,0,2,0,0,6,0,0,0,0,0,0,0,0,0,0,0,0,0,0,0,0,0,0,0],"split_type":[0,0,0,0,0,0,0,0,0,0,0,0,0,0,0,0,0,0,0,0,0,0,0,0,0,0,0,0,0,0,0,0,0,0,0,0,0,0,0,0,0,0,0,0,0,0,0,0,0,0,0,0,0,0,0,0,0,0,0,0,0,0,0,0,0,0,0,0,0,0,0,0,0,0,0,0,0,0,0,0,0,0,0,0,0],"sum_hessian":[5.404E3,3.482E3,1.922E3,1.906E3,1.576E3,1.417E3,5.05E2,2.52E2,1.654E3,2.38E2,1.338E3,9.9E2,4.27E2,7.7E1,4.28E2,1.47E2,1.05E2,8.73E2,7.81E2,1.069E3,2.69E2,7.21E2,2.69E2,1.73E2,2.54E2,4.5E1,3.83E2,5.2E1,9.5E1,7.02E2,1.71E2,6.57E2,1.24E2,9.7E2,9.9E1,1E2,1.69E2,3.6E1,6.85E2,1.7E1,2.52E2,5.1E1,1.22E2,1.6E1,2.38E2,1.13E2,2.7E2,7.7E1,6.25E2,3.2E1,1.39E2,1.6E2,4.97E2,7.5E1,4.9E1,4.3E1,9.27E2,6.8E1,3.1E1,9.6E1,5.89E2,1.25E2,1.27E2,2.9E1,2.2E1,9.8E1,2.4E1,2.7E1,2.11E2,6E2,2.5E1,1.4E1,1.8E1,1.22E2,3.75E2,4.9E1,2.6E1,1.7E1,2.6E1,2.7E2,6.57E2,2.8E1,9.9E1,5.2E1,4.6E1],"tree_param":{"num_deleted":"0","num_feature":"7","num_nodes":"85","size_leaf_vector":"0"}},{"base_weights":[9.884406E0,8.201797E0,2.4331993E1,6.2292376E0,1.1635399E1,1.8796568E1,3.3736897E1,1.00986185E1,4.727649E0,1.4094692E1,1.051526E1,2.3574692E1,1.6904058E1,2.9616163E1,4.2015793E1,7.580631E0,1.2864097E1,4.184595E0,2.080874E1,1.0757446E1,2.1177294E1,6.841211E0,1.1666239E1,1.4913896E1,3.3332653E1,1.5756514E1,3.1179028E1,1.59558325E1,3.0492281E1,6.1826286E1,3.4339905E1,3.6572295E-1,8.190633E0,1.8883242E1,9.618541E0,4.844651E0,-4.6786036E0,1.40785265E1,-8.5580266E-1,2.7813997E1,1.5818034E1,3.5575066E0,7.594855E0,1.0692276E1,1.7717857E1,2.436382E1,1.1201388E1,1.8616545E1,1.4125269E1,3.1809656E1,1.9415358E1,1.9676662E1,3.9356815E1,-7.2340167E-1,1.5776489E0,9.263741E0,2.850554E0,1.4406091E1,2.128106E1,7.511286E0,1.3124813E1,3.064476E0,8.855757E0,-1.656522E1,-2.4496999E0,2.956239E1,1.1411592E1,-4.605214E0,1.38980665E1,5.5558543E0,2.4714634E0,6.723219E0,1.9713522E1,7.3176336E0,1.1895822E1,2.586523E1,1.0759026E1,2.5874025E1,1.4830881E1,1.1022495E1,8.524288E0,-4.952325E-2,3.8387508E0,1.4689313E1,2.518887E1,5.3364887E0,1.1326139E1,6.17744E0,2.2121847E1,3.8314142E0,-3.033801E0,2.7787773E1,7.549846E0,2.5287127E0,-7.4679613E0,1.807E1,5.3424644E1,1.0339915E1,3.3399075E1,-1.0958654E1,-1.426897E0,9.879092E0,-8.55528E0,1.712618E1,1.0966127E1,2.1859016E1,3.5292027E1,1.6947691E1,2.9833769E1],"categories":[],"categories_nodes":[],"categories_segments":[],"categories_sizes":[],"default_left":[true,true,true,true,true,true,true,true,true,true,true,true,true,true,true,true,true,true,false,true,true,true,true,true,false,true,false,false,true,false,true,true,true,true,true,true,true,true,true,false,false,true,true,true,true,false,false,true,false,false,false,false,false,false,false,true,true,false,true,true,true,true,true,false,true,true,true,true,false,false,false,false,false,true,true,true,false,true,false,false,false,false,false,false,false,false,false,false,false,false,false,false,false,false,false,false,false,false,false,false,false,false,false,false,false,false,false,false,false],"id":4,"left_children":[1,3,5,7,9,11,13,15,17,19,21,23,25,27,29,31,33,35,-1,37,39,41,43,45,-1,47,-1,-1,49,-1,51,53,55,57,59,61,63,65,67,-1,-1,69,71,73,75,-1,-1,77,-1,-1,-1,-1,-1,-1,-1,79,81,-1,83,85,87,89,91,-1,93,95,97,99,-1,-1,-1,-1,-1,101,103,105,-1,107,-1,-1,-1,-1,-1,-1,-1,-1,-1,-1,-1,-1,-1,-1,-1,-1,-1,-1,-1,-1,-1,-1,-1,-1,-1,-1,-1,-1,-1,-1,-1],"loss_changes":[1.31031375E5,3.263975E4,2.8413062E4,1.776779E4,4.590875E3,2.6273281E3,5.459328E3,5.7818516E3,1.918373E4,1.256525E4,4.9782656E3,7.543797E3,3.5331484E3,9.806953E2,7.4322188E3,1.9479258E3,7.626797E3,1.2601441E4,0E0,1.4541359E4,5.5306797E3,6.4479395E2,5.1205E3,1.4437422E3,0E0,7.0702344E2,0E0,0E0,1.0524766E3,0E0,2.608629E3,5.425023E1,2.3026309E3,1.0286758E3,1.7709922E3,1.420848E4,3.81197E3,1.1515758E4,4.664279E3,0E0,0E0,7.200922E1,2.2387246E3,3.0661094E3,6.6823164E3,0E0,0E0,1.7205879E3,0E0,0E0,0E0,0E0,0E0,0E0,0E0,2.5828516E2,2.2547723E2,0E0,1.7231797E3,1.2666562E3,5.847412E3,6.511964E3,1.4793758E4,0E0,3.2164185E3,1.0194984E4,5.3503887E3,1.2955762E3,0E0,0E0,0E0,0E0,0E0,8.791908E3,2.5261016E3,1.0954453E3,0E0,2.1482227E2,0E0,0E0,0E0,0E0,0E0,0E0,0E0,0E0,0E0,0E0,0E0,0E0,0E0,0E0,0E0,0E0,0E0,0E0,0E0,0E0,0E0,0E0,0E0,0E0,0E0,0E0,0E0,0E0,0E0,0E0,0E0],"parents":[2147483647,0,0,1,1,2,2,3,3,4,4,5,5,6,6,7,7,8,8,9,9,10,10,11,11,12,12,13,13,14,14,15,15,16,16,17,17,19,19,20,20,21,21,22,22,23,23,25,25,28,28,30,30,31,31,32,32,33,33,34,34,35,35,36,36,37,37,38,38,41,41,42,42,43,43,44,44,47,47,55,55,56,56,58,58,59,59,60,60,61,61,62,62,64,64,65,65,66,66,67,67,73,73,74,74,75,75,77,77],"right_children":[2,4,6,8,10,12,14,16,18,20,22,24,26,28,30,32,34,36,-1,38,40,42,44,46,-1,48,-1,-1,50,-1,52,54,56,58,60,62,64,66,68,-1,-1,70,72,74,76,-1,-1,78,-1,-1,-1,-1,-1,-1,-1,80,82,-1,84,86,88,90,92,-1,94,96,98,100,-1,-1,-1,-1,-1,102,104,106,-1,108,-1,-1,-1,-1,-1,-1,-1,-1,-1,-1,-1,-1,-1,-1,-1,-1,-1,-1,-1,-1,-1,-1,-1,-1,-1,-1,-1,-1,-1,-1,-1],"split_conditions":[2.491E3,1.9685E3,3.6275E3,1.4E1,1.95E1,1.95E1,4.984E3,1.3325E3,3.95E1,1.75E1,2.4E1,2.994E3,3.75E1,3.5E0,4.9995E3,8.865E2,1.4235E3,3.85E1,1.040437E1,1.9985E3,1.9985E3,2.15E1,1.9975E3,2.942E3,1.6666327E1,2.35E1,1.5589514E1,7.9779162E0,4.515E3,3.0913143E1,5.121E3,4.375E2,1.2205E3,5E-1,1.5485E3,1.5895E3,1.0975E3,7.5E0,2.23E3,1.3906999E1,7.909017E0,2.237E3,2.1915E3,3.05E1,2.322E3,1.218191E1,5.600694E0,2.983E3,7.0626345E0,1.5904828E1,9.707679E0,9.838331E0,1.9678408E1,-3.6170083E-1,7.8882444E-1,9.985E2,8E0,7.2030454E0,1.3505E3,1.15E1,8.5E0,1.4975E3,1.594E3,-8.28261E0,1.708E3,6E0,1.9975E3,4E0,6.9490333E0,2.7779272E0,1.2357317E0,3.3616095E0,9.856761E0,1.9925E3,3.75E1,3.15E1,5.379513E0,2.7365E3,7.4154406E0,5.5112476E0,4.262144E0,-2.4761625E-2,1.9193754E0,7.3446565E0,1.2594435E1,2.6682444E0,5.6630697E0,3.08872E0,1.1060924E1,1.9157071E0,-1.5169005E0,1.3893887E1,3.774923E0,1.2643564E0,-3.7339807E0,9.035E0,2.6712322E1,5.1699576E0,1.6699537E1,-5.479327E0,-7.134485E-1,4.939546E0,-4.27764E0,8.56309E0,5.4830637E0,1.0929508E1,1.7646013E1,8.4738455E0,1.4916884E1],"split_indices":[0,0,0,2,2,2,0,0,2,2,2,0,2,2,0,0,0,2,0,0,0,2,0,0,0,2,0,0,0,0,0,0,0,2,0,0,0,2,0,0,0,0,0,2,0,0,0,0,0,0,0,0,0,0,0,0,2,0,0,2,2,0,0,0,0,2,0,2,0,0,0,0,0,0,2,2,0,0,0,0,0,0,0,0,0,0,0,0,0,0,0,0,0,0,0,0,0,0,0,0,0,0,0,0,0,0,0,0,0],"split_type":[0,0,0,0,0,0,0,0,0,0,0,0,0,0,0,0,0,0,0,0,0,0,0,0,0,0,0,0,0,0,0,0,0,0,0,0,0,0,0,0,0,0,0,0,0,0,0,0,0,0,0,0,0,0,0,0,0,0,0,0,0,0,0,0,0,0,0,0,0,0,0,0,0,0,0,0,0,0,0,0,0,0,0,0,0,0,0,0,0,0,0,0,0,0,0,0,0,0,0,0,0,0,0,0,0,0,0,0,0],"sum_hessian":[5.404E3,4.842E3,5.62E2,3.078E3,1.764E3,3.56E2,2.06E2,8.58E2,2.22E3,5.47E2,1.217E3,9.7E1,2.59E2,1.41E2,6.5E1,4.52E2,4.06E2,2.149E3,7.1E1,3.74E2,1.73E2,2.93E2,9.24E2,5.3E1,4.4E1,2.42E2,1.7E1,1E1,1.31E2,1.6E1,4.9E1,3.6E1,4.16E2,1.4E2,2.66E2,2.001E3,1.48E2,2.91E2,8.3E1,7.5E1,9.8E1,5.7E1,2.36E2,7.99E2,1.25E2,1.3E1,4E1,8.3E1,1.59E2,1.15E2,1.6E1,1.4E1,3.5E1,1.7E1,1.9E1,3.45E2,7.1E1,5.2E1,8.8E1,1.69E2,9.7E1,1.388E3,6.13E2,2.2E1,1.26E2,4.1E1,2.5E2,6.7E1,1.6E1,1.7E1,4E1,2.22E2,1.4E1,2.13E2,5.86E2,5.6E1,6.9E1,2.6E1,5.7E1,9.6E1,2.49E2,1.7E1,5.4E1,3.5E1,5.3E1,1.1E2,5.9E1,5.6E1,4.1E1,1.234E3,1.54E2,3.8E1,5.75E2,6.3E1,6.3E1,2.9E1,1.2E1,2.4E2,1E1,2.1E1,4.6E1,1.84E2,2.9E1,8.5E1,5.01E2,4.2E1,1.4E1,1E1,1.6E1],"tree_param":{"num_deleted":"0","num_feature":"7","num_nodes":"109","size_leaf_vector":"0"}},{"base_weights":[5.0351634E0,7.334351E0,2.9985397E0,2.2062922E-1,6.482111E0,2.5148137E0,-7.776258E0,6.0014687E0,9.355521E0,-1.2031054E1,-3.5213962E0,7.060153E0,5.485105E0,6.477374E0,1.2012659E1,-2.9138637E0,-5.51494E0,4.452983E0,7.5741887E0,-7.404585E0,-2.6212103E0],"categories":[],"categories_nodes":[],"categories_segments":[],"categories_sizes":[],"default_left":[true,false,true,true,true,false,true,true,true,false,true,true,false,false,false,false,true,false,false,false,false],"id":5,"left_children":[1,-1,3,5,7,-1,9,11,13,-1,15,17,-1,-1,-1,-1,19,-1,-1,-1,-1],"loss_changes":[2.5235688E4,0E0,2.772851E4,2.931069E4,1.6238008E3,0E0,6.32474E3,4.9660156E2,1.198667E3,0E0,1.5979199E2,3.7788086E2,0E0,0E0,0E0,0E0,1.4371875E2,0E0,0E0,0E0,0E0],"parents":[2147483647,0,0,2,2,3,3,4,4,6,6,7,7,8,8,10,10,11,11,16,16],"right_children":[2,-1,4,6,8,-1,10,12,14,-1,16,18,-1,-1,-1,-1,20,-1,-1,-1,-1],"split_conditions":[5E-1,3.6671755E0,2.5E0,1.5E0,5.5E0,1.2574068E0,2.5E0,4.5E0,4.5E0,-6.015527E0,4E0,4.5E0,2.7425525E0,3.238687E0,6.0063295E0,-1.4569318E0,6E0,2.2264915E0,3.7870944E0,-3.7022924E0,-1.3106052E0],"split_indices":[5,0,6,5,5,0,5,6,6,0,5,5,0,0,0,0,5,0,0,0,0],"split_type":[0,0,0,0,0,0,0,0,0,0,0,0,0,0,0,0,0,0,0,0,0],"sum_hessian":[5.404E3,2.536E3,2.868E3,1.597E3,1.271E3,1.242E3,3.55E2,1.093E3,1.78E2,1.76E2,1.79E2,3.51E2,7.42E2,8.8E1,9E1,1.41E2,3.8E1,6.1E1,2.9E2,2.1E1,1.7E1],"tree_param":{"num_deleted":"0","num_feature":"7","num_nodes":"21","size_leaf_vector":"0"}},{"base_weights":[2.5204396E0,1.7082385E0,9.810344E0,1.1486936E-2,3.0624058E0,7.2603536E0,1.3865591E1,3.0716679E-1,-6.038503E0,2.4103076E0,4.233634E0,2.109074E1,6.530521E0,1.1630935E1,1.8387646E1,6.1922904E-2,1.4372671E1,1.821385E0,3.6187077E0,5.9890966E0,3.2313986E0,8.112148E0,5.0933523E0,1.0305698E1,2.1830889E1,2.9280102E1,1.4216457E1,2.3508923E-1,-3.1964905E0,1.9265959E1,7.764134E0,4.091881E0,2.0335409E-1,-1.0063481E1,3.9416802E0,5.394797E0,1.3909023E1,2.2161694E0,4.4434366E0,6.450152E0,1.9571665E1,2.6699905E0,7.599488E0,1.7759247E1,9.410414E0,8.083482E0,2.142736E1,-9.782611E-2,6.715769E0,-3.6980185E-1,-6.205755E0,2.6620111E0,9.494826E0,1.0342658E0,-1.3150417E0,1.6154869E0,4.875441E0,2.7438316E0,7.144965E0,2.5071089E1,1.1712061E0,6.1064906E0,2.3490658E0,8.468747E0,2.5129325E0,5.353906E0,-2.9876907E0,1.3609666E1,3.2605765E0,1.8753439E-1,-2.238264E0,9.173639E0,6.2561035E-4,4.9551287E0,5.6642276E-1,1.3552698E1,6.2917185E0,-9.692894E-1,3.526044E0,-9.134975E0,1.51985E0,3.532661E0,-7.606013E-1,4.259327E0,7.744246E0,4.5832877E0,1.062293E1,-4.9309926E0,3.8163505E0,7.3010483E0,1.2484639E1],"categories":[],"categories_nodes":[],"categories_segments":[],"categories_sizes":[],"default_left":[true,true,true,true,true,true,true,true,false,true,true,false,true,true,true,true,true,true,true,true,true,true,true,true,false,false,true,true,true,false,false,true,true,false,true,true,true,false,true,true,false,true,true,false,false,false,false,true,true,false,false,true,true,true,true,true,true,false,false,false,false,true,true,true,false,false,false,false,false,false,false,false,false,false,false,false,false,false,false,false,false,false,false,false,false,false,false,false,false,false,false],"id":6,"left_children":[1,3,5,7,9,11,13,15,-1,17,19,-1,21,23,25,27,29,31,33,35,37,39,41,43,-1,-1,45,47,49,-1,-1,51,53,-1,55,57,59,-1,61,63,-1,65,67,-1,-1,-1,-1,69,71,-1,-1,73,75,77,79,81,83,-1,-1,-1,-1,85,87,89,-1,-1,-1,-1,-1,-1,-1,-1,-1,-1,-1,-1,-1,-1,-1,-1,-1,-1,-1,-1,-1,-1,-1,-1,-1,-1,-1],"loss_changes":[3.1927938E4,1.1162836E4,5.3880938E3,3.8407139E3,2.0217695E3,3.1056074E3,1.7278281E3,7.0432124E3,0E0,1.2059102E3,1.628834E3,0E0,6.2003516E2,1.5337969E3,2.3649336E3,1.1308026E3,8.4707715E2,4.298E3,2.5146147E3,1.461708E3,7.160708E2,2.581455E3,9.7296484E2,5.511797E2,0E0,0E0,1.8904531E3,4.195598E3,8.2395886E2,0E0,0E0,3.6839868E3,8.692349E2,0E0,1.1651885E3,1.438833E3,3.1095728E3,0E0,9.11666E2,9.728999E2,0E0,1.3944534E3,2.0357168E3,0E0,0E0,0E0,0E0,1.1314849E3,1.5220938E3,0E0,0E0,1.8340928E3,1.1282861E3,2.2528037E3,5.4167764E3,7.5451794E2,6.033965E2,0E0,0E0,0E0,0E0,9.278374E2,1.3591667E3,2.1320508E2,0E0,0E0,0E0,0E0,0E0,0E0,0E0,0E0,0E0,0E0,0E0,0E0,0E0,0E0,0E0,0E0,0E0,0E0,0E0,0E0,0E0,0E0,0E0,0E0,0E0,0E0,0E0],"parents":[2147483647,0,0,1,1,2,2,3,3,4,4,5,5,6,6,7,7,9,9,10,10,12,12,13,13,14,14,15,15,16,16,17,17,18,18,19,19,20,20,21,21,22,22,23,23,26,26,27,27,28,28,31,31,32,32,34,34,35,35,36,36,38,38,39,39,41,41,42,42,47,47,48,48,51,51,52,52,53,53,54,54,55,55,56,56,61,61,62,62,63,63],"right_children":[2,4,6,8,10,12,14,16,-1,18,20,-1,22,24,26,28,30,32,34,36,38,40,42,44,-1,-1,46,48,50,-1,-1,52,54,-1,56,58,60,-1,62,64,-1,66,68,-1,-1,-1,-1,70,72,-1,-1,74,76,78,80,82,84,-1,-1,-1,-1,86,88,90,-1,-1,-1,-1,-1,-1,-1,-1,-1,-1,-1,-1,-1,-1,-1,-1,-1,-1,-1,-1,-1,-1,-1,-1,-1,-1,-1],"split_conditions":[2.6265E3,1.4985E3,3.6275E3,1.4975E3,1.994E3,2.823E3,4.984E3,1.4965E3,-3.0192516E0,4.5E0,1.9975E3,1.054537E1,2.9955E3,2.5E0,4.9995E3,1.486E3,2E0,1.7985E3,1.589E3,2.5E0,2.073E3,2.994E3,2.5E0,3.942E3,1.0915444E1,1.4640051E1,6.207E3,1.469E3,4.5E0,9.632979E0,3.882067E0,1.599E3,5E-1,-5.0317407E0,1.9595E3,1.9955E3,4.5E0,1.1080847E0,5E-1,2.983E3,9.785832E0,2.997E3,4.5E0,8.879623E0,4.705207E0,4.041741E0,1.071368E1,1.3905E3,1.4795E3,-1.8490092E-1,-3.1028776E0,1.5975E3,1.754E3,1.9765E3,2.5E0,1.698E3,1.989E3,1.3719158E0,3.5724826E0,1.2535544E1,5.8560306E-1,2.1975E3,3E0,2.952E3,1.2564663E0,2.676953E0,-1.4938453E0,6.804833E0,1.6302882E0,9.3767196E-2,-1.119132E0,4.5868196E0,3.1280518E-4,2.4775643E0,2.8321138E-1,6.776349E0,3.1458592E0,-4.846447E-1,1.763022E0,-4.5674877E0,7.59925E-1,1.7663305E0,-3.8030064E-1,2.1296635E0,3.872123E0,2.2916439E0,5.311465E0,-2.4654963E0,1.9081752E0,3.6505241E0,6.2423196E0],"split_indices":[0,0,0,0,0,0,0,0,0,6,0,0,0,6,0,0,6,0,0,6,0,0,6,0,0,0,0,0,6,0,0,0,6,0,0,0,6,0,6,0,0,0,6,0,0,0,0,0,0,0,0,0,0,0,6,0,0,0,0,0,0,0,6,0,0,0,0,0,0,0,0,0,0,0,0,0,0,0,0,0,0,0,0,0,0,0,0,0,0,0,0],"split_type":[0,0,0,0,0,0,0,0,0,0,0,0,0,0,0,0,0,0,0,0,0,0,0,0,0,0,0,0,0,0,0,0,0,0,0,0,0,0,0,0,0,0,0,0,0,0,0,0,0,0,0,0,0,0,0,0,0,0,0,0,0,0,0,0,0,0,0,0,0,0,0,0,0,0,0,0,0,0,0,0,0,0,0,0,0,0,0,0,0,0,0],"sum_hessian":[5.404E3,4.864E3,5.4E2,2.161E3,2.703E3,3.34E2,2.06E2,2.062E3,9.9E1,1.741E3,9.62E2,1.5E1,3.19E2,1.41E2,6.5E1,2.028E3,3.4E1,1.175E3,5.66E2,3.46E2,6.16E2,1.48E2,1.71E2,1.27E2,1.4E1,1.6E1,4.9E1,1.928E3,1E2,1.8E1,1.6E1,4.87E2,6.88E2,1.2E1,5.54E2,3.24E2,2.2E1,3.39E2,2.77E2,1.31E2,1.7E1,8.9E1,8.2E1,1.1E1,1.16E2,2.8E1,2.1E1,1.834E3,9.4E1,5.3E1,4.7E1,3.87E2,1E2,4.47E2,2.41E2,1.61E2,3.93E2,1.31E2,1.93E2,1.1E1,1.1E1,1.52E2,1.25E2,8.5E1,4.6E1,6.1E1,2.8E1,3.3E1,4.9E1,1.617E3,2.17E2,6.8E1,2.6E1,1.83E2,2.04E2,4.2E1,5.8E1,2.47E2,2E2,6.4E1,1.77E2,9E1,7.1E1,3.27E2,6.6E1,1.16E2,3.6E1,2E1,1.05E2,6.9E1,1.6E1],"tree_param":{"num_deleted":"0","num_feature":"7","num_nodes":"91","size_leaf_vector":"0"}},{"base_weights":[1.2985177E0,2.3668396E0,3.5162634E-1,3.7174304E0,1.0606894E0,-8.397213E-1,1.791959E0,2.5515459E0,1.2939855E1,-1.5944537E0,1.6597512E0,-3.9867275E0,5.8847123E-1,3.263482E0,5.3235286E-1,4.454317E0,-3.570882E-2,1.105099E1,1.98546E1,1.4044989E0,5.8688574E0,-1.8856082E0,-9.002025E0,1.7443208E0,-3.3746336E0,7.3825234E-1,4.022857E0,-8.806572E0,1.2062087E0,6.0143437E0,3.7185092E0,-3.1198478E0,1.5551717E0,1.9289467E0,-9.39393E0,-1.0189401E1,-1.0544661E0,-1.0029493E1,-5.850391E0,6.0373697E0,9.608636E-1,-8.889848E0,-5.8256626E-1,-4.1437355E-1,1.3580178E1,5.1613173E0,3.3155675E0,-8.3837163E-1,2.680306E0,4.1200023E0,1.1407113E1,2.8865144E0,4.6297297E0,5.335569E0,6.9589055E-1,1.4209732E0,4.8860874E0,8.612525E-1,-2.673574E0,-7.6229277E0,-1.1353282E1,-8.150048E0,-4.6039557E0,1.2021644E0,-7.174122E0,-1.2153757E1,-4.2332312E-1,1.9326569E0,-1.0884593E0,4.007163E0,-3.477541E0,3.017299E0,7.4999223E0,1.1477581E0,4.4535403E0,8.5292345E-1,-1.1597221E0,3.2520156E0,2.1483521E-1,5.1610985E0,2.3716543E0,3.3478622E0,-4.2781796E0,1.919097E1,3.6793969E0,-3.9247513E-1,8.422739E0,2.1431584E0,6.2750244E-1,4.3793855E0,7.0118E0,-1.6403886E0,3.3512108E0,-9.72542E0,-1.9156927E0,6.9691515E-1,8.162791E0,-7.9324114E-1,-1.4652961E0,-2.015312E0,-4.6912756E0,6.4272075E0,4.8184896E-1],"categories":[],"categories_nodes":[],"categories_segments":[],"categories_sizes":[],"default_left":[true,true,true,true,true,true,true,true,true,false,true,true,true,true,true,true,true,false,false,true,false,true,true,true,true,true,true,false,true,true,true,false,true,true,false,false,true,true,true,false,true,true,true,true,false,true,true,true,true,true,false,true,true,true,false,true,true,true,true,false,false,false,false,true,false,false,false,false,true,false,true,false,false,false,true,false,false,false,false,false,false,false,false,false,false,false,false,false,false,false,false,false,false,false,false,false,false,false,false,false,false,false,false],"id":7,"left_children":[1,3,5,7,9,11,13,15,17,-1,19,21,23,25,27,29,31,-1,-1,33,-1,35,37,39,41,43,45,-1,47,49,51,-1,53,55,-1,-1,57,59,61,-1,63,65,67,69,-1,71,73,75,77,79,-1,81,83,85,-1,87,89,91,93,-1,-1,-1,-1,95,-1,-1,-1,-1,97,-1,99,-1,-1,-1,101,-1,-1,-1,-1,-1,-1,-1,-1,-1,-1,-1,-1,-1,-1,-1,-1,-1,-1,-1,-1,-1,-1,-1,-1,-1,-1,-1,-1],"loss_changes":[5.4531914E3,4.447624E3,4.9292896E3,1.3276117E4,2.0596118E3,7.071256E3,2.3907383E3,5.471962E3,1.4415391E3,0E0,1.0910139E3,5.102616E3,4.9403677E3,1.1199473E3,4.4029556E3,6.624658E2,2.313822E3,0E0,0E0,5.6383457E3,0E0,2.3348042E3,3.2822656E2,2.7743901E3,3.6893792E3,2.1585293E3,3.0929443E2,0E0,1.9946096E3,1.9287329E3,2.818745E2,0E0,9.698927E2,1.3945718E3,0E0,0E0,9.9772217E2,1.562666E2,1.0496094E1,0E0,1.3724795E3,2.1703213E3,2.0528935E2,1.771995E3,0E0,7.8218066E2,6.773518E2,1.5198528E2,5.232283E2,2.249458E2,0E0,7.8644385E2,2.651832E3,1.0337303E3,0E0,4.5296973E2,6.097705E1,9.172538E2,8.5309985E2,0E0,0E0,0E0,0E0,2.380157E3,0E0,0E0,0E0,0E0,2.8973541E0,0E0,9.544385E1,0E0,0E0,0E0,1.4282124E3,0E0,0E0,0E0,0E0,0E0,0E0,0E0,0E0,0E0,0E0,0E0,0E0,0E0,0E0,0E0,0E0,0E0,0E0,0E0,0E0,0E0,0E0,0E0,0E0,0E0,0E0,0E0,0E0],"parents":[2147483647,0,0,1,1,2,2,3,3,4,4,5,5,6,6,7,7,8,8,10,10,11,11,12,12,13,13,14,14,15,15,16,16,19,19,21,21,22,22,23,23,24,24,25,25,26,26,28,28,29,29,30,30,32,32,33,33,36,36,37,37,38,38,40,40,41,41,42,42,43,43,45,45,46,46,47,47,48,48,49,49,51,51,52,52,53,53,55,55,56,56,57,57,58,58,63,63,68,68,70,70,74,74],"right_children":[2,4,6,8,10,12,14,16,18,-1,20,22,24,26,28,30,32,-1,-1,34,-1,36,38,40,42,44,46,-1,48,50,52,-1,54,56,-1,-1,58,60,62,-1,64,66,68,70,-1,72,74,76,78,80,-1,82,84,86,-1,88,90,92,94,-1,-1,-1,-1,96,-1,-1,-1,-1,98,-1,100,-1,-1,-1,102,-1,-1,-1,-1,-1,-1,-1,-1,-1,-1,-1,-1,-1,-1,-1,-1,-1,-1,-1,-1,-1,-1,-1,-1,-1,-1,-1,-1],"split_conditions":[5E-1,2.25E1,3.5E0,1.85E1,2.35E1,1.85E1,2.8E1,1.45E1,2.05E1,-7.9722685E-1,3.95E1,1.5E1,1.5E0,1.4E1,3.2E1,7.5E0,1.55E1,5.525495E0,9.9273E0,3.75E1,2.9344287E0,6E0,1.5E0,2.05E1,2.55E1,5.5E0,1.85E1,-4.403286E0,3.95E1,6.5E0,1.05E1,-1.5599239E0,1.75E1,3.15E1,-4.696965E0,-5.0947003E0,9.5E0,1.75E1,1.75E1,3.0186849E0,3.95E1,2.5E0,3.05E1,1.05E1,6.790089E0,1.7E1,2.25E1,3.65E1,5.5E0,1.5E0,5.7035565E0,9.5E0,1.15E1,1.65E1,3.4794527E-1,3.05E1,3.4E1,8.5E0,1.15E1,-3.8114638E0,-5.676641E0,-4.075024E0,-2.3019779E0,3.7E1,-3.587061E0,-6.0768785E0,-2.1166156E-1,9.6632844E-1,3.85E1,2.0035815E0,1.25E1,1.5086495E0,3.7499611E0,5.7387906E-1,5.5E0,4.2646173E-1,-5.7986104E-1,1.6260078E0,1.07417606E-1,2.5805492E0,1.1858271E0,1.6739311E0,-2.1390898E0,9.595485E0,1.8396984E0,-1.9623756E-1,4.2113695E0,1.0715792E0,3.1375122E-1,2.1896927E0,3.5059E0,-8.201943E-1,1.6756054E0,-4.86271E0,-9.5784634E-1,3.4845757E-1,4.0813956E0,-3.9662057E-1,-7.326481E-1,-1.007656E0,-2.3456378E0,3.2136037E0,2.4092448E-1],"split_indices":[5,2,5,2,2,2,2,2,2,0,2,2,5,2,2,2,2,0,0,2,0,2,5,2,2,5,2,0,2,2,2,0,2,2,0,0,2,2,2,0,2,5,2,2,0,2,2,2,5,2,0,2,2,2,0,2,2,2,2,0,0,0,0,2,0,0,0,0,2,0,2,0,0,0,5,0,0,0,0,0,0,0,0,0,0,0,0,0,0,0,0,0,0,0,0,0,0,0,0,0,0,0,0],"split_type":[0,0,0,0,0,0,0,0,0,0,0,0,0,0,0,0,0,0,0,0,0,0,0,0,0,0,0,0,0,0,0,0,0,0,0,0,0,0,0,0,0,0,0,0,0,0,0,0,0,0,0,0,0,0,0,0,0,0,0,0,0,0,0,0,0,0,0,0,0,0,0,0,0,0,0,0,0,0,0,0,0,0,0,0,0,0,0,0,0,0,0,0,0,0,0,0,0,0,0,0,0,0,0],"sum_hessian":[5.404E3,2.536E3,2.868E3,1.244E3,1.292E3,1.568E3,1.3E3,1.106E3,1.38E2,2.36E2,1.056E3,4.9E2,1.078E3,5.97E2,7.03E2,6.38E2,4.68E2,1.11E2,2.7E1,9.98E2,5.8E1,3.47E2,1.43E2,8.36E2,2.42E2,1.4E2,4.57E2,4.6E1,6.57E2,2E2,4.38E2,1.6E2,3.08E2,9.53E2,4.5E1,3E1,3.17E2,1.05E2,3.8E1,1.27E2,7.09E2,8E1,1.62E2,1.29E2,1.1E1,1.7E2,2.87E2,2.74E2,3.83E2,1.5E2,5E1,2.34E2,2.04E2,5.5E1,2.53E2,8.16E2,1.37E2,1.44E2,1.73E2,4.1E1,6.4E1,1E1,2.8E1,6.9E2,1.9E1,5.7E1,2.3E1,2.5E1,1.37E2,5.2E1,7.7E1,9.1E1,7.9E1,1.01E2,1.86E2,4.1E1,2.33E2,3.09E2,7.4E1,9.1E1,5.9E1,2.21E2,1.3E1,1.1E1,1.93E2,1.9E1,3.6E1,4.23E2,3.93E2,1.15E2,2.2E1,7.1E1,7.3E1,1.5E1,1.58E2,6.45E2,4.5E1,8.6E1,5.1E1,3.8E1,3.9E1,1.23E2,6.3E1],"tree_param":{"num_deleted":"0","num_feature":"7","num_nodes":"103","size_leaf_vector":"0"}},{"base_weights":[6.5741765E-1,-7.729585E-1,5.328742E0,-4.4830093E0,1.6478755E-1,4.719557E0,1.0920593E1,-3.5614803E0,-2.4151663E1,1.0115438E0,-3.5296712E0,5.633653E0,-8.34219E0,1.313545E1,9.261278E0,-4.361708E0,-2.144834E0,8.442188E-1,1.9348074E1,-6.5332623E0,1.3337238E0,7.507278E0,3.357313E0,-1.1035033E1,6.2981567E0,7.6600456E0,1.5906329E1,6.1827245E0,1.4320088E1,-1.10299425E1,-3.6149254E0,-6.6593164E-1,-3.905723E0,2.0308874E0,-3.9481437E-1,3.6411423E1,1.7243603E0,-1.6912413E1,-5.7741246E0,1.0993738E1,-3.7861133E0,8.628817E0,4.0339513E0,-4.3563333E0,5.0115824E0,-1.4797522E1,-8.592836E0,2.0569162E1,1.2063312E1,-5.19581E0,-2.5394135E0,-2.980442E0,1.01633355E-1,-5.945035E-1,-5.611788E0,-3.554101E0,2.6971107E0,2.0764027E0,-3.9330428E0,-7.9862485E0,-4.3540564E0,1.4053417E1,-5.942512E0,-1.2161057E1,-6.01087E-2,6.196853E0,1.2296272E1,-6.3353567E0,8.053835E0,-1.5198797E1,-1.1892282E0,3.3895698E0,8.303001E0,-0E0,-1.1653079E1,-3.9360573E0,-1.0651168E1,1.3840618E0,-4.399995E0,-4.348512E0,-8.323304E-1,-2.8377622E-1,1.0824957E0,-2.9337566E0,1.5611871E0,-9.128666E0,-3.347719E-1,-2.1136692E0,-1.763282E1,1.3623674E1,2.320515E0,-5.2785516E-1,4.174008E0,-9.063886E0,-7.225403E-1,2.7280426E-1,-8.678085E0,-1.3874986E0,-5.5226693E0,5.54743E0,2.2258049E1,2.0651088E0,-1.220844E0,1.0347431E1,3.1646137E0,1.5286167E1,6.124677E0,-6.0015285E-1,-1.4946604E1,4.3049407E0,1.2741417E1,2.9096863E0,-2.9400253E0,5.153693E0,-4.446213E0,2.0276417E1,2.567596E0],"categories":[],"categories_nodes":[],"categories_segments":[],"categories_sizes":[],"default_left":[true,true,true,true,true,true,true,true,false,true,true,true,true,true,true,true,true,true,true,true,true,true,true,true,false,false,true,false,false,false,true,true,true,true,true,false,false,false,true,true,true,true,true,true,true,false,true,false,false,true,true,true,true,true,true,true,true,true,true,true,true,true,false,false,true,true,true,true,true,false,true,true,true,false,false,false,false,false,false,false,false,false,false,false,false,false,false,false,false,false,false,false,false,false,false,false,false,false,false,false,false,false,false,false,false,false,false,false,false,false,false,false,false,false,false,false,false],"id":8,"left_children":[1,3,5,7,9,11,13,15,-1,17,19,21,23,25,27,29,31,33,35,37,39,41,43,45,-1,-1,47,-1,-1,-1,49,51,53,55,57,-1,-1,-1,59,61,63,65,67,69,71,-1,73,-1,-1,75,77,79,81,83,85,87,89,91,93,95,97,99,-1,-1,101,103,105,107,109,-1,111,113,115,-1,-1,-1,-1,-1,-1,-1,-1,-1,-1,-1,-1,-1,-1,-1,-1,-1,-1,-1,-1,-1,-1,-1,-1,-1,-1,-1,-1,-1,-1,-1,-1,-1,-1,-1,-1,-1,-1,-1,-1,-1,-1,-1,-1],"loss_changes":[3.614176E4,1.4418786E4,4.189668E3,1.4928113E4,1.0323774E4,1.3716346E4,2.184082E2,8.6502344E2,0E0,8.1329834E3,9.018416E3,4.4925625E3,3.049996E3,5.0373633E2,9.7698535E2,2.4166035E3,7.375663E2,3.9288596E3,6.9638047E3,2.7908896E3,1.1700222E4,2.184625E3,6.2394463E3,3.439746E2,0E0,0E0,1.4420508E2,0E0,0E0,0E0,7.285488E2,3.0249597E2,7.113208E2,5.0805396E3,1.1410529E4,0E0,0E0,0E0,1.0249941E3,4.3732646E3,4.7437456E3,3.764664E3,6.1453955E3,2.8531577E3,2.0595605E3,0E0,1.1084746E3,0E0,0E0,1.1427891E3,2.0432542E3,9.39046E1,5.0042866E1,2.4845016E2,1.5456685E3,2.8045156E3,4.90884E3,4.2103286E3,8.790298E3,8.272002E2,7.2393945E2,4.6226914E3,0E0,0E0,2.6471588E2,3.272621E3,3.010045E3,1.9381736E3,1.7226812E3,0E0,4.9669928E2,3.7863862E3,8.829801E3,0E0,0E0,0E0,0E0,0E0,0E0,0E0,0E0,0E0,0E0,0E0,0E0,0E0,0E0,0E0,0E0,0E0,0E0,0E0,0E0,0E0,0E0,0E0,0E0,0E0,0E0,0E0,0E0,0E0,0E0,0E0,0E0,0E0,0E0,0E0,0E0,0E0,0E0,0E0,0E0,0E0,0E0,0E0,0E0],"parents":[2147483647,0,0,1,1,2,2,3,3,4,4,5,5,6,6,7,7,9,9,10,10,11,11,12,12,13,13,14,14,15,15,16,16,17,17,18,18,19,19,20,20,21,21,22,22,23,23,26,26,30,30,31,31,32,32,33,33,34,34,38,38,39,39,40,40,41,41,42,42,43,43,44,44,46,46,49,49,50,50,51,51,52,52,53,53,54,54,55,55,56,56,57,57,58,58,59,59,60,60,61,61,64,64,65,65,66,66,67,67,68,68,70,70,71,71,72,72],"right_children":[2,4,6,8,10,12,14,16,-1,18,20,22,24,26,28,30,32,34,36,38,40,42,44,46,-1,-1,48,-1,-1,-1,50,52,54,56,58,-1,-1,-1,60,62,64,66,68,70,72,-1,74,-1,-1,76,78,80,82,84,86,88,90,92,94,96,98,100,-1,-1,102,104,106,108,110,-1,112,114,116,-1,-1,-1,-1,-1,-1,-1,-1,-1,-1,-1,-1,-1,-1,-1,-1,-1,-1,-1,-1,-1,-1,-1,-1,-1,-1,-1,-1,-1,-1,-1,-1,-1,-1,-1,-1,-1,-1,-1,-1,-1,-1,-1,-1],"split_conditions":[2.295E2,9.95E1,5.275E2,9.75E1,1.855E2,4.525E2,5.96E2,1.5E0,-1.2075831E1,1.845E2,1.985E2,1.5E0,5.175E2,5.535E2,6.37E2,6.8E1,4.5E0,5E-1,1.5E0,1.87E2,2.01E2,3.35E2,4E0,4.725E2,3.1490784E0,3.8300228E0,5.675E2,3.0913622E0,7.160044E0,-5.5149713E0,8.7E1,2.5E0,7.3E1,1.13E2,1.48E2,1.8205711E1,8.621802E-1,-8.456206E0,1.92E2,1.5E0,5E-1,2.995E2,3.735E2,3.025E2,2.685E2,-7.398761E0,5.065E2,1.0284581E1,6.031656E0,8.45E1,8.95E1,9.15E1,8.45E1,7.05E1,9.25E1,1.115E2,1.145E2,1.175E2,1.535E2,1.895E2,1.945E2,5E-1,-2.971256E0,-6.0805287E0,2.5E0,2.465E2,5E-1,3.585E2,4.01E2,-7.5993986E0,3.13E2,2.54E2,3.03E2,-0E0,-5.8265395E0,-1.9680287E0,-5.325584E0,6.920309E-1,-2.1999974E0,-2.174256E0,-4.161652E-1,-1.4188811E-1,5.4124784E-1,-1.4668783E0,7.805936E-1,-4.564333E0,-1.6738595E-1,-1.0568346E0,-8.81641E0,6.811837E0,1.1602575E0,-2.6392758E-1,2.087004E0,-4.531943E0,-3.6127016E-1,1.3640213E-1,-4.3390427E0,-6.937493E-1,-2.7613347E0,2.773715E0,1.11290245E1,1.0325544E0,-6.10422E-1,5.1737156E0,1.5823069E0,7.6430836E0,3.0623386E0,-3.0007643E-1,-7.473302E0,2.1524704E0,6.3707085E0,1.4548432E0,-1.4700127E0,2.5768466E0,-2.2231064E0,1.0138208E1,1.283798E0],"split_indices":[1,1,1,1,1,1,1,5,0,1,1,5,1,1,1,1,5,5,5,1,1,1,5,1,0,0,1,0,0,0,1,5,1,1,1,0,0,0,1,5,5,1,1,1,1,0,1,0,0,1,1,1,1,1,1,1,1,1,1,1,1,5,0,0,5,1,5,1,1,0,1,1,1,0,0,0,0,0,0,0,0,0,0,0,0,0,0,0,0,0,0,0,0,0,0,0,0,0,0,0,0,0,0,0,0,0,0,0,0,0,0,0,0,0,0,0,0],"split_type":[0,0,0,0,0,0,0,0,0,0,0,0,0,0,0,0,0,0,0,0,0,0,0,0,0,0,0,0,0,0,0,0,0,0,0,0,0,0,0,0,0,0,0,0,0,0,0,0,0,0,0,0,0,0,0,0,0,0,0,0,0,0,0,0,0,0,0,0,0,0,0,0,0,0,0,0,0,0,0,0,0,0,0,0,0,0,0,0,0,0,0,0,0,0,0,0,0,0,0,0,0,0,0,0,0,0,0,0,0,0,0,0,0,0,0,0,0],"sum_hessian":[5.404E3,4.137E3,1.267E3,8.35E2,3.302E3,1.145E3,1.22E2,7.99E2,3.6E1,2.688E3,6.14E2,1.071E3,7.4E1,4.8E1,7.4E1,5.07E2,2.92E2,2.665E3,2.3E1,3.8E2,2.34E2,5.85E2,4.86E2,6.3E1,1.1E1,1.8E1,3E1,4.8E1,2.6E1,4.9E1,4.58E2,1.61E2,1.31E2,1.363E3,1.302E3,1.1E1,1.2E1,2.4E1,3.56E2,8.1E1,1.53E2,4.4E2,1.45E2,8.5E1,4.01E2,2.2E1,4.1E1,1.1E1,1.9E1,1.82E2,2.76E2,4.1E1,1.2E2,4.6E1,8.5E1,1.44E2,1.219E3,7.66E2,5.36E2,1.36E2,2.2E2,6.9E1,1.2E1,4.6E1,1.07E2,2.67E2,1.73E2,4E1,1.05E2,1.8E1,6.7E1,2.71E2,1.3E2,1.1E1,3E1,1.5E2,3.2E1,8.8E1,1.88E2,2.3E1,1.8E1,8.3E1,3.7E1,2.3E1,2.3E1,5E1,3.5E1,1.32E2,1.2E1,3.9E1,1.18E3,3.41E2,4.25E2,2.05E2,3.31E2,1E1,1.26E2,6.4E1,1.56E2,3.5E1,3.4E1,3.6E1,7.1E1,1.11E2,1.56E2,1.15E2,5.8E1,2.5E1,1.5E1,6E1,4.5E1,1.9E1,4.8E1,2.22E2,4.9E1,4.1E1,8.9E1],"tree_param":{"num_deleted":"0","num_feature":"7","num_nodes":"117","size_leaf_vector":"0"}},{"base_weights":[3.295629E-1,2.9074504E0,-7.5100267E-1,1.4702473E0,6.628311E0,-2.3254347E0,2.779133E0,-8.6308676E-1,2.6399791E0,5.7384853E0,1.9973452E1,-2.6735451E0,3.2676508E0,-5.5836904E-1,5.263272E0,-1.0249605E0,4.2792554E0,1.0683171E1,2.338226E0,7.1282578E0,3.59818E0,-3.8772366E0,-7.65669E-1,6.23532E0,1.2538694E0,2.2019472E0,-1.3173449E0,7.444248E0,1.4907452E0,-7.741832E-1,-3.2961068E0,3.4504378E-1,3.2748966E0,7.9741526E0,6.214045E0,2.6467178E0,6.451691E0,-2.2047896E0,-1.1323187E1,8.5852206E-1,-1.4777197E0,1.377306E0,1.5184999E1,2.0985217E0,-4.8556447E0,-4.2491455E0,9.203087E0,-2.3418805E-1,-3.3880146E0,5.51831E0,1.2324455E1,2.1206124E0,-2.6905613E0,7.8337096E-2,-1.0506238E0,-5.3288403E0,1.6919884E-1,1.9193878E0,1.7913419E-1,8.92106E0,1.9326855E0,6.378432E0,1.0818691E1,4.5111666E0,7.87338E0,3.9007063E0,-5.550189E0,1.5685098E1,1.7557634E0,-4.883836E0,-8.0576724E-1,1.4146571E0,-1.2889921E1,1.1087525E1,-4.2384577E-1,-5.938162E0,-9.158659E-1,-6.1409383E0,4.161931E0,-5.9013023E0,-1.5920491E0,1.70947E0,-1.8735014E0,-8.65399E0,-9.0958275E-2,7.0376816E0,-5.3308454E0,1.2812293E1,6.4902062E0,2.5644107E0,1.3076342E0,1.0419388E0,-8.610518E0,-1.6865997E0,6.6072637E-1,-1.4973972E0,-2.3666227E-1,-7.5313136E-2,2.7231827E0,9.556712E0,5.4021754E0,2.524215E0,5.140914E0,-6.1932373E-1,5.9372005E0,-2.1676505E0,-7.6046696E0,-2.030297E0,3.0974991E0,-1.101228E1,-1.663281E1,1.5481861E1,8.286428E0,1.0156051E0,-2.7871232E0,1.1072503E0,-1.5347321E0,1.4437424E1,-1.9614608E0,-3.6657605E-2,2.2766669E0,-5.767243E0,-6.648677E-1,-3.0838602E0,-1.0543123E1,-8.374223E0,3.8918903E0,-6.6305226E-1,-1.2110592E1,9.873001E0,1.4600666E1,1.9538053E0,3.417046E0,7.5802636E-1,3.6051288E0],"categories":[],"categories_nodes":[],"categories_segments":[],"categories_sizes":[],"default_left":[true,true,true,true,true,true,true,true,true,true,false,true,true,true,true,true,false,false,true,true,true,true,true,true,true,true,true,true,true,true,true,true,true,true,true,true,true,true,true,true,true,true,false,false,false,true,false,true,true,true,true,true,true,true,true,false,false,false,false,false,true,true,false,true,false,false,false,false,true,true,true,false,true,true,true,false,true,false,true,false,false,true,true,true,true,false,true,true,false,true,true,false,false,false,false,false,false,false,false,false,false,false,false,false,false,false,false,false,false,false,false,false,false,false,false,false,false,false,false,false,false,false,false,false,false,false,false,false,false,false,false,false,false,false,false],"id":9,"left_children":[1,3,5,7,9,11,13,15,17,19,-1,21,23,25,27,29,-1,-1,31,33,35,37,39,41,43,45,47,49,51,53,55,57,59,61,63,65,67,69,71,73,75,77,-1,-1,-1,79,-1,81,83,85,87,89,91,93,95,-1,-1,-1,-1,-1,97,99,-1,101,-1,-1,-1,-1,103,105,107,-1,109,111,113,-1,115,-1,117,-1,-1,119,121,123,125,-1,127,129,-1,131,133,-1,-1,-1,-1,-1,-1,-1,-1,-1,-1,-1,-1,-1,-1,-1,-1,-1,-1,-1,-1,-1,-1,-1,-1,-1,-1,-1,-1,-1,-1,-1,-1,-1,-1,-1,-1,-1,-1,-1,-1,-1,-1,-1,-1],"loss_changes":[1.5069007E4,8.495278E3,2.1168902E4,3.1635918E3,5.029256E3,5.1361387E3,9.759883E3,3.0859262E2,1.7811758E3,1.1640752E3,0E0,5.673717E3,8.750762E2,1.0480796E3,5.489758E3,1.906788E2,0E0,0E0,1.3716521E3,7.3612305E1,3.9355347E2,1.8835889E4,1.1180803E3,2.5484119E3,4.814831E2,4.89653E3,8.6702527E2,3.8467402E3,6.586392E2,8.530763E1,2.7324133E2,5.211246E1,3.7555527E3,4.0785498E2,2.642417E2,1.3393708E3,1.6196326E3,4.6264365E3,5.6236055E3,3.8882825E3,1.6444016E3,8.740184E2,0E0,0E0,0E0,1.9897473E2,0E0,8.388242E2,2.2820251E3,5.123091E3,1.5902734E2,5.594055E1,7.5389417E2,7.821544E1,8.6253296E1,0E0,0E0,0E0,0E0,0E0,6.642445E2,1.311123E2,0E0,3.2533203E1,0E0,0E0,0E0,0E0,3.0834222E2,3.0755273E3,3.9154995E3,0E0,1.4215039E3,1.5906519E2,8.9616187E2,0E0,7.538076E2,0E0,2.0412452E3,0E0,0E0,1.2914084E2,6.4168445E2,4.3601025E2,2.826246E3,0E0,1.1306669E3,3.0118555E2,0E0,3.7274353E1,8.025729E1,0E0,0E0,0E0,0E0,0E0,0E0,0E0,0E0,0E0,0E0,0E0,0E0,0E0,0E0,0E0,0E0,0E0,0E0,0E0,0E0,0E0,0E0,0E0,0E0,0E0,0E0,0E0,0E0,0E0,0E0,0E0,0E0,0E0,0E0,0E0,0E0,0E0,0E0,0E0,0E0,0E0,0E0,0E0,0E0],"parents":[2147483647,0,0,1,1,2,2,3,3,4,4,5,5,6,6,7,7,8,8,9,9,11,11,12,12,13,13,14,14,15,15,18,18,19,19,20,20,21,21,22,22,23,23,24,24,25,25,26,26,27,27,28,28,29,29,30,30,31,31,32,32,33,33,34,34,35,35,36,36,37,37,38,38,39,39,40,40,41,41,45,45,47,47,48,48,49,49,50,50,51,51,52,52,53,53,54,54,60,60,61,61,63,63,68,68,69,69,70,70,72,72,73,73,74,74,76,76,78,78,81,81,82,82,83,83,84,84,86,86,87,87,89,89,90,90],"right_children":[2,4,6,8,10,12,14,16,18,20,-1,22,24,26,28,30,-1,-1,32,34,36,38,40,42,44,46,48,50,52,54,56,58,60,62,64,66,68,70,72,74,76,78,-1,-1,-1,80,-1,82,84,86,88,90,92,94,96,-1,-1,-1,-1,-1,98,100,-1,102,-1,-1,-1,-1,104,106,108,-1,110,112,114,-1,116,-1,118,-1,-1,120,122,124,126,-1,128,130,-1,132,134,-1,-1,-1,-1,-1,-1,-1,-1,-1,-1,-1,-1,-1,-1,-1,-1,-1,-1,-1,-1,-1,-1,-1,-1,-1,-1,-1,-1,-1,-1,-1,-1,-1,-1,-1,-1,-1,-1,-1,-1,-1,-1,-1,-1],"split_conditions":[2.5E0,1.5905E3,1.65E1,1.5E0,2.23E3,3.8785E3,1.698E3,1.4795E3,9.93E2,1.9975E3,9.986726E0,9.5E0,7.5E0,1.95E1,2.322E3,5E-1,2.1396277E0,5.3415856E0,1.098E3,1.874E3,1.9995E3,6.5E0,1.539E3,5.5E0,4.3295E3,1.5445E3,1.486E3,1.996E3,4.668E3,9.48E2,1.35E3,9.985E2,1.331E3,1.608E3,1.9955E3,1.9985E3,2.167E3,1.4985E3,1.723E3,1.05E1,1.874E3,4.3405E3,7.5924997E0,1.0492609E0,-2.4278224E0,1.176E3,4.6015434E0,2.15E1,2.3E1,1.978E3,2.35E1,2.9955E3,1.8E1,8.865E2,1.2205E3,-2.6644201E0,8.459942E-2,9.596939E-1,8.9567095E-2,4.46053E0,1.343E3,1.5945E3,5.4093456E0,1.993E3,3.93669E0,1.9503531E0,-2.7750945E0,7.842549E0,2.1915E3,1.3325E3,5.5E0,7.0732856E-1,1.983E3,1.4965E3,9.97E2,-2.969081E0,1.9715E3,-3.0704691E0,5.5695E3,-2.9506512E0,-7.9602456E-1,2.05E1,2.45E1,1.5975E3,1.59E3,3.5188408E0,1.991E3,1.9975E3,3.2451031E0,2.4905E3,3.6275E3,5.209694E-1,-4.305259E0,-8.4329987E-1,3.3036318E-1,-7.486986E-1,-1.18331134E-1,-3.7656568E-2,1.3615913E0,4.778356E0,2.7010877E0,1.2621075E0,2.570457E0,-3.0966187E-1,2.9686003E0,-1.0838252E0,-3.8023348E0,-1.0151485E0,1.5487496E0,-5.50614E0,-8.316405E0,7.7409306E0,4.143214E0,5.0780255E-1,-1.3935616E0,5.5362517E-1,-7.6736605E-1,7.218712E0,-9.807304E-1,-1.8328803E-2,1.1383334E0,-2.8836215E0,-3.3243385E-1,-1.5419301E0,-5.2715616E0,-4.1871114E0,1.9459451E0,-3.3152613E-1,-6.055296E0,4.9365005E0,7.300333E0,9.7690266E-1,1.708523E0,3.7901318E-1,1.8025644E0],"split_indices":[3,0,3,3,0,0,0,0,0,0,0,3,3,3,0,3,0,0,0,0,0,3,0,3,0,0,0,0,0,0,0,0,0,0,0,0,0,0,0,3,0,0,0,0,0,0,0,3,3,0,3,0,3,0,0,0,0,0,0,0,0,0,0,0,0,0,0,0,0,0,3,0,0,0,0,0,0,0,0,0,0,3,3,0,0,0,0,0,0,0,0,0,0,0,0,0,0,0,0,0,0,0,0,0,0,0,0,0,0,0,0,0,0,0,0,0,0,0,0,0,0,0,0,0,0,0,0,0,0,0,0,0,0,0,0],"split_type":[0,0,0,0,0,0,0,0,0,0,0,0,0,0,0,0,0,0,0,0,0,0,0,0,0,0,0,0,0,0,0,0,0,0,0,0,0,0,0,0,0,0,0,0,0,0,0,0,0,0,0,0,0,0,0,0,0,0,0,0,0,0,0,0,0,0,0,0,0,0,0,0,0,0,0,0,0,0,0,0,0,0,0,0,0,0,0,0,0,0,0,0,0,0,0,0,0,0,0,0,0,0,0,0,0,0,0,0,0,0,0,0,0,0,0,0,0,0,0,0,0,0,0,0,0,0,0,0,0,0,0,0,0,0,0],"sum_hessian":[5.404E3,1.597E3,3.807E3,1.154E3,4.43E2,2.634E3,1.173E3,3.84E2,7.7E2,4.17E2,2.6E1,2.481E3,1.53E2,5E2,6.73E2,3.74E2,1E1,2.6E1,7.44E2,2.5E2,1.67E2,1.519E3,9.62E2,6E1,9.3E1,1.06E2,3.94E2,4.25E2,2.48E2,3.4E2,3.4E1,2.4E2,5.04E2,1.23E2,1.27E2,1.28E2,3.9E1,1.242E3,2.77E2,2.91E2,6.71E2,4E1,2E1,8.3E1,1E1,5.5E1,5.1E1,2.61E2,1.33E2,3.07E2,1.18E2,2.17E2,3.1E1,7.9E1,2.61E2,2.2E1,1.2E1,1.9E1,2.21E2,9.5E1,4.09E2,8.2E1,4.1E1,6.6E1,6.1E1,1.12E2,1.6E1,1.2E1,2.7E1,4.24E2,8.18E2,3E1,2.47E2,3.2E1,2.59E2,7.3E1,5.98E2,1E1,3E1,3.2E1,2.3E1,1.18E2,1.43E2,5E1,8.3E1,2.7E2,3.7E1,1.07E2,1.1E1,1.35E2,8.2E1,1.9E1,1.2E1,1.7E1,6.2E1,1.64E2,9.7E1,1.14E2,2.95E2,1.6E1,6.6E1,1.9E1,4.7E1,1.7E1,1E1,2.14E2,2.1E2,6.24E2,1.94E2,1.68E2,7.9E1,1E1,2.2E1,1.6E2,9.9E1,1.38E2,4.6E2,1.1E1,1.9E1,2.7E1,9.1E1,3.2E1,1.11E2,1.4E1,3.6E1,2.7E1,5.6E1,2.3E1,1.4E1,4.4E1,6.3E1,8.4E1,5.1E1,6.9E1,1.3E1],"tree_param":{"num_deleted":"0","num_feature":"7","num_nodes":"135","size_leaf_vector":"0"}},{"base_weights":[1.7890002E-1,1.501084E0,-3.74679E-1,-2.3151506E-1,2.082017E0,-1.1637679E0,1.3924624E0,-5.3724825E-1,3.670985E0,2.3096778E0,-2.4008675E-1,-1.7149341E0,-3.133607E-1,7.243159E-1,3.5354338E0,-4.0599358E-1,-1.6503366E0,4.6062997E-1,-5.2377254E-1,-9.3532574E-1,-5.1446457E0,-1.0486238E0,9.6049887E-1,3.019454E0,3.380683E-2,-7.800325E-1,4.534853E0,-6.690796E-1,-0E0,-1.4523206E0,2.6808867E0,-6.9923477E0,-4.491371E0,-4.3775004E-1,-1.8960403E0,1.1789422E0,7.670489E-1,-5.553189E-1,1.2056149E0,-1.6069849E0,1.9937882E0,-4.1779208E-1,-1.7075607E0,5.0566846E-1,5.761421E0,-4.2457047E-1,-6.0333533E0,-3.1509355E-2,-2.9258935E0,-9.840868E0,-2.7002242E-1,9.3907994E-1,1.8179832E0,-7.732218E-1,2.647873E0,6.4214816E0,-7.137642E-2,-2.2422283E0,-1.1814463E0,1.3061992E0,-2.031412E-1,3.0546528E-1,-7.641394E0,-7.244721E0,4.3124075E0,4.579845E-1,-9.3049586E-1,-5.7072926E-1,-8.016732E0,4.5606904E0,9.75379E0,8.3090685E-2,-2.059245E0],"categories":[],"categories_nodes":[],"categories_segments":[],"categories_sizes":[],"default_left":[true,true,true,true,true,true,true,true,false,false,true,true,true,true,true,false,false,false,true,true,true,true,true,false,true,true,false,false,false,true,true,false,true,true,true,true,false,true,true,false,false,false,true,true,false,false,false,true,true,false,true,false,false,true,false,true,true,false,false,false,false,false,false,false,false,false,false,false,false,false,false,false,false],"id":10,"left_children":[1,3,5,7,9,11,13,15,-1,-1,17,19,21,23,25,-1,-1,-1,27,29,31,33,35,-1,37,39,-1,-1,-1,41,43,-1,45,47,49,51,-1,53,55,-1,-1,-1,57,59,-1,-1,-1,61,63,-1,65,-1,-1,67,-1,69,71,-1,-1,-1,-1,-1,-1,-1,-1,-1,-1,-1,-1,-1,-1,-1,-1],"loss_changes":[3.962294E3,1.6181594E3,5.3104727E3,4.635531E2,6.4475635E2,1.224387E3,1.6570957E3,4.3542892E1,0E0,0E0,2.1628017E1,4.22955E3,9.764712E2,1.4077942E3,1.217002E3,0E0,0E0,0E0,5.981703E0,2.4319219E3,2.6605078E2,3.307126E2,5.3814697E0,0E0,4.8232816E2,1.2054848E2,0E0,0E0,0E0,2.8994434E2,1.0512864E3,0E0,1.3572959E3,3.7932697E2,3.4864385E3,9.64566E0,0E0,3.1304916E2,1.5974537E3,0E0,0E0,0E0,2.3649341E2,6.082075E1,0E0,0E0,0E0,9.057601E2,1.7027352E3,0E0,1.12898605E2,0E0,0E0,5.861261E2,0E0,1.753778E2,6.808628E1,0E0,0E0,0E0,0E0,0E0,0E0,0E0,0E0,0E0,0E0,0E0,0E0,0E0,0E0,0E0,0E0],"parents":[2147483647,0,0,1,1,2,2,3,3,4,4,5,5,6,6,7,7,10,10,11,11,12,12,13,13,14,14,18,18,19,19,20,20,21,21,22,22,24,24,25,25,29,29,30,30,32,32,33,33,34,34,35,35,37,37,38,38,42,42,43,43,47,47,48,48,50,50,53,53,55,55,56,56],"right_children":[2,4,6,8,10,12,14,16,-1,-1,18,20,22,24,26,-1,-1,-1,28,30,32,34,36,-1,38,40,-1,-1,-1,42,44,-1,46,48,50,52,-1,54,56,-1,-1,-1,58,60,-1,-1,-1,62,64,-1,66,-1,-1,68,-1,70,72,-1,-1,-1,-1,-1,-1,-1,-1,-1,-1,-1,-1,-1,-1,-1,-1],"split_conditions":[2.5E0,1.5E0,1.65E1,1.5E0,1.5E0,9.5E0,3.95E1,5E-1,1.8354925E0,1.1548389E0,3.5E0,6.5E0,3E0,1.75E1,2.5E0,-2.0299679E-1,-8.251683E-1,2.3031498E-1,4.5E0,5E-1,7.5E0,1.35E1,1.1E1,1.509727E0,4.5E0,4.05E1,2.2674265E0,-3.345398E-1,-0E0,3.5E0,4E0,-3.4961739E0,5E-1,5E-1,1.45E1,4.5E0,3.8352445E-1,3.45E1,2.75E1,-8.034924E-1,9.968941E-1,-2.0889604E-1,5.5E0,3E0,2.8807106E0,-2.1228524E-1,-3.0166767E0,1.05E1,1.1E1,-4.920434E0,1.55E1,4.6953997E-1,9.089916E-1,3.25E1,1.3239365E0,2.25E1,3.7E1,-1.1211141E0,-5.9072316E-1,6.530996E-1,-1.015706E-1,1.5273264E-1,-3.820697E0,-3.6223605E0,2.1562037E0,2.2899225E-1,-4.6524793E-1,-2.8536463E-1,-4.008366E0,2.2803452E0,4.876895E0,4.1545343E-2,-1.0296226E0],"split_indices":[3,3,3,6,6,3,3,3,0,0,6,3,6,3,6,0,0,0,6,6,3,3,3,0,6,3,0,0,0,3,3,0,6,6,3,6,0,3,3,0,0,0,3,6,0,0,0,3,3,0,3,0,0,3,0,3,3,0,0,0,0,0,0,0,0,0,0,0,0,0,0,0,0],"split_type":[0,0,0,0,0,0,0,0,0,0,0,0,0,0,0,0,0,0,0,0,0,0,0,0,0,0,0,0,0,0,0,0,0,0,0,0,0,0,0,0,0,0,0,0,0,0,0,0,0,0,0,0,0,0,0,0,0,0,0,0,0,0,0,0,0,0,0,0,0,0,0,0,0],"sum_hessian":[5.404E3,1.597E3,3.807E3,3.99E2,1.198E3,2.634E3,1.173E3,3.72E2,2.7E1,1.093E3,1.05E2,1.594E3,1.04E3,8.97E2,2.76E2,3.38E2,3.4E1,2.5E1,8E1,1.301E3,2.93E2,6.62E2,3.78E2,2.05E2,6.92E2,5.1E1,2.25E2,6.2E1,1.8E1,1.14E3,1.61E2,7.2E1,2.21E2,3.89E2,2.73E2,1.63E2,2.15E2,4.58E2,2.34E2,4.1E1,1E1,2.3E2,9.1E2,9.6E1,6.5E1,6.2E1,1.59E2,3.37E2,5.2E1,4.5E1,2.28E2,1.26E2,3.7E1,4.31E2,2.7E1,4.6E1,1.88E2,4.45E2,4.65E2,4.8E1,4.8E1,3.23E2,1.4E1,3.3E1,1.9E1,1.05E2,1.23E2,4.21E2,1E1,3.2E1,1.4E1,1.73E2,1.5E1],"tree_param":{"num_deleted":"0","num_feature":"7","num_nodes":"73","size_leaf_vector":"0"}},{"base_weights":[8.8089556E-2,7.2592014E-1,-2.3883195E-1,1.9320902E-1,2.7683337E0,-1.6533579E0,5.3372968E-2,3.003291E-1,-9.6380097E-1,2.2305894E0,8.765148E0,-9.4026357E-1,-5.1334643E0,8.357166E0,-1.28883375E-2,2.153129E-1,4.9453735E0,5.3492227E0,1.5208175E0,1.078876E1,4.9043674E0,4.2014313E-1,-1.6204045E0,-6.402515E0,-9.365639E-1,2.234375E0,1.4935522E1,-3.412003E0,7.209882E-2,3.269099E-1,-1.6254649E0,3.699286E0,9.302035E0,1.759165E0,-5.681534E-1,-8.51847E-1,7.64116E0,-5.5187654E0,-9.0594995E-1,1.8857138E0,-5.8323064E0,1.0190475E0,-3.1819382E-1,1.4134891E-1,6.0953803E0,4.6668267E0,1.6034241E0,1.4026811E0,9.246603E0,-1.4486427E0,-3.7437266E-1,-1.6642678E0,-3.7132204E-1,8.747649E-1,9.101787E0,-8.0569273E-1,4.9844542E-1,2.9558134E-1,-4.0357714E0,1.768483E0,-1.7602746E0,-7.831606E-1,-9.629195E0,8.757162E-1,-8.5406613E-1,-0E0,1.0045816E0,-3.5913786E-1,-2.0474625E0,1.9825926E0,-5.5623525E-1],"categories":[],"categories_nodes":[],"categories_segments":[],"categories_sizes":[],"default_left":[true,true,true,true,true,true,true,true,false,true,true,true,true,true,true,true,false,true,true,false,false,true,true,false,false,false,false,true,true,true,false,true,false,true,false,true,false,false,true,false,false,true,true,true,false,false,false,true,false,false,false,true,true,true,false,true,true,false,false,false,false,false,false,false,false,false,false,false,false,false,false],"id":11,"left_children":[1,3,5,7,9,11,13,15,-1,17,19,21,23,25,27,29,-1,31,33,-1,-1,35,37,-1,-1,-1,-1,39,41,43,-1,45,-1,47,-1,49,-1,-1,51,-1,-1,53,55,57,-1,-1,-1,59,-1,-1,-1,61,63,65,-1,67,69,-1,-1,-1,-1,-1,-1,-1,-1,-1,-1,-1,-1,-1,-1],"loss_changes":[1.1296624E3,1.9833435E3,1.4832681E3,1.7792299E2,1.1444265E3,1.488534E3,1.66828E3,5.0269797E2,0E0,7.300325E2,1.0300415E2,4.8041943E2,5.058943E2,8.474486E2,8.6423376E2,2.6499454E2,0E0,3.1146167E2,1.4985211E2,0E0,0E0,1.5927312E3,9.20986E2,0E0,0E0,0E0,0E0,9.6674316E2,1.0612172E3,1.3027474E3,0E0,5.6473938E1,0E0,6.277628E2,0E0,3.137606E1,0E0,0E0,1.07991486E2,0E0,0E0,9.2059576E2,8.0731586E2,7.6203125E2,0E0,0E0,0E0,2.9240784E2,0E0,0E0,0E0,7.614977E2,1.07193726E2,8.9500244E1,0E0,6.9202454E2,1.1869065E3,0E0,0E0,0E0,0E0,0E0,0E0,0E0,0E0,0E0,0E0,0E0,0E0,0E0,0E0],"parents":[2147483647,0,0,1,1,2,2,3,3,4,4,5,5,6,6,7,7,9,9,10,10,11,11,12,12,13,13,14,14,15,15,17,17,18,18,21,21,22,22,27,27,28,28,29,29,31,31,33,33,35,35,38,38,41,41,42,42,43,43,47,47,51,51,52,52,53,53,55,55,56,56],"right_children":[2,4,6,8,10,12,14,16,-1,18,20,22,24,26,28,30,-1,32,34,-1,-1,36,38,-1,-1,-1,-1,40,42,44,-1,46,-1,48,-1,50,-1,-1,52,-1,-1,54,56,58,-1,-1,-1,60,-1,-1,-1,62,64,66,-1,68,70,-1,-1,-1,-1,-1,-1,-1,-1,-1,-1,-1,-1,-1,-1],"split_conditions":[5E-1,1.608E3,1.3605E3,1.594E3,2.197E3,1.3325E3,1.3905E3,1.5905E3,-4.8190048E-1,1.9875E3,3.2255E3,9.97E2,1.343E3,1.3705E3,1.469E3,1.4985E3,2.4726868E0,1.959E3,2.15E3,5.39438E0,2.4521837E0,9.43E2,9.985E2,-3.2012575E0,-4.6828195E-1,1.1171875E0,7.467761E0,1.428E3,1.962E3,1.4965E3,-8.1273246E-1,1.754E3,4.6510177E0,2.0015E3,-2.840767E-1,1.5E0,3.82058E0,-2.7593827E0,1.245E3,9.428569E-1,-2.9161532E0,1.9505E3,2.073E3,1.493E3,3.0476902E0,2.3334134E0,8.0171204E-1,1.9985E3,4.6233015E0,-7.2432137E-1,-1.8718633E-1,1.2205E3,1.331E3,1.4965E3,4.5508933E0,1.996E3,2.952E3,1.4779067E-1,-2.0178857E0,8.842415E-1,-8.801373E-1,-3.915803E-1,-4.8145976E0,4.378581E-1,-4.2703307E-1,-0E0,5.022908E-1,-1.7956893E-1,-1.0237312E0,9.912963E-1,-2.7811763E-1],"split_indices":[4,0,0,0,0,0,0,0,0,0,0,0,0,0,0,0,0,0,0,0,0,0,0,0,0,0,0,0,0,0,0,0,0,0,0,4,0,0,0,0,0,0,0,0,0,0,0,0,0,0,0,0,0,0,0,0,0,0,0,0,0,0,0,0,0,0,0,0,0,0,0],"split_type":[0,0,0,0,0,0,0,0,0,0,0,0,0,0,0,0,0,0,0,0,0,0,0,0,0,0,0,0,0,0,0,0,0,0,0,0,0,0,0,0,0,0,0,0,0,0,0,0,0,0,0,0,0,0,0,0,0,0,0,0,0,0,0,0,0,0,0,0,0,0,0],"sum_hessian":[5.404E3,1.836E3,3.568E3,1.459E3,3.77E2,6.13E2,2.955E3,1.34E3,1.19E2,3.48E2,2.9E1,5.11E2,1.02E2,2.3E1,2.932E3,1.318E3,2.2E1,6.2E1,2.86E2,1.7E1,1.2E1,1.68E2,3.43E2,7.7E1,2.5E1,1.3E1,1E1,7.2E1,2.86E3,1.246E3,7.2E1,4.6E1,1.6E1,2.59E2,2.7E1,1.43E2,2.5E1,5.1E1,2.92E2,2.2E1,5E1,8.38E2,2.022E3,1.209E3,3.7E1,2.9E1,1.7E1,2.49E2,1E1,5.8E1,8.5E1,1.16E2,1.76E2,8.25E2,1.3E1,1.27E3,7.52E2,1.168E3,4.1E1,2.25E2,2.4E1,1.06E2,1E1,4.6E1,1.3E2,1.11E2,7.14E2,9.38E2,3.32E2,3.14E2,4.38E2],"tree_param":{"num_deleted":"0","num_feature":"7","num_nodes":"71","size_leaf_vector":"0"}},{"base_weights":[4.902528E-2,-1.2743328E-2,1.7161958E0,5.4323714E-2,-1.3866259E0,2.6854105E0,5.0057374E-2,-2.5603464E-2,1.0375289E0,7.304751E0,-1.845817E0,1.9631554E0,8.725819E0,-1.2585635E0,3.4871244E0,2.8076038E-1,-2.200838E-1,4.102027E0,4.30699E-1,-2.8828983E0,-6.162585E-1,2.2091968E0,1.7862117E-1,8.518043E-1,-3.2796326E0,-3.2142073E-1,5.951488E-1,-8.6122966E-1,-3.9102107E-2,-1.4827304E-1,1.7256019E0,-3.7950594E0,-1.9889536E0,-2.3252258E-1,-3.3460362E0,-5.2213235E0,-7.85966E-1,1.1809165E0,-6.5059006E-1,6.798442E0,4.8249805E-1,-4.9463362E-1,-2.6266272E0,3.6621627E-1,-7.284097E-1,3.0860245E-1,-7.7612023E0,6.401192E0,4.303798E-1,-1.070653E0,6.2900007E-1,4.411714E-1,3.360044E0,-1.8255444E-1,-8.925208E-1,1.6161332E0,3.304173E-1,1.9769825E-1,-8.478588E-1,-3.2422931E0,-4.862976E-1,4.640457E0,2.8690106E-1,-8.73478E0,-5.01074E-1,4.5573924E-2,4.5126925E0,5.4357886E-1,-0E0],"categories":[],"categories_nodes":[],"categories_segments":[],"categories_sizes":[],"default_left":[true,true,true,true,true,true,true,true,true,false,true,true,false,true,false,true,true,false,true,true,true,false,false,false,true,true,true,true,true,true,true,false,false,true,false,false,false,true,true,false,true,true,true,true,true,true,false,false,true,false,false,false,false,false,false,false,false,false,false,false,false,false,false,false,false,false,false,false,false],"id":12,"left_children":[1,3,5,7,9,11,13,15,17,-1,19,21,-1,23,-1,25,27,-1,29,31,33,-1,-1,-1,35,37,39,41,43,45,47,-1,-1,49,-1,-1,-1,51,53,-1,55,57,59,61,63,65,-1,-1,67,-1,-1,-1,-1,-1,-1,-1,-1,-1,-1,-1,-1,-1,-1,-1,-1,-1,-1,-1,-1],"loss_changes":[5.651396E2,4.8679788E2,3.02698E2,3.952598E2,9.679751E2,4.6167633E2,3.5286792E2,2.7311945E2,6.7850946E2,0E0,2.8038843E2,3.6402954E1,0E0,2.4525351E2,0E0,3.3703278E2,3.2233716E2,0E0,2.4655112E2,6.545947E1,9.760321E1,0E0,0E0,0E0,1.0627576E2,2.9631427E2,7.7791766E2,3.8046774E2,6.1785114E2,7.978972E2,5.747359E2,0E0,0E0,7.508853E1,0E0,0E0,0E0,1.5038344E2,5.0851334E1,0E0,1.8817032E2,1.2862753E2,1.1550629E2,4.4322485E2,1.4437737E3,2.047969E2,0E0,0E0,4.2026997E0,0E0,0E0,0E0,0E0,0E0,0E0,0E0,0E0,0E0,0E0,0E0,0E0,0E0,0E0,0E0,0E0,0E0,0E0,0E0,0E0],"parents":[2147483647,0,0,1,1,2,2,3,3,4,4,5,5,6,6,7,7,8,8,10,10,11,11,13,13,15,15,16,16,18,18,19,19,20,20,24,24,25,25,26,26,27,27,28,28,29,29,30,30,33,33,37,37,38,38,40,40,41,41,42,42,43,43,44,44,45,45,48,48],"right_children":[2,4,6,8,10,12,14,16,18,-1,20,22,-1,24,-1,26,28,-1,30,32,34,-1,-1,-1,36,38,40,42,44,46,48,-1,-1,50,-1,-1,-1,52,54,-1,56,58,60,62,64,66,-1,-1,68,-1,-1,-1,-1,-1,-1,-1,-1,-1,-1,-1,-1,-1,-1,-1,-1,-1,-1,-1,-1],"split_conditions":[3.942E3,2.983E3,4.83E3,2.073E3,5E-1,4.1815E3,6.207E3,5E-1,2.147E3,3.6523755E0,2.9985E3,3.986E3,4.3629093E0,4.9995E3,1.7435622E0,1.195E3,1.3605E3,2.0510135E0,2.6265E3,2.9955E3,3.6275E3,1.1045984E0,8.931059E-2,4.2590216E-1,5.121E3,9.93E2,1.198E3,1.3325E3,1.9765E3,2.4955E3,2.908E3,-1.8975297E0,-9.944768E-1,3.2275E3,-1.6730181E0,-2.6106617E0,-3.92983E-1,9.43E2,9.985E2,3.399221E0,1.331E3,9.97E2,1.343E3,1.3905E3,1.9855E3,2.491E3,-3.8806012E0,3.200596E0,2.952E3,-5.353265E-1,3.1450003E-1,2.205857E-1,1.680022E0,-9.127722E-2,-4.462604E-1,8.080666E-1,1.6520865E-1,9.8849125E-2,-4.239294E-1,-1.6211466E0,-2.431488E-1,2.3202286E0,1.4345053E-1,-4.36739E0,-2.50537E-1,2.2786962E-2,2.2563462E0,2.7178943E-1,-0E0],"split_indices":[0,0,0,0,4,0,0,4,0,0,0,0,0,0,0,0,0,0,0,0,0,0,0,0,0,0,0,0,0,0,0,0,0,0,0,0,0,0,0,0,0,0,0,0,0,0,0,0,0,0,0,0,0,0,0,0,0,0,0,0,0,0,0,0,0,0,0,0,0],"split_type":[0,0,0,0,0,0,0,0,0,0,0,0,0,0,0,0,0,0,0,0,0,0,0,0,0,0,0,0,0,0,0,0,0,0,0,0,0,0,0,0,0,0,0,0,0,0,0,0,0,0,0,0,0,0,0,0,0,0,0,0,0,0,0,0,0,0,0,0,0],"sum_hessian":[5.404E3,5.209E3,1.95E2,4.964E3,2.45E2,1.21E2,7.4E1,4.587E3,3.77E2,1.1E1,2.34E2,1.1E2,1.1E1,5.3E1,2.1E1,1.771E3,2.816E3,6E1,3.17E2,1.24E2,1.1E2,9.4E1,1.6E1,2.5E1,2.8E1,6.02E2,1.169E3,6.13E2,2.203E3,2.17E2,1E2,5.7E1,6.7E1,9.9E1,1.1E1,1.4E1,1.4E1,1.05E2,4.97E2,1.9E1,1.15E3,5.11E2,1.02E2,1.383E3,8.2E2,2.05E2,1.2E1,2E1,8E1,5.3E1,4.6E1,8.1E1,2.4E1,1.77E2,3.2E2,1.31E2,1.019E3,1.68E2,3.43E2,7.7E1,2.5E1,2.3E1,1.36E3,2.1E1,7.99E2,1.95E2,1E1,6.4E1,1.6E1],"tree_param":{"num_deleted":"0","num_feature":"7","num_nodes":"69","size_leaf_vector":"0"}},{"base_weights":[2.8430112E-2,5.6361276E-1,-4.4308844E-1,-3.9774805E-1,1.724101E0,-1.0910821E0,3.3488625E-1,1.1822456E-2,-9.946389E-1,3.061262E0,2.7122453E-1,-1.007581E0,-1.1424718E1,6.405651E-1,-1.3662144E0,-1.5115856E-1,1.2912334E0,-2.1185791E0,1.5513703E-1,2.1998909E0,5.962114E0,-3.1923756E-2,9.526173E-1,1.2711166E0,-1.2967404E0,-2.4761426E0,7.314292E-1,1.350912E0,-3.5482488E0,5.6123143E-1,-3.1523186E-1,-2.6355283E0,-1.5921454E0,9.658312E-1,-2.1744533E0,3.9909656E0,7.475306E-1,8.649959E0,4.322269E0,4.6670604E-1,-4.53191E0,1.6089987E0,-0E0,-4.373825E-1,8.735836E0,-1.8819982E0,1.9374487E-1,6.221428E-1,1.8272974E0,4.6439406E-1,4.4456534E0,-3.8894036E0,-1.3107122E0,1.8302191E-2,1.4132489E0,-5.2366364E-1,3.2266366E-1,1.3256831E0,2.4812277E-1,-3.3959522E0,-1.4546793E0,1.1455159E0,6.8319583E0,-0E0,1.1117588E0,-1.4516671E-1,2.1117349E0,-7.004201E0,-9.806705E-1,8.421785E-1,5.0994415E0,-1.8153139E0,1.1954657E0,-1.125833E0,-4.7557883E0,6.138214E-1,-2.6991699E0,8.779585E-1,-2.662706E-2,3.718422E0,6.4187187E-1,-0E0,1.2210188E0,-3.3127983E0,-5.697614E0,1.2096405E-1,-0E0,-3.334045E-1,-6.512251E-1,4.4538636E0,-1.2844393E-1,4.697468E-1,1.6534206E0,-1.8395029E0,9.655658E-1,4.2469177E0,3.9756012E-1,5.2553077E0,7.943933E0,1.6250879E0,1.6360797E-1,2.5708285E-1,-2.3682914E0,4.808083E0,3.002666E-1,2.0923607E0,-0E0,-1.7498232E0,-1.7450845E-1,-2.9514217E0,-2.0272762E1,7.6689726E-1,-1.5244768E0,-0E0,1.079333E0,-1.8753587E0,4.445852E-1,5.5619944E-2,2.0635865E0],"categories":[],"categories_nodes":[],"categories_segments":[],"categories_sizes":[],"default_left":[true,true,true,true,true,true,true,true,true,true,true,true,false,true,true,true,false,true,true,true,true,true,true,true,true,false,true,true,true,true,true,false,false,true,true,true,true,false,false,true,true,true,true,false,false,true,true,true,true,true,false,true,false,true,false,true,true,true,true,false,false,true,true,false,true,true,true,false,false,false,false,false,true,true,true,true,false,true,true,false,true,false,false,false,false,true,true,false,false,false,false,false,false,false,false,false,false,false,false,false,false,false,false,false,false,false,false,false,false,false,false,false,false,false,false,false,false,false,false],"id":13,"left_children":[1,3,5,7,9,11,13,15,17,19,21,23,-1,25,27,29,-1,31,33,35,37,39,41,43,45,-1,47,49,51,53,55,-1,-1,57,59,61,63,-1,-1,65,67,69,71,-1,-1,73,75,77,79,81,-1,83,-1,-1,-1,87,89,91,93,-1,-1,95,97,-1,99,101,103,-1,-1,-1,-1,-1,105,107,109,111,-1,113,115,-1,117,-1,-1,-1,-1,-1,-1,-1,-1,-1,-1,-1,-1,-1,-1,-1,-1,-1,-1,-1,-1,-1,-1,-1,-1,-1,-1,-1,-1,-1,-1,-1,-1,-1,-1,-1,-1,-1,-1],"loss_changes":[1.3647963E3,2.837716E3,1.4504741E3,3.4375974E2,2.2205317E3,1.2801702E3,6.737546E2,1.7646466E2,7.454528E2,1.4403032E3,1.19276375E2,1.0283531E3,0E0,3.0630338E2,1.1778373E3,8.345418E1,0E0,5.3585938E1,5.2486096E2,1.1803208E3,4.9278418E2,8.750954E2,1.0434897E2,2.2644165E3,1.2169663E3,0E0,1.1560132E2,2.1207353E2,5.286963E1,5.2952457E1,8.015085E1,0E0,0E0,4.6038483E1,3.3230255E1,1.6175703E3,7.1571625E1,0E0,0E0,3.543789E2,2.956151E2,2.3900455E2,1.6273508E2,0E0,0E0,2.1317786E3,4.639605E2,1.6775607E2,1.84298E2,2.8139393E1,0E0,3.3036865E1,0E0,2.6450852E-1,0E0,5.8781815E0,2.8496893E2,2.6478012E1,1.1123568E2,0E0,0E0,2.1865889E2,7.108203E1,0E0,7.5965485E1,2.3293912E2,4.3702777E2,0E0,0E0,0E0,0E0,0E0,4.2279846E1,4.6021783E2,5.591698E3,1.093253E2,0E0,1.2452905E2,2.4668138E2,0E0,3.9298172E1,0E0,0E0,0E0,0E0,0E0,0E0,0E0,0E0,0E0,0E0,0E0,0E0,0E0,0E0,0E0,0E0,0E0,0E0,0E0,0E0,0E0,0E0,0E0,0E0,0E0,0E0,0E0,0E0,0E0,0E0,0E0,0E0,0E0,0E0,0E0,0E0,0E0,0E0],"parents":[2147483647,0,0,1,1,2,2,3,3,4,4,5,5,6,6,7,7,8,8,9,9,10,10,11,11,13,13,14,14,15,15,17,17,18,18,19,19,20,20,21,21,22,22,23,23,24,24,26,26,27,27,28,28,29,29,30,30,33,33,34,34,35,35,36,36,39,39,40,40,41,41,42,42,45,45,46,46,47,47,48,48,49,49,51,51,53,53,55,55,56,56,57,57,58,58,61,61,62,62,64,64,65,65,66,66,72,72,73,73,74,74,75,75,77,77,78,78,80,80],"right_children":[2,4,6,8,10,12,14,16,18,20,22,24,-1,26,28,30,-1,32,34,36,38,40,42,44,46,-1,48,50,52,54,56,-1,-1,58,60,62,64,-1,-1,66,68,70,72,-1,-1,74,76,78,80,82,-1,84,-1,-1,-1,88,90,92,94,-1,-1,96,98,-1,100,102,104,-1,-1,-1,-1,-1,106,108,110,112,-1,114,116,-1,118,-1,-1,-1,-1,-1,-1,-1,-1,-1,-1,-1,-1,-1,-1,-1,-1,-1,-1,-1,-1,-1,-1,-1,-1,-1,-1,-1,-1,-1,-1,-1,-1,-1,-1,-1,-1,-1,-1],"split_conditions":[5E-1,1.4965E3,3.5E0,1.331E3,1.9975E3,2.994E3,5.5E0,1.289E3,1.343E3,1.994E3,3.942E3,1.428E3,-5.712359E0,9.985E2,1.96E3,9.93E2,6.456167E-1,1.3325E3,1.4795E3,1.708E3,1.9955E3,2.997E3,4.83E3,4.98E2,1.998E3,-1.2380713E0,2.9975E3,6.5E0,1.994E3,9.43E2,1.195E3,-1.3177642E0,-7.960727E-1,1.377E3,1.486E3,1.4985E3,1.9875E3,4.3249793E0,2.1611345E0,2.6945E3,3.2275E3,3.995E3,5.019E3,-2.1869124E-1,4.367918E0,1.98E3,2.952E3,1.978E3,3.2275E3,1.774E3,2.2228267E0,1.9805E3,-6.553561E-1,9.1510955E-3,7.0662445E-1,9.985E2,1.198E3,1.3605E3,1.4315E3,-1.6979761E0,-7.273396E-1,1.4975E3,1.5975E3,-0E0,1.992E3,1.9995E3,2.9955E3,-3.5021005E0,-4.9033526E-1,4.2108926E-1,2.5497208E0,-9.0765697E-1,6.071E3,1.6735E3,1.5E0,1.5E0,-1.3495849E0,1.098E3,1.989E3,1.859211E0,3.719E3,-0E0,6.105094E-1,-1.6563991E0,-2.848807E0,6.0482025E-2,-0E0,-1.6670226E-1,-3.2561255E-1,2.2269318E0,-6.422196E-2,2.348734E-1,8.267103E-1,-9.1975147E-1,4.827829E-1,2.1234589E0,1.9878006E-1,2.6276538E0,3.9719665E0,8.125439E-1,8.1803985E-2,1.2854142E-1,-1.1841457E0,2.4040415E0,1.501333E-1,1.0461804E0,-0E0,-8.749116E-1,-8.7254226E-2,-1.4757109E0,-1.0136381E1,3.8344863E-1,-7.622384E-1,-0E0,5.396665E-1,-9.3767935E-1,2.222926E-1,2.7809972E-2,1.0317932E0],"split_indices":[5,0,5,0,0,0,5,0,0,0,0,0,0,0,0,0,0,0,0,0,0,0,0,0,0,0,0,5,0,0,0,0,0,0,0,0,0,0,0,0,0,0,0,0,0,0,0,0,0,0,0,0,0,0,0,0,0,0,0,0,0,0,0,0,0,0,0,0,0,0,0,0,0,0,5,5,0,0,0,0,0,0,0,0,0,2147483647,2147483647,0,0,0,0,0,0,0,0,0,0,0,0,0,0,0,0,0,0,0,0,0,0,0,0,0,0,0,0,0,0,0,0],"split_type":[0,0,0,0,0,0,0,0,0,0,0,0,0,0,0,0,0,0,0,0,0,0,0,0,0,0,0,0,0,0,0,0,0,0,0,0,0,0,0,0,0,0,0,0,0,0,0,0,0,0,0,0,0,0,0,0,0,0,0,0,0,0,0,0,0,0,0,0,0,0,0,0,0,0,0,0,0,0,0,0,0,0,0,0,0,0,0,0,0,0,0,0,0,0,0,0,0,0,0,0,0,0,0,0,0,0,0,0,0,0,0,0,0,0,0,0,0,0,0],"sum_hessian":[5.404E3,2.536E3,2.868E3,1.385E3,1.151E3,1.568E3,1.3E3,8.17E2,5.68E2,5.97E2,5.54E2,1.557E3,1.1E1,1.105E3,1.95E2,7.22E2,9.5E1,2.89E2,2.79E2,4.63E2,1.34E2,3.79E2,1.75E2,1.73E2,1.384E3,2.9E1,1.076E3,8.6E1,1.09E2,1.29E2,5.93E2,1.39E2,1.5E2,2.09E2,7E1,2.05E2,2.58E2,4.8E1,8.6E1,3.41E2,3.8E1,1.01E2,7.4E1,1.41E2,3.2E1,9.96E2,3.88E2,9.84E2,9.2E1,6.9E1,1.7E1,9.2E1,1.7E1,8.3E1,4.6E1,4.53E2,1.4E2,1.34E2,7.5E1,2.2E1,4.8E1,1.04E2,1.01E2,8.4E1,1.74E2,2.47E2,9.4E1,2.1E1,1.7E1,8.5E1,1.6E1,2.8E1,4.6E1,7.91E2,2.05E2,3.41E2,4.7E1,7.11E2,2.73E2,3.3E1,5.9E1,4.1E1,2.8E1,7.4E1,1.8E1,1.9E1,6.4E1,1.99E2,2.54E2,1.4E1,1.26E2,4.2E1,9.2E1,1.7E1,5.8E1,1.8E1,8.6E1,4.6E1,5.5E1,1.09E2,6.5E1,2.08E2,3.9E1,3.6E1,5.8E1,2.4E1,2.2E1,4.74E2,3.17E2,1.85E2,2E1,3.21E2,2E1,1.34E2,5.77E2,5.7E1,2.16E2,4.5E1,1.4E1],"tree_param":{"num_deleted":"2","num_feature":"7","num_nodes":"119","size_leaf_vector":"0"}},{"base_weights":[1.6061664E-2,-4.5200035E-1,1.6467805E0,-1.6222811E0,-1.6076571E-1,8.340111E0,1.2108122E0,-1.2093483E0,-1.1143571E1,9.246746E-1,-8.221114E-1,1.2338693E1,1.2945786E0,-1.9422079E-2,3.1183085E0,4.3445346E-1,-1.4573458E0,2.2769659E0,2.8688344E-1,-3.0040572E0,-3.7083092E-1,5.9822434E-1,1.5868605E1,-2.214639E0,4.8168764E0,-8.000765E-1,4.24192E0,4.7583156E0,8.635689E-2,4.1893077E0,-0E0,-1.296832E0,-3.875901E0,1.5789065E0,4.396612E0,-7.5330296E0,6.3049686E-1,1.851246E1,-3.8855317E0,-1.4950976E-2,-4.0535054E0,7.6427298E0,2.484666E1,2.3635887E-2,-8.992946E0,-9.4073594E-1,6.178524E0,1.0551053E1,4.0272994E0,-3.6035366E0,1.1588362E0,-5.1296437E-1,1.8681133E-1,-4.7288046E0,-1.2071171E0,-2.6957784E0,-6.0865493E0,1.954022E0,-5.076578E0,2.547106E-2,3.514709E0,-5.330168E0,1.8768617E0,-3.7833264E0,4.2706314E-1,-1.3612971E1,-2.025162E0,-8.5568637E-1,7.602441E0,-1.775096E1,-5.948966E0,-2.6598384E0,-0E0,1.068991E1,3.7544758E0,3.0270638E0,4.8865747E0,3.9107509E0,-6.612503E-1,1.4189582E-1,-1.4298779E0,-3.7933471E0,-1.1858215E0,2.5740597E0,4.9444294E-1,9.1768706E-1,-6.8347044E0,9.162047E0,-1.9575615E0,-2.5223877E0,-6.4579E0,6.8446237E-1,4.5140166E0,-4.3965697E0,7.2450036E-1,2.7964127E0,-2.3206808E-1,7.1476525E-1,-3.8196645E0,2.5990503E0,-1.4191741E0,1.530052E1,2.7618272E0,-1.5500934E-1,-8.094715E0,5.9520392E0,1.4585316E1,1.6322659E0,6.9245086E0,3.7177355E0,9.220974E-1,-4.813723E-1,6.268029E0,4.0430835E-1,-2.7557364E0],"categories":[],"categories_nodes":[],"categories_segments":[],"categories_sizes":[],"default_left":[true,true,true,true,true,true,true,true,false,true,true,true,true,true,true,true,true,true,true,true,true,false,true,false,false,true,true,true,true,false,true,true,true,true,false,false,true,false,true,true,true,false,false,true,true,true,true,false,true,false,true,false,false,false,true,true,false,true,false,true,true,true,true,true,true,false,true,true,true,false,true,false,false,true,true,true,false,true,true,false,false,false,false,false,false,false,false,false,false,false,false,false,false,false,false,false,false,false,false,false,false,false,false,false,false,false,false,false,false,false,false,false,false,false,false],"id":14,"left_children":[1,3,5,7,9,11,13,15,-1,17,19,21,23,25,27,29,31,33,35,37,39,-1,41,-1,-1,43,45,47,49,-1,51,53,55,57,-1,-1,59,-1,61,63,65,-1,-1,67,69,71,73,-1,75,-1,77,-1,-1,-1,79,81,-1,83,-1,85,87,89,91,93,95,-1,97,99,101,-1,103,-1,-1,105,107,109,-1,111,113,-1,-1,-1,-1,-1,-1,-1,-1,-1,-1,-1,-1,-1,-1,-1,-1,-1,-1,-1,-1,-1,-1,-1,-1,-1,-1,-1,-1,-1,-1,-1,-1,-1,-1,-1,-1],"loss_changes":[4.132233E3,1.4216127E3,3.4671865E3,3.1998254E3,2.4165347E3,1.9724263E3,2.6813691E3,3.318745E2,0E0,1.0836014E3,2.0448944E3,1.814543E3,3.6977307E2,2.2815632E3,2.1980386E3,1.7361206E2,2.4008167E2,5.624343E2,2.3025764E3,6.769751E3,2.2587131E3,0E0,2.2324902E3,0E0,0E0,3.9929712E3,1.0958969E3,1.1084111E3,6.211686E2,0E0,9.442773E0,1.6720984E2,4.664264E1,7.632522E2,0E0,0E0,1.4358136E3,0E0,2.89092E3,2.663489E3,2.8415027E3,0E0,0E0,3.5856E3,1.215498E3,5.9232346E1,7.4063696E2,0E0,1.6824463E2,0E0,6.449238E2,0E0,0E0,0E0,2.0016956E2,2.0324371E1,0E0,2.485481E2,0E0,4.2061313E3,4.4731953E3,8.127422E2,1.8789131E2,4.8596387E2,2.2326638E3,0E0,6.4268896E2,9.2636584E2,1.9541826E3,0E0,4.796565E2,0E0,0E0,2.9035498E2,3.024696E2,1.5510278E2,0E0,5.5997687E2,1.8025613E2,0E0,0E0,0E0,0E0,0E0,0E0,0E0,0E0,0E0,0E0,0E0,0E0,0E0,0E0,0E0,0E0,0E0,0E0,0E0,0E0,0E0,0E0,0E0,0E0,0E0,0E0,0E0,0E0,0E0,0E0,0E0,0E0,0E0,0E0,0E0,0E0],"parents":[2147483647,0,0,1,1,2,2,3,3,4,4,5,5,6,6,7,7,9,9,10,10,11,11,12,12,13,13,14,14,15,15,16,16,17,17,18,18,19,19,20,20,22,22,25,25,26,26,27,27,28,28,30,30,31,31,32,32,33,33,36,36,38,38,39,39,40,40,43,43,44,44,45,45,46,46,48,48,50,50,54,54,55,55,57,57,59,59,60,60,61,61,62,62,63,63,64,64,66,66,67,67,68,68,70,70,73,73,74,74,75,75,77,77,78,78],"right_children":[2,4,6,8,10,12,14,16,-1,18,20,22,24,26,28,30,32,34,36,38,40,-1,42,-1,-1,44,46,48,50,-1,52,54,56,58,-1,-1,60,-1,62,64,66,-1,-1,68,70,72,74,-1,76,-1,78,-1,-1,-1,80,82,-1,84,-1,86,88,90,92,94,96,-1,98,100,102,-1,104,-1,-1,106,108,110,-1,112,114,-1,-1,-1,-1,-1,-1,-1,-1,-1,-1,-1,-1,-1,-1,-1,-1,-1,-1,-1,-1,-1,-1,-1,-1,-1,-1,-1,-1,-1,-1,-1,-1,-1,-1,-1,-1],"split_conditions":[2.365E2,9.85E1,4E0,9.75E1,3.5E0,3.1E2,1.2E1,3.3E1,-5.5717854E0,1.215E2,5.5E0,2.485E2,3.65E2,5.2E2,3.095E2,7.5E0,3.15E1,1.195E2,1.235E2,1.09E2,2.01E2,2.9911217E-1,2.5E0,-1.1073195E0,2.4084382E0,4.45E2,5.5E0,2.41E2,3.19E2,2.0946538E0,1.45E1,6.65E1,8.8E1,1.155E2,2.198306E0,-3.7665148E0,1.81E2,9.25623E0,1.935E2,1.155E2,7.5E0,3.8213649E0,1.242333E1,4.055E2,4.725E2,5.815E2,5.925E2,5.2755265E0,3.75E1,-1.8017683E0,3.95E2,-2.5648218E-1,9.3405664E-2,-2.3644023E0,7.15E1,3.25E1,-3.0432746E0,1.145E2,-2.538289E0,1.785E2,1.855E2,1.465E2,2.21E2,2.3E1,6.5E0,-6.8064857E0,1.65E1,5.5E0,4.28E2,-8.87548E0,6.5E0,-1.3299192E0,-0E0,5.535E2,6.235E2,2.85E1,2.4432874E0,3.495E2,1.8E1,7.094791E-2,-7.1493894E-1,-1.8966736E0,-5.9291077E-1,1.2870299E0,2.4722147E-1,4.5884353E-1,-3.4173522E0,4.5810237E0,-9.7878075E-1,-1.2611939E0,-3.22895E0,3.4223118E-1,2.2570083E0,-2.1982849E0,3.6225018E-1,1.3982064E0,-1.1603404E-1,3.5738263E-1,-1.9098322E0,1.2995251E0,-7.0958704E-1,7.65026E0,1.3809136E0,-7.750467E-2,-4.0473576E0,2.9760196E0,7.292658E0,8.1613296E-1,3.4622543E0,1.8588678E0,4.610487E-1,-2.4068615E-1,3.1340146E0,2.0215417E-1,-1.3778682E0],"split_indices":[1,1,3,1,3,1,3,1,0,1,3,1,1,1,1,3,3,1,1,1,1,0,3,0,0,1,3,1,1,0,3,1,1,1,0,0,1,0,1,1,3,0,0,1,1,1,1,0,3,0,1,0,0,0,1,3,0,1,0,1,1,1,1,3,3,0,3,3,1,0,3,0,0,1,1,3,0,1,3,0,0,0,0,0,0,0,0,0,0,0,0,0,0,0,0,0,0,0,0,0,0,0,0,0,0,0,0,0,0,0,0,0,0,0,0],"split_type":[0,0,0,0,0,0,0,0,0,0,0,0,0,0,0,0,0,0,0,0,0,0,0,0,0,0,0,0,0,0,0,0,0,0,0,0,0,0,0,0,0,0,0,0,0,0,0,0,0,0,0,0,0,0,0,0,0,0,0,0,0,0,0,0,0,0,0,0,0,0,0,0,0,0,0,0,0,0,0,0,0,0,0,0,0,0,0,0,0,0,0,0,0,0,0,0,0,0,0,0,0,0,0,0,0,0,0,0,0,0,0,0,0,0,0],"sum_hessian":[5.404E3,4.197E3,1.207E3,8.32E2,3.365E3,7.2E1,1.135E3,7.99E2,3.3E1,1.271E3,2.094E3,4.5E1,2.7E1,6.89E2,4.46E2,1.02E2,6.97E2,4.04E2,8.67E2,3.56E2,1.738E3,1.1E1,3.4E1,1.3E1,1.4E1,5.84E2,1.05E2,2.88E2,1.58E2,1E1,9.2E1,6.57E2,4E1,3.07E2,9.7E1,3.5E1,8.32E2,1.3E1,3.43E2,1.587E3,1.51E2,1.9E1,1.5E1,5.31E2,5.3E1,2.8E1,7.7E1,3E1,2.58E2,3.4E1,1.24E2,2.6E1,6.6E1,1.4E1,6.43E2,2.9E1,1.1E1,2.92E2,1.5E1,6.9E2,1.42E2,2.75E2,6.8E1,1.67E2,1.42E3,2.5E1,1.26E2,4.76E2,5.5E1,1.2E1,4.1E1,1.1E1,1.7E1,2.5E1,5.2E1,1.24E2,1.34E2,5E1,7.4E1,8.8E1,5.55E2,1.4E1,1.5E1,2.02E2,9E1,6.12E2,7.8E1,7E1,7.2E1,8.1E1,1.94E2,4.9E1,1.9E1,1.48E2,1.9E1,3.1E2,1.11E3,4.9E1,7.7E1,6.5E1,4.11E2,2E1,3.5E1,1.2E1,2.9E1,1.3E1,1.2E1,3.3E1,1.9E1,9.1E1,3.3E1,1.7E1,3.3E1,4.8E1,2.6E1],"tree_param":{"num_deleted":"0","num_feature":"7","num_nodes":"115","size_leaf_vector":"0"}},{"base_weights":[1.4374054E-2,-1.4511241E-1,5.935328E-1,6.388826E-3,-1.0127904E0,1.6607265E-1,1.5194027E0,-4.6696123E-2,9.240931E-1,-6.9368157E0,-2.9172075E-1,-7.217407E0,3.497689E-1,4.089273E0,3.840914E-1,2.3190916E-2,-1.6726087E0,4.0509048E-1,1.5099065E0,-3.9021094E0,-7.699377E0,1.4504938E0,-5.301559E-1,1.6514863E0,1.4711387E-1,2.2516968E0,5.187805E0,5.4217964E-1,-5.8815956E-1,-7.9949185E-2,6.7094094E-1,3.0741372E0,-4.6433773E0,-1.0558237E1,-6.452763E0,-2.6194437E0,-1.7397627E-1,-4.7941437E-1,3.686552E0,-3.7092355E-1,9.351438E-1,3.7544748E-1,2.6830204E0,9.808044E-2,-1.9832858E0,1.4502177E-1,-2.3383322E0,1.9918871E0,-6.570407E-2,-5.70562E0,-2.6986141E0,-3.3647149E0,-1.6138872E0,3.668343E0,-5.99049E-1,-2.8083377E-2,-1.1973145E0,6.4465714E0,2.5322392E0,3.6107466E-1,-1.7704833E0,-0E0,6.834317E-1,-2.6251733E-1,5.50945E-1,-2.6390424E0,-1.2518153E0,6.61787E0,6.10854E-1,-4.0393076E0,8.602002E-1,-2.4551609E0,-6.5342107E0,-6.067185E-3,-3.4239094E0,5.150261E0,1.340218E0,-1.060164E0,1.4775461E-1,-0E0,-5.5747136E-2,1.0226778E0,-2.1408482E0,-4.141767E0,-5.6414837E-1,2.3648653E0,4.6560106E-1],"categories":[],"categories_nodes":[],"categories_segments":[],"categories_sizes":[],"default_left":[true,true,true,true,true,true,true,true,true,true,true,false,true,true,true,true,true,false,false,false,true,false,true,true,true,false,false,true,true,true,true,false,true,false,false,true,true,true,true,true,false,true,false,false,false,true,true,true,true,true,false,false,true,true,true,true,false,false,false,true,true,false,true,false,false,false,false,false,false,false,false,false,false,false,false,false,false,false,false,true,true,false,false,false,false,false,false],"id":15,"left_children":[1,3,5,7,9,11,13,15,17,19,21,-1,23,25,27,29,31,-1,-1,-1,33,-1,35,37,39,-1,-1,41,43,45,47,-1,49,-1,-1,51,53,55,57,59,-1,61,-1,-1,-1,63,65,67,69,71,-1,-1,73,75,77,-1,-1,-1,-1,81,83,-1,85,-1,-1,-1,-1,-1,-1,-1,-1,-1,-1,-1,-1,-1,-1,-1,-1,-1,-1,-1,-1,-1,-1,-1,-1],"loss_changes":[5.0157715E2,5.61353E2,4.5595718E2,1.7976006E2,2.67005E3,1.0640908E3,1.0468228E3,3.9440134E2,5.1229187E1,6.9311035E1,2.3170203E2,0E0,1.9916571E2,1.7518982E2,3.9590263E1,2.205387E2,2.0386328E3,0E0,0E0,0E0,3.2137695E1,0E0,3.5914633E2,4.644649E2,2.840295E2,0E0,0E0,6.437035E1,4.0257072E1,1.4354275E3,4.5153485E2,0E0,1.264386E2,0E0,0E0,2.288498E1,6.924216E2,1.0039915E1,1.1082172E2,4.2977008E2,0E0,2.6491892E1,0E0,0E0,0E0,4.2310135E2,6.0884155E1,1.01393866E3,1.0863314E3,8.714209E1,0E0,0E0,8.4686005E1,1.0554889E2,1.3936433E2,2.7547041E-2,0E0,0E0,0E0,4.4186884E2,3.8605478E2,0E0,2.9064991E1,0E0,0E0,0E0,0E0,0E0,0E0,0E0,0E0,0E0,0E0,0E0,0E0,0E0,0E0,0E0,0E0,0E0,0E0,0E0,0E0,0E0,0E0,0E0,0E0],"parents":[2147483647,0,0,1,1,2,2,3,3,4,4,5,5,6,6,7,7,8,8,9,9,10,10,12,12,13,13,14,14,15,15,16,16,20,20,22,22,23,23,24,24,27,27,28,28,29,29,30,30,32,32,35,35,36,36,37,37,38,38,39,39,41,41,45,45,46,46,47,47,48,48,49,49,52,52,53,53,54,54,55,55,59,59,60,60,62,62],"right_children":[2,4,6,8,10,12,14,16,18,20,22,-1,24,26,28,30,32,-1,-1,-1,34,-1,36,38,40,-1,-1,42,44,46,48,-1,50,-1,-1,52,54,56,58,60,-1,62,-1,-1,-1,64,66,68,70,72,-1,-1,74,76,78,-1,-1,-1,-1,82,84,-1,86,-1,-1,-1,-1,-1,-1,-1,-1,-1,-1,-1,-1,-1,-1,-1,-1,-1,-1,-1,-1,-1,-1,-1,-1],"split_conditions":[1.65E1,1.9985E3,1.996E3,1.9975E3,1.9995E3,1.75E1,2.075E3,1.9965E3,2.5E0,3.5E0,2.147E3,-3.6087036E0,1.95E1,1.9975E3,4.668E3,1.989E3,2.5E0,2.0254524E-1,7.5495327E-1,-1.9510547E0,6E0,7.252469E-1,2.374E3,1.486E3,3.95E1,1.1258484E0,2.5939026E0,3.6275E3,1.8E1,1.962E3,5.5E0,1.5370686E0,6E0,-5.2791185E0,-3.2263815E0,2.1915E3,4E0,1.4175E3,1.5945E3,1.5385E3,4.675719E-1,2.4905E3,1.3415102E0,4.904022E-2,-9.916429E-1,1.3605E3,1.9765E3,1.993E3,8E0,4E0,-1.3493071E0,-1.6823574E0,4E0,2.9965E3,3.942E3,-1.4041688E-2,-5.9865725E-1,3.2232857E0,1.2661196E0,3.15E1,2.3E1,-0E0,2.7435E3,-1.3125867E-1,2.754725E-1,-1.3195212E0,-6.2590766E-1,3.308935E0,3.05427E-1,-2.0196538E0,4.301001E-1,-1.2275804E0,-3.2671053E0,-3.0335926E-3,-1.7119547E0,2.5751305E0,6.70109E-1,-5.30082E-1,7.3877305E-2,-0E0,-2.7873568E-2,5.113389E-1,-1.0704241E0,-2.0708835E0,-2.8207418E-1,1.1824327E0,2.3280053E-1],"split_indices":[3,0,0,0,0,3,0,0,3,3,0,0,3,0,0,0,3,0,0,0,3,0,0,0,3,0,0,0,3,0,3,0,3,0,0,0,3,0,0,0,0,0,0,0,0,0,0,0,3,3,0,0,3,0,0,0,0,0,0,3,3,0,0,0,0,0,0,0,0,0,0,0,0,0,0,0,0,0,0,2147483647,2147483647,0,0,0,0,0,0],"split_type":[0,0,0,0,0,0,0,0,0,0,0,0,0,0,0,0,0,0,0,0,0,0,0,0,0,0,0,0,0,0,0,0,0,0,0,0,0,0,0,0,0,0,0,0,0,0,0,0,0,0,0,0,0,0,0,0,0,0,0,0,0,0,0,0,0,0,0,0,0,0,0,0,0,0,0,0,0,0,0,0,0,0,0,0,0,0,0],"sum_hessian":[5.404E3,4.231E3,1.173E3,3.598E3,6.33E2,8.07E2,3.66E2,3.397E3,2.01E2,6.7E1,5.66E2,1.8E1,7.89E2,1.1E2,2.56E2,3.255E3,1.42E2,1.12E2,8.9E1,1.6E1,5.1E1,6.5E1,5.01E2,1.02E2,6.87E2,4.4E1,6.6E1,2.25E2,3.1E1,2.802E3,4.53E2,5.4E1,8.8E1,1.2E1,3.9E1,7E1,4.31E2,4.9E1,5.3E1,4.11E2,2.76E2,2.12E2,1.3E1,1.9E1,1.2E1,2.547E3,2.55E2,1.64E2,2.89E2,5.4E1,3.4E1,3.6E1,3.4E1,4.1E1,3.9E2,3.5E1,1.4E1,1.3E1,4E1,2.68E2,1.43E2,9.2E1,1.2E2,1.265E3,1.282E3,1.95E2,6E1,3.6E1,1.28E2,5.5E1,2.34E2,1.3E1,4.1E1,2E1,1.4E1,2.3E1,1.8E1,2.45E2,1.45E2,1.8E1,1.7E1,2.14E2,5.4E1,4.6E1,9.7E1,1E1,1.1E2],"tree_param":{"num_deleted":"2","num_feature":"7","num_nodes":"87","size_leaf_vector":"0"}},{"base_weights":[4.602054E-3,-2.1464132E-2,1.5369697E-1,3.6730647E-2,-3.0392444E-1,-1.165927E0,2.2803605E-1,1.17028855E-1,-2.3632629E-2,-1.1327151E0,-0E0,2.7101952E-1,-1.3359132E-1,1.3191797E0,-8.689248E-2,-7.242536E-1,2.4364093E-2,-1.8205108E-1,-0E0],"categories":[],"categories_nodes":[],"categories_segments":[],"categories_sizes":[],"default_left":[true,true,true,true,true,false,false,false,false,false,true,true,true,false,true,false,false,false,false],"id":16,"left_children":[1,3,5,7,9,-1,-1,-1,-1,-1,11,13,15,-1,17,-1,-1,-1,-1],"loss_changes":[2.167011E1,7.651681E1,7.729342E1,1.878195E1,2.0104471E2,0E0,0E0,0E0,0E0,0E0,2.1209797E1,7.905498E1,3.9903435E1,0E0,8.169848E-1,0E0,0E0,0E0,0E0],"parents":[2147483647,0,0,1,1,2,2,3,3,4,4,10,10,11,11,12,12,14,14],"right_children":[2,4,6,8,10,-1,-1,-1,-1,-1,12,14,16,-1,18,-1,-1,-1,-1],"split_conditions":[4.5E0,5E-1,5E-1,5E-1,1.5E0,-5.829635E-1,1.1401802E-1,5.8514427E-2,-1.1816314E-2,-5.6635755E-1,3.5E0,5E-1,5E-1,6.595898E-1,1.5E0,-3.621268E-1,1.2182047E-2,-9.102554E-2,-0E0],"split_indices":[6,6,4,4,6,0,0,0,0,0,6,4,4,0,4,0,0,0,0],"split_type":[0,0,0,0,0,0,0,0,0,0,0,0,0,0,0,0,0,0,0],"sum_hessian":[5.404E3,4.572E3,8.32E2,3.777E3,7.95E2,4E1,7.92E2,1.656E3,2.121E3,2.13E2,5.82E2,1.93E2,3.89E2,5.2E1,1.41E2,8.8E1,3.01E2,5.6E1,8.5E1],"tree_param":{"num_deleted":"0","num_feature":"7","num_nodes":"19","size_leaf_vector":"0"}},{"base_weights":[1.0494075E-3,-3.6927104E-1,3.4040058E-1,-6.862027E-1,1.4396687E-1,6.905626E-1,-0E0,-5.469788E-2,-1.8340838E0,-5.07344E-1,1.7027615E0,5.13212E-1,3.8703437E0,-1.2021767E0,1.9453387E-1,-1.2640142E0,4.518041E-1,-2.7118413E0,-1.0160675E0,8.315953E0,-6.834083E-1,3.1452165E0,-2.249418E-1,2.3421006E-1,1.0649986E0,-1.4092056E0,5.033074E0,-1.1674044E-1,6.3878626E-1,-7.570211E-1,-4.0375395E0,8.8407063E-1,-1.8643728E0,-1.7292082E0,-4.7245464E0,1.3651197E0,-1.2680084E0,-1.7740698E0,-0E0,-2.2604828E0,-0E0,4.1345E-1,-1.4225029E0,5.330004E-1,3.3071742E0,7.529883E0,1.286097E0,1.4466822E-1,-9.876143E-1,1.3852268E0,2.8845218E-1,-2.4716365E0,1.3109695E0,-5.175052E0,-1.7027944E0,7.072701E-1,9.307426E0,-2.1373765E0,-0E0,-2.6887934E0,-1.0288614E0,-8.113108E0,-3.7626877E0,-1.511934E0,-8.1370515E-1,-2.9063115E-1,-8.415883E0,1.7166045E0,-3.5018477E-1,2.4013636E0,1.8631391E-1,-2.1896641E0,4.899535E-1,1.7458766E0,-8.1211555E-1,-4.1029166E-2,2.941201E0,-7.964524E-1,-3.2412012E0,8.6741257E-1,3.521994E0,-3.291703E-1,4.8606578E-1,-7.80838E-1,-3.7207863E0,-9.263213E-1,4.6280446E0,-2.9040757E-1,1.235621E0,-2.5594661E0,-6.6153014E-1,-0E0,-5.9915643E0,-1.9580857E0,4.698211E-3,1.21030256E-1,-3.2228353E0,-3.6801708E0,-1.0161939E1,7.1031255E-1,5.76696E0,-4.6631023E-1,6.1738217E-1,-4.109192E-2,2.906519E0,-6.458426E-1,4.6590722E-1,-3.7539394E0,-1.6806254E0,1.4950731E0,3.5529525E0,4.048157E0,1.3315696E0,2.427083E0,4.3359163E-1,-0E0,-1.4407744E0,4.3593794E-1,1.2040718E0],"categories":[],"categories_nodes":[],"categories_segments":[],"categories_sizes":[],"default_left":[true,true,true,true,true,true,true,true,true,true,true,true,true,false,true,true,true,true,true,false,true,false,true,true,true,false,true,true,true,true,true,true,true,true,true,false,true,true,true,false,false,true,true,true,false,false,false,true,true,true,true,true,true,false,false,true,false,true,false,true,true,false,false,false,false,true,true,true,true,true,true,true,false,true,false,false,true,false,false,true,false,true,true,false,false,false,false,false,false,false,false,false,false,false,false,false,false,false,false,false,false,false,false,false,false,false,false,false,false,false,false,false,false,false,false,false,false,false,false],"id":17,"left_children":[1,3,5,7,9,11,13,15,17,19,21,23,25,-1,27,29,31,33,35,-1,37,-1,39,41,43,-1,45,47,49,51,53,55,57,59,61,-1,63,65,67,-1,-1,69,71,73,-1,-1,-1,75,77,79,81,83,85,-1,-1,87,-1,89,-1,91,93,-1,-1,-1,-1,95,97,99,101,103,105,107,-1,109,-1,-1,111,-1,-1,113,-1,115,117,-1,-1,-1,-1,-1,-1,-1,-1,-1,-1,-1,-1,-1,-1,-1,-1,-1,-1,-1,-1,-1,-1,-1,-1,-1,-1,-1,-1,-1,-1,-1,-1,-1,-1,-1,-1],"loss_changes":[6.792205E2,4.2215094E2,3.370786E2,1.1502837E3,1.0007804E3,7.622226E2,3.3582022E2,6.3920404E2,3.8428638E2,1.0378596E3,8.244709E2,1.9692978E2,4.6719763E2,0E0,1.7360426E2,4.074735E2,7.256245E2,4.9157642E2,1.794212E2,0E0,5.0526074E2,0E0,5.5043137E1,2.586398E2,5.014975E2,0E0,5.0756506E2,1.6849612E2,1.2616789E2,9.45137E2,7.896564E1,8.607241E2,5.9494324E1,1.0230115E2,1.9039526E2,0E0,1.717276E1,2.5255825E3,2.5177031E2,0E0,0E0,3.491903E2,1.32813E2,5.885176E2,0E0,0E0,0E0,3.0076068E2,5.089708E1,1.520297E2,4.4516533E1,2.8294733E2,9.059258E2,0E0,0E0,3.2399478E2,0E0,4.3872864E1,0E0,6.855695E2,1.1638149E2,0E0,0E0,0E0,0E0,2.7542026E2,2.8202588E2,2.5290196E2,3.8521168E1,1.1315213E2,1.6785097E2,1.588736E1,0E0,5.5559937E1,0E0,0E0,3.1855469E1,0E0,0E0,7.39578E1,0E0,2.4436695E1,1.2448578E0,0E0,0E0,0E0,0E0,0E0,0E0,0E0,0E0,0E0,0E0,0E0,0E0,0E0,0E0,0E0,0E0,0E0,0E0,0E0,0E0,0E0,0E0,0E0,0E0,0E0,0E0,0E0,0E0,0E0,0E0,0E0,0E0,0E0,0E0,0E0,0E0],"parents":[2147483647,0,0,1,1,2,2,3,3,4,4,5,5,6,6,7,7,8,8,9,9,10,10,11,11,12,12,14,14,15,15,16,16,17,17,18,18,20,20,22,22,23,23,24,24,26,26,27,27,28,28,29,29,30,30,31,31,32,32,33,33,34,34,36,36,37,37,38,38,41,41,42,42,43,43,47,47,48,48,49,49,50,50,51,51,52,52,55,55,57,57,59,59,60,60,65,65,66,66,67,67,68,68,69,69,70,70,71,71,73,73,76,76,79,79,81,81,82,82],"right_children":[2,4,6,8,10,12,14,16,18,20,22,24,26,-1,28,30,32,34,36,-1,38,-1,40,42,44,-1,46,48,50,52,54,56,58,60,62,-1,64,66,68,-1,-1,70,72,74,-1,-1,-1,76,78,80,82,84,86,-1,-1,88,-1,90,-1,92,94,-1,-1,-1,-1,96,98,100,102,104,106,108,-1,110,-1,-1,112,-1,-1,114,-1,116,118,-1,-1,-1,-1,-1,-1,-1,-1,-1,-1,-1,-1,-1,-1,-1,-1,-1,-1,-1,-1,-1,-1,-1,-1,-1,-1,-1,-1,-1,-1,-1,-1,-1,-1,-1,-1],"split_conditions":[2.35E1,9.5E0,7.5E0,1.45E1,1.85E1,3.6E1,9.5E0,8.5E0,2.15E1,1.05E1,1.8E1,5.5E0,1E0,-6.0108835E-1,1.55E1,5.5E0,4E0,1.85E1,2.25E1,4.1579766E0,1.75E1,1.5726082E0,3E1,3.25E1,3.2E1,-7.046028E-1,2.5E0,3.8E1,3.45E1,3.5E0,2.5E0,2.5E0,5.5E0,1.65E1,2.5E0,6.8255985E-1,2.5E0,1.65E1,1.75E1,-1.1302414E0,-0E0,1E0,2.5E0,3E1,1.6535871E0,3.7649415E0,6.430485E-1,3.05E1,1.45E1,2.25E1,3.95E1,4E0,6.5E0,-2.587526E0,-8.513972E-1,5E-1,4.653713E0,1.35E1,-0E0,2.5E0,2.5E0,-4.056554E0,-1.8813438E0,-7.55967E-1,-4.0685257E-1,1.55E1,1.5E1,2.25E1,2.95E1,3.05E1,2.55E1,1E0,2.4497674E-1,2.7E1,-4.0605778E-1,-2.0514583E-2,3.35E1,-3.982262E-1,-1.6206006E0,2.85E1,1.760997E0,3.8E1,4.05E1,-3.90419E-1,-1.8603932E0,-4.6316066E-1,2.3140223E0,-1.4520378E-1,6.178105E-1,-1.2797331E0,-3.3076507E-1,-0E0,-2.9957821E0,-9.790428E-1,2.3491054E-3,6.0515128E-2,-1.6114177E0,-1.8400854E0,-5.0809693E0,3.5515627E-1,2.88348E0,-2.3315512E-1,3.0869108E-1,-2.054596E-2,1.4532595E0,-3.229213E-1,2.3295361E-1,-1.8769697E0,-8.403127E-1,7.4753654E-1,1.7764763E0,2.0240786E0,6.657848E-1,1.2135415E0,2.1679582E-1,-0E0,-7.203872E-1,2.1796897E-1,6.020359E-1],"split_indices":[2,3,3,2,2,2,3,2,2,3,3,3,3,0,3,3,3,2,2,0,3,0,3,2,2,0,3,2,3,3,2,3,3,2,3,0,3,3,2,0,0,3,3,2,0,0,0,2,3,3,2,2,2,0,0,3,0,2,0,3,3,0,0,0,0,2,2,3,3,2,2,3,0,2,0,0,2,0,0,2,0,3,3,0,0,0,0,0,0,0,0,0,0,0,0,0,0,0,0,0,0,0,0,0,0,0,0,0,0,0,0,0,0,0,0,0,0,0,0],"split_type":[0,0,0,0,0,0,0,0,0,0,0,0,0,0,0,0,0,0,0,0,0,0,0,0,0,0,0,0,0,0,0,0,0,0,0,0,0,0,0,0,0,0,0,0,0,0,0,0,0,0,0,0,0,0,0,0,0,0,0,0,0,0,0,0,0,0,0,0,0,0,0,0,0,0,0,0,0,0,0,0,0,0,0,0,0,0,0,0,0,0,0,0,0,0,0,0,0,0,0,0,0,0,0,0,0,0,0,0,0,0,0,0,0,0,0,0,0,0,0],"sum_hessian":[5.404E3,2.577E3,2.827E3,1.599E3,9.78E2,1.393E3,1.434E3,1.035E3,5.64E2,6.88E2,2.9E2,1.322E3,7.1E1,1.99E2,1.235E3,3.08E2,7.27E2,2.68E2,2.96E2,1.2E1,6.76E2,1.67E2,1.23E2,8.85E2,4.37E2,1.2E1,5.9E1,7.2E2,5.15E2,2.63E2,4.5E1,6.15E2,1.12E2,1.83E2,8.5E1,2.6E1,2.7E2,2.6E2,4.16E2,1.1E1,1.12E2,8.02E2,8.3E1,3.56E2,8.1E1,3.4E1,2.5E1,5.5E2,1.7E2,1.59E2,3.56E2,1.45E2,1.18E2,2.8E1,1.7E1,6.04E2,1.1E1,9.8E1,1.4E1,7.3E1,1.1E2,1.6E1,6.9E1,1.67E2,1.03E2,2.14E2,4.6E1,7E1,3.46E2,7.9E1,7.23E2,6.1E1,2.2E1,1.89E2,1.67E2,5.15E2,3.5E1,1.6E2,1E1,1.31E2,2.8E1,8E1,2.76E2,6.4E1,8.1E1,7E1,4.8E1,2.06E2,3.98E2,7.3E1,2.5E1,4E1,3.3E1,6E1,5E1,1.87E2,2.7E1,1.4E1,3.2E1,5.8E1,1.2E1,3.14E2,3.2E1,1.2E1,6.7E1,1.77E2,5.46E2,1.1E1,5E1,1.7E2,1.9E1,1.8E1,1.7E1,2.5E1,1.06E2,6.5E1,1.5E1,2.66E2,1E1],"tree_param":{"num_deleted":"0","num_feature":"7","num_nodes":"119","size_leaf_vector":"0"}},{"base_weights":[-1.1285252E-4,2.5829652E-1,-2.3036186E-1,5.626217E-1,-1.1670188E-1,-9.370592E-1,1.5081808E-1,1.1833742E-1,3.1596801E0,-1.6085057E0,5.2645224E-1,-2.1248275E-1,-2.744224E0,4.874493E0,-2.335941E-1,-2.5356185E-1,2.6578772E-1,2.1379137E-2,1.0501127E0,-4.3744612E-1,5.22014E-1,-3.8365686E0,2.5377054E0,5.440376E0,4.2760384E-1,-1.1730901E0,1.5374626E-1,3.8156113E-1,-1.9599412E-1,7.442996E-1,-1.1145011E0,3.052552E0,4.4111833E-1,-0E0,-4.9541005E-1,1.6317971E0,-1.0115265E0,1.8144343E0,4.4167843E0,-7.773967E-1,-2.5450644E0,-8.850847E-1,3.1459808E-1,2.7062404E-1,9.538313E-1,-3.4887364E0,-0E0,-4.8980868E-1,7.7047926E-1,-4.1282618E-1,5.783288E-1,-4.177038E-1,-8.1881934E-1,-2.9515556E-1,-2.7127473E0,-7.595118E0,5.01014E-2,-7.716885E-1,-1.7932142E0,2.6111972E-1,3.109203E0,1.2831154E0,-3.513429E-1,-9.479023E-1,-3.963381E0,-7.6742977E-1,-0E0,1.0161492E0,-3.9497715E-1,-4.650999E-1,1.1152649E-1,-9.473684E-1,-2.3048201E-1,-7.461766E-1,5.1980484E-1,-4.1587443E0,-8.1150776E-1,-5.1981264E-1,-1.932994E1,1.7146444E0,-1.0348041E0,3.9832747E-1,-5.7416826E-1],"categories":[],"categories_nodes":[],"categories_segments":[],"categories_sizes":[],"default_left":[true,true,true,true,true,true,true,true,false,false,true,true,true,true,true,false,true,true,true,true,true,false,true,false,false,true,true,false,false,true,true,false,true,true,true,false,false,false,false,true,true,true,true,true,false,true,false,true,true,false,false,true,true,true,true,true,true,false,false,true,false,false,false,false,false,false,false,false,false,false,false,true,true,false,false,false,false,false,false,false,false,false,false],"id":18,"left_children":[1,3,5,7,9,11,13,15,-1,-1,17,19,21,23,25,-1,27,29,31,33,35,-1,37,-1,-1,39,41,-1,-1,43,45,-1,47,49,51,-1,-1,-1,-1,53,55,57,59,61,-1,63,-1,65,67,-1,-1,69,-1,73,75,77,79,-1,-1,81,-1,-1,-1,-1,-1,-1,-1,-1,-1,-1,-1,-1,-1,-1,-1,-1,-1,-1,-1,-1,-1,-1,-1],"loss_changes":[3.2150922E2,2.918214E2,7.7692053E2,1.6078318E3,1.0904465E3,1.3071567E3,3.4018022E3,6.62067E1,0E0,0E0,2.0303572E2,1.1943556E2,1.6721301E3,3.2314893E2,6.311931E2,0E0,4.7674984E1,3.33187E2,4.470243E2,1.3836441E1,2.85565E2,0E0,2.7425018E1,0E0,0E0,2.5610712E2,2.004499E2,0E0,0E0,1.8630615E1,4.2696576E2,0E0,9.253758E1,1.635244E1,5.8649063E0,0E0,0E0,0E0,0E0,3.5468216E2,1.4797358E3,2.1652603E0,1.4030609E2,5.9266987E1,0E0,3.3192383E1,0E0,9.927048E0,6.735605E1,0E0,0E0,1.2154121E1,9.407425E-2,1.1950786E2,1.834613E2,3.0457468E3,1.3700215E2,0E0,0E0,1.185418E2,0E0,0E0,0E0,0E0,0E0,0E0,0E0,0E0,0E0,0E0,0E0,0E0,0E0,0E0,0E0,0E0,0E0,0E0,0E0,0E0,0E0,0E0,0E0],"parents":[2147483647,0,0,1,1,2,2,3,3,4,4,5,5,6,6,7,7,10,10,11,11,12,12,13,13,14,14,16,16,17,17,18,18,19,19,20,20,22,22,25,25,26,26,29,29,30,30,32,32,33,33,34,34,39,39,40,40,41,41,42,42,43,43,45,45,47,47,48,48,51,51,52,52,53,53,54,54,55,55,56,56,59,59],"right_children":[2,4,6,8,10,12,14,16,-1,-1,18,20,22,24,26,-1,28,30,32,34,36,-1,38,-1,-1,40,42,-1,-1,44,46,-1,48,50,52,-1,-1,-1,-1,54,56,58,60,62,-1,64,-1,66,68,-1,-1,70,-1,74,76,78,80,-1,-1,82,-1,-1,-1,-1,-1,-1,-1,-1,-1,-1,-1,-1,-1,-1,-1,-1,-1,-1,-1,-1,-1,-1,-1],"split_conditions":[5E-1,5.5E0,5.5E0,4.5E0,6.5E0,4.5E0,6.5E0,1.5E0,1.5798401E0,-8.0425286E-1,1.6E1,2.5E0,1.5E0,3E0,2.5E0,-1.2678093E-1,2.5E0,1.15E1,1.75E1,1E0,3.5E0,-1.9182843E0,3.5E0,2.720188E0,2.1380192E-1,1.5E0,9.5E0,1.9078057E-1,-9.799706E-2,9.5E0,1.45E1,1.526276E0,2.05E1,2.5E0,4.5E0,8.1589854E-1,-5.0576323E-1,9.0721714E-1,2.2083921E0,1.75E1,1.8E1,5.5E0,6.5E0,7.5E0,4.7691566E-1,1.35E1,-0E0,1.95E1,3.15E1,-2.0641309E-1,2.891644E-1,2.5E0,-4.0940967E-1,1.4E1,2.35E1,1.35E1,3.75E1,-3.8584426E-1,-8.966071E-1,5.5E0,1.5546016E0,6.415577E-1,-1.7567144E-1,-4.7395116E-1,-1.9816905E0,-3.8371488E-1,-0E0,5.080746E-1,-1.9748858E-1,-2.3254995E-1,5.5763245E-2,-4.736842E-1,-1.15241006E-1,-3.730883E-1,2.5990242E-1,-2.0793722E0,-4.0575388E-1,-2.5990632E-1,-9.66497E0,8.573222E-1,-5.1740205E-1,1.9916373E-1,-2.8708413E-1],"split_indices":[5,3,3,3,3,3,3,3,0,0,3,3,5,5,5,0,3,3,3,3,5,0,5,0,0,5,3,0,0,3,3,0,3,5,5,0,0,0,0,3,3,5,5,3,0,3,0,3,3,0,0,5,5,3,3,3,3,0,0,5,0,0,0,0,0,0,0,0,0,0,0,2147483647,2147483647,0,0,0,0,0,0,0,0,0,0],"split_type":[0,0,0,0,0,0,0,0,0,0,0,0,0,0,0,0,0,0,0,0,0,0,0,0,0,0,0,0,0,0,0,0,0,0,0,0,0,0,0,0,0,0,0,0,0,0,0,0,0,0,0,0,0,0,0,0,0,0,0,0,0,0,0,0,0,0,0,0,0,0,0,0,0,0,0,0,0,0,0,0,0,0,0],"sum_hessian":[5.404E3,2.536E3,2.868E3,1.407E3,1.129E3,1.009E3,1.859E3,1.204E3,2.03E2,3.42E2,7.87E2,7.23E2,2.86E2,1.4E2,1.719E3,3.32E2,8.72E2,4.06E2,3.81E2,5.59E2,1.64E2,2.38E2,4.8E1,1.23E2,1.7E1,5.05E2,1.214E3,7.06E2,1.66E2,2.51E2,1.55E2,8.6E1,2.95E2,6.7E1,4.92E2,9.7E1,6.7E1,3.8E1,1E1,3.96E2,1.09E2,1.58E2,1.056E3,8.5E1,1.66E2,5E1,1.05E2,7.3E1,2.22E2,4E1,2.7E1,4.11E2,8.1E1,3.2E2,7.6E1,3.7E1,7.2E1,1.47E2,1.1E1,1.039E3,1.7E1,3.5E1,5E1,1E1,4E1,4.6E1,2.7E1,1.87E2,3.5E1,3.86E2,2.5E1,5.9E1,2.2E1,2.1E2,1.1E2,4.1E1,3.5E1,2.4E1,1.3E1,3E1,4.2E1,8.98E2,1.41E2],"tree_param":{"num_deleted":"2","num_feature":"7","num_nodes":"83","size_leaf_vector":"0"}},{"base_weights":[-2.910938E-3,-3.8072088E-1,3.9338377E-1,-8.2643855E-1,-1.8676436E-1,1.2389011E0,2.2544037E-1,-2.779281E-1,-1.6180803E0,1.8938184E0,-3.9413273E-1,1.1773902E-2,4.6478806E0,1.398471E-1,2.4315536E0,-7.8633547E-1,1.6737119E0,-8.8456335E0,-1.2853523E0,7.117052E-1,1.0710505E1,-3.6867542E0,-2.7744144E-1,1.2556163E0,-1.0654727E1,1.260587E1,3.0552588E0,2.853441E-1,-3.0209107E0,7.277182E0,1.0283155E0,-3.2536647E-1,-5.709588E0,2.0895061E0,2.0163192E-1,-4.1583667E0,-9.280746E-1,-6.023879E-1,3.5833485E0,-4.2900643E0,-1.7964325E0,1.1536079E-1,-8.330986E-1,6.586592E-1,9.378029E0,-1.3938486E1,-5.451651E0,-1.9852368E0,4.559734E0,4.678496E-1,-1.8165225E-1,-6.99006E0,-1.3275479E-1,-9.2693293E-1,2.1936107E0,-8.7770444E-1,3.1194055E-1,9.3115807E-1,-1.3304465E-1,-6.3353205E-1,-2.9887774E0,3.6381397E-1,-3.485515E0,1.1176769E1,1.80997E-1,1.5253605E0,-9.41608E-1,-1.8150073E0,1.6765709E-1,2.070262E0,-8.060083E-1,6.8673577E0,2.623885E-1,3.0265075E-1,1.349012E1,-6.8876796E0,4.3163785E-1,-9.057857E-1,-9.917651E0,-3.0433323E0,5.5041987E-1,-2.410628E0,4.562461E-1,4.644928E-1,6.5698075E0,-5.154173E-3,-1.734796E0,3.7805305E0,-2.9440895E-1,-1.035655E0,1.0431652E0,-1.0827436E-1,2.1234758E0,2.62356E0,-2.723679E0,4.488114E0,1.1457387E0,-2.661153E0,-2.9076293E-1,9.8300517E-1,-2.0043094E0,-7.2312516E-1,2.9894152E0,-1.70761E0,3.0836678E0,-3.3652854E0,2.9296315E0,2.2739513E0,9.888578E0,-2.360152E0,2.6893034E0,4.064637E-2,9.0759724E-1,-3.0135396E0,-1.4876553E1,-1.0845747E0,7.918302E-1,2.6619124E0,-1.2758086E0],"categories":[],"categories_nodes":[],"categories_segments":[],"categories_sizes":[],"default_left":[true,true,true,true,true,true,true,true,true,true,true,true,true,true,true,true,true,false,true,true,false,true,true,true,true,false,true,true,true,false,true,true,false,false,true,false,true,true,true,false,false,true,true,true,false,false,false,false,true,true,true,true,true,true,true,true,true,false,false,true,false,true,false,false,true,true,true,true,true,true,true,true,true,true,false,true,true,false,false,false,true,false,false,false,false,false,false,false,false,false,false,false,false,false,false,false,false,false,false,false,false,false,false,false,false,false,false,false,false,false,false,false,false,false,false,false,false,false,false],"id":19,"left_children":[1,3,5,7,9,11,13,15,17,19,21,23,25,27,29,31,33,-1,35,37,-1,39,41,43,45,-1,47,49,51,-1,53,55,-1,-1,57,-1,59,61,63,-1,-1,65,67,69,-1,-1,-1,-1,71,73,75,77,79,81,83,85,87,-1,-1,89,-1,91,-1,-1,93,95,97,99,101,103,105,107,109,111,-1,113,115,-1,-1,-1,117,-1,-1,-1,-1,-1,-1,-1,-1,-1,-1,-1,-1,-1,-1,-1,-1,-1,-1,-1,-1,-1,-1,-1,-1,-1,-1,-1,-1,-1,-1,-1,-1,-1,-1,-1,-1,-1,-1],"loss_changes":[8.093451E2,2.3459152E2,3.661405E2,3.5177856E2,8.3111816E2,1.7796284E3,4.026032E2,4.9001657E2,7.4839575E2,1.7487502E3,6.5884174E2,4.1986978E3,1.3153501E3,9.63511E2,4.9495493E2,8.689459E2,4.994333E1,0E0,3.0328296E2,6.019724E2,0E0,2.9147278E1,3.771334E2,1.3352256E3,3.908877E2,0E0,7.499215E2,1.747021E2,1.018102E3,0E0,1.5418698E2,1.3158583E2,0E0,0E0,1.0462491E1,0E0,1.5662166E2,3.1215897E2,1.2329624E3,0E0,0E0,1.4917001E3,7.101537E2,5.6415515E2,0E0,0E0,0E0,0E0,7.062987E2,3.08716E3,2.3548389E3,6.1376587E2,1.2350348E2,5.807272E1,2.795892E2,1.4086241E2,3.6767114E2,0E0,0E0,1.7499632E2,0E0,7.593247E1,0E0,0E0,2.6205988E2,4.5032068E2,6.212672E2,1.9934668E2,8.9827045E2,5.4430975E2,1.2644678E3,5.8283057E2,1.8620404E2,2.2536191E2,0E0,1.3513191E3,2.8174338E2,0E0,0E0,0E0,1.7999358E2,0E0,0E0,0E0,0E0,0E0,0E0,0E0,0E0,0E0,0E0,0E0,0E0,0E0,0E0,0E0,0E0,0E0,0E0,0E0,0E0,0E0,0E0,0E0,0E0,0E0,0E0,0E0,0E0,0E0,0E0,0E0,0E0,0E0,0E0,0E0,0E0,0E0,0E0],"parents":[2147483647,0,0,1,1,2,2,3,3,4,4,5,5,6,6,7,7,8,8,9,9,10,10,11,11,12,12,13,13,14,14,15,15,16,16,18,18,19,19,21,21,22,22,23,23,24,24,26,26,27,27,28,28,30,30,31,31,34,34,36,36,37,37,38,38,41,41,42,42,43,43,48,48,49,49,50,50,51,51,52,52,53,53,54,54,55,55,56,56,59,59,61,61,64,64,65,65,66,66,67,67,68,68,69,69,70,70,71,71,72,72,73,73,75,75,76,76,80,80],"right_children":[2,4,6,8,10,12,14,16,18,20,22,24,26,28,30,32,34,-1,36,38,-1,40,42,44,46,-1,48,50,52,-1,54,56,-1,-1,58,-1,60,62,64,-1,-1,66,68,70,-1,-1,-1,-1,72,74,76,78,80,82,84,86,88,-1,-1,90,-1,92,-1,-1,94,96,98,100,102,104,106,108,110,112,-1,114,116,-1,-1,-1,118,-1,-1,-1,-1,-1,-1,-1,-1,-1,-1,-1,-1,-1,-1,-1,-1,-1,-1,-1,-1,-1,-1,-1,-1,-1,-1,-1,-1,-1,-1,-1,-1,-1,-1,-1,-1,-1,-1],"split_conditions":[1.525E2,9.85E1,4E0,8.95E1,1.09E2,1.92E2,5.8E2,8.65E1,9.05E1,1.04E2,1.105E2,1.855E2,2.02E2,4.79E2,6.07E2,8.45E1,2.5E0,-4.4228168E0,1E0,2.5E0,5.3552523E0,4.5E0,1.375E2,1.845E2,2.5E0,6.302935E0,2.25E2,2.735E2,5.175E2,3.638591E0,9.5E0,7.05E1,-2.854794E0,1.0447531E0,8.8E1,-2.0791833E0,9.75E1,1.005E2,5.5E0,-2.1450322E0,-8.9821625E-1,2.5E0,5.5E0,1.785E2,4.6890144E0,-6.969243E0,-2.7258255E0,-9.926184E-1,3.1E2,2.685E2,2.89E2,9E0,5.5E0,7.125E2,6.16E2,3.3E1,7.15E1,4.6557903E-1,-6.652232E-2,9.4E1,-1.4943887E0,1E0,-1.7427576E0,5.5883846E0,2.05E1,1.145E2,1.18E2,1.5E0,1.46E2,1.5E0,1.81E2,2.5E0,3.45E2,2.335E2,6.74506E0,2.83E2,9.5E0,-4.5289284E-1,-4.9588256E0,-1.5216662E0,1.35E1,-1.205314E0,2.2812305E-1,2.322464E-1,3.2849038E0,-2.5770864E-3,-8.67398E-1,1.8902652E0,-1.4720447E-1,-5.178275E-1,5.215826E-1,-5.413718E-2,1.0617379E0,1.31178E0,-1.3618395E0,2.244057E0,5.7286936E-1,-1.3305765E0,-1.4538147E-1,4.9150258E-1,-1.0021547E0,-3.6156258E-1,1.4947076E0,-8.53805E-1,1.5418339E0,-1.6826427E0,1.4648157E0,1.1369756E0,4.944289E0,-1.180076E0,1.3446517E0,2.0323185E-2,4.5379862E-1,-1.5067698E0,-7.4382763E0,-5.4228735E-1,3.959151E-1,1.3309562E0,-6.379043E-1],"split_indices":[1,1,3,1,1,1,1,1,1,1,1,1,1,1,1,1,3,0,3,3,0,3,1,1,3,0,1,1,1,0,3,1,0,0,1,0,1,1,3,0,0,3,3,1,0,0,0,0,1,1,1,3,3,1,1,1,1,0,0,1,0,3,0,0,3,1,1,3,1,3,1,3,1,1,0,1,3,0,0,0,3,0,0,0,0,0,0,0,0,0,0,0,0,0,0,0,0,0,0,0,0,0,0,0,0,0,0,0,0,0,0,0,0,0,0,0,0,0,0],"split_type":[0,0,0,0,0,0,