{"learner":{"attributes":{"best_iteration":"406","best_ntree_limit":"407","scikit_learn":"{\"objective\": \"reg:squarederror\", \"learning_rate\": 0.16348928243486646, \"verbosity\": 0, \"booster\": null, \"tree_method\": null, \"gamma\": 1.7700638017993198, \"max_delta_step\": null, \"subsample\": 0.5063560817838623, \"colsample_bytree\": 0.6597818584110863, \"colsample_bylevel\": null, \"colsample_bynode\": null, \"reg_alpha\": 0.1535235589281927, \"reg_lambda\": null, \"scale_pos_weight\": null, \"base_score\": null, \"missing\": NaN, \"num_parallel_tree\": null, \"random_state\": null, \"n_jobs\": null, \"monotone_constraints\": null, \"interaction_constraints\": null, \"importance_type\": null, \"gpu_id\": null, \"validate_parameters\": null, \"predictor\": null, \"enable_categorical\": false, \"kwargs\": {\"nthread\": -1, \"seed\": 1}, \"_estimator_type\": \"regressor\"}"},"feature_names":["engine_size_cm3","power_ps","manufacturer","transmission","transmission_type","fuel","powertrain"],"feature_types":["int","int","int","int","int","int","int"],"gradient_booster":{"model":{"gbtree_model_param":{"num_trees":"407","size_leaf_vector":"0"},"tree_info":[0,0,0,0,0,0,0,0,0,0,0,0,0,0,0,0,0,0,0,0,0,0,0,0,0,0,0,0,0,0,0,0,0,0,0,0,0,0,0,0,0,0,0,0,0,0,0,0,0,0,0,0,0,0,0,0,0,0,0,0,0,0,0,0,0,0,0,0,0,0,0,0,0,0,0,0,0,0,0,0,0,0,0,0,0,0,0,0,0,0,0,0,0,0,0,0,0,0,0,0,0,0,0,0,0,0,0,0,0,0,0,0,0,0,0,0,0,0,0,0,0,0,0,0,0,0,0,0,0,0,0,0,0,0,0,0,0,0,0,0,0,0,0,0,0,0,0,0,0,0,0,0,0,0,0,0,0,0,0,0,0,0,0,0,0,0,0,0,0,0,0,0,0,0,0,0,0,0,0,0,0,0,0,0,0,0,0,0,0,0,0,0,0,0,0,0,0,0,0,0,0,0,0,0,0,0,0,0,0,0,0,0,0,0,0,0,0,0,0,0,0,0,0,0,0,0,0,0,0,0,0,0,0,0,0,0,0,0,0,0,0,0,0,0,0,0,0,0,0,0,0,0,0,0,0,0,0,0,0,0,0,0,0,0,0,0,0,0,0,0,0,0,0,0,0,0,0,0,0,0,0,0,0,0,0,0,0,0,0,0,0,0,0,0,0,0,0,0,0,0,0,0,0,0,0,0,0,0,0,0,0,0,0,0,0,0,0,0,0,0,0,0,0,0,0,0,0,0,0,0,0,0,0,0,0,0,0,0,0,0,0,0,0,0,0,0,0,0,0,0,0,0,0,0,0,0,0,0,0,0,0,0,0,0,0,0,0,0,0,0,0,0,0,0,0,0,0,0,0,0,0,0,0,0,0,0,0,0,0,0,0,0,0,0,0,0,0,0,0,0,0,0,0,0,0,0,0],"trees":[{"base_weights":[1.5465906E2,1.444409E2,2.4219626E2,-4.9128637E-1,1.4899146E2,2.1889972E2,2.8436954E2,1.3596042E2,1.7035641E2,2.2407622E2,1.7659386E2,1.4402382E2,1.04192184E2,1.7387872E2,1.1878911E2,1.4028062E2,1.5885678E2,3.315759E1,1.2597542E2,1.8058066E2,1.6181158E2,1.327525E2,1.4425429E2,1.646423E2,1.8645837E2,5.0793858E1,1.7107924E2],"categories":[],"categories_nodes":[],"categories_segments":[],"categories_sizes":[],"default_left":[true,true,true,false,true,true,false,true,true,false,false,true,true,true,false,true,false,false,false,true,true,false,false,false,false,false,false],"id":0,"left_children":[1,3,5,-1,7,9,-1,11,13,-1,-1,15,17,19,-1,21,-1,-1,-1,23,25,-1,-1,-1,-1,-1,-1],"loss_changes":[2.390752E6,1.603392E6,2.14737E5,0E0,6.32996E5,1.101E3,0E0,3.61256E5,1.40776E5,0E0,0E0,4.2576E4,4.61555E5,3.7852E4,0E0,8.986E3,0E0,0E0,0E0,1.843E4,3.06112E5,0E0,0E0,0E0,0E0,0E0,0E0],"parents":[2147483647,0,0,1,1,2,2,4,4,5,5,7,7,8,8,11,11,12,12,13,13,15,15,19,19,20,20],"right_children":[2,4,6,-1,8,10,-1,12,14,-1,-1,16,18,20,-1,22,-1,-1,-1,24,26,-1,-1,-1,-1,-1,-1],"split_conditions":[2.4955E3,4.375E2,3.6275E3,-8.032005E-2,1.9505E3,4.5E0,4.649137E1,5E-1,2.374E3,3.663406E1,2.8871202E1,1.545E3,2E0,1.5E0,1.9420746E1,1.2205E3,2.597138E1,5.4209104E0,2.059563E1,5E-1,3.5E0,2.1703611E1,2.358403E1,2.6917252E1,3.0483946E1,8.304252E0,2.7969622E1],"split_indices":[0,0,0,0,0,6,0,6,0,0,0,0,6,5,0,0,0,0,0,4,5,0,0,0,0,0,0],"split_type":[0,0,0,0,0,0,0,0,0,0,0,0,0,0,0,0,0,0,0,0,0,0,0,0,0,0,0],"sum_hessian":[2.711E3,2.43E3,2.81E2,7.4E1,2.356E3,1.85E2,9.6E1,1.468E3,8.88E2,1.61E2,2.4E1,1.168E3,3E2,8.29E2,5.9E1,9.41E2,2.27E2,7.1E1,2.29E2,5.24E2,3.05E2,3.37E2,6.04E2,1.49E2,3.75E2,2.4E1,2.81E2],"tree_param":{"num_deleted":"0","num_feature":"7","num_nodes":"27","size_leaf_vector":"0"}},{"base_weights":[1.292309E2,1.1954906E2,2.0729317E2,-4.117188E-1,1.2319381E2,1.8190694E2,2.40301E2,1.12965775E2,1.3996895E2,1.1689575E2,1.0474809E2,1.437155E2,9.0721825E1,1.3331781E2,1.15201546E2,1.058437E2,6.0630455E1,1.559651E2,1.3755199E2,1.1235898E2,1.22383354E2,1.1314519E2,9.951432E1,1.4591685E2,1.8150511E2,1.2008143E2,1.4275645E2],"categories":[],"categories_nodes":[],"categories_segments":[],"categories_sizes":[],"default_left":[true,true,true,false,true,false,false,true,true,true,true,true,false,false,true,true,false,true,true,false,false,false,false,false,false,false,false],"id":1,"left_children":[1,3,5,-1,7,-1,-1,9,11,13,15,17,-1,-1,19,21,-1,23,25,-1,-1,-1,-1,-1,-1,-1,-1],"loss_changes":[2.018816E6,1.052912E6,2.05092E5,0E0,3.85124E5,0E0,0E0,3.4776E4,1.49478E5,1.1785E4,1.68065E4,4.0186E4,0E0,0E0,4.444E3,1.0336E4,0E0,4.1729E4,3.3008E4,0E0,0E0,0E0,0E0,0E0,0E0,0E0,0E0],"parents":[2147483647,0,0,1,1,2,2,4,4,7,7,8,8,9,9,10,10,11,11,14,14,15,15,17,17,18,18],"right_children":[2,4,6,-1,8,-1,-1,10,12,14,16,18,-1,-1,20,22,-1,24,26,-1,-1,-1,-1,-1,-1,-1,-1],"split_conditions":[2.4955E3,4.375E2,3.6275E3,-6.731161E-2,1.9685E3,2.9739834E1,3.9286636E1,3.05E1,2.374E3,7.5E0,3.8E1,1.95E1,1.4832046E1,2.1796034E1,1.585E3,5E-1,9.91243E0,1.85E1,2.4E1,1.8369488E1,2.0008368E1,1.8498026E1,1.6269526E1,2.3855843E1,2.967414E1,1.9632027E1,2.333915E1],"split_indices":[0,0,0,0,0,0,0,2,0,2,3,2,0,0,0,4,0,2,2,0,0,0,0,0,0,0,0],"split_type":[0,0,0,0,0,0,0,0,0,0,0,0,0,0,0,0,0,0,0,0,0,0,0,0,0,0,0],"sum_hessian":[2.703E3,2.407E3,2.96E2,7.1E1,2.336E3,1.71E2,1.25E2,1.456E3,8.8E2,9.76E2,4.8E2,8.16E2,6.4E1,8.4E1,8.92E2,4.67E2,1.3E1,2.65E2,5.51E2,6.51E2,2.41E2,2.09E2,2.58E2,1.95E2,7E1,1.32E2,4.19E2],"tree_param":{"num_deleted":"0","num_feature":"7","num_nodes":"27","size_leaf_vector":"0"}},{"base_weights":[1.07780556E2,1.0035441E2,1.7000972E2,-3.452431E-1,1.03398224E2,1.6013585E2,2.1178325E2,9.394915E1,1.1569561E2,1.6713353E2,1.350309E2,1.0053865E2,6.978114E1,1.3230223E2,1.09728485E2,9.307033E1,1.0473692E2,1.0159316E1,8.6654396E1,1.2262564E2,1.549653E2,6.152608E1,1.1146003E2,9.924357E1,8.7975235E1,1.018945E2,1.1449313E2,7.5965004E0,1.6278175E1,9.543087E1,7.345278E1,1.0346036E2,1.2943271E2,1.0612001E2,1.1907186E2],"categories":[],"categories_nodes":[],"categories_segments":[],"categories_sizes":[],"default_left":[true,true,true,false,true,true,false,true,true,false,false,true,true,true,true,true,true,true,true,true,false,false,true,false,false,false,false,false,false,false,false,false,false,false,false],"id":2,"left_children":[1,3,5,-1,7,9,-1,11,13,-1,-1,15,17,19,21,23,25,27,29,31,-1,-1,33,-1,-1,-1,-1,-1,-1,-1,-1,-1,-1,-1,-1],"loss_changes":[1.21584E6,7.31388E5,8.2757E4,0E0,2.58214E5,1.8318E4,0E0,2.02378E5,8.4737E4,0E0,0E0,2.2548E4,2.8581875E5,3.7973E4,5.513E4,3.19275E3,6.382E3,8.7629443E2,1.8686E4,1.0969E4,0E0,0E0,1.6433E4,0E0,0E0,0E0,0E0,0E0,0E0,0E0,0E0,0E0,0E0,0E0,0E0],"parents":[2147483647,0,0,1,1,2,2,4,4,5,5,7,7,8,8,11,11,12,12,13,13,14,14,15,15,16,16,17,17,18,18,19,19,22,22],"right_children":[2,4,6,-1,8,10,-1,12,14,-1,-1,16,18,20,22,24,26,28,30,32,-1,-1,34,-1,-1,-1,-1,-1,-1,-1,-1,-1,-1,-1,-1],"split_conditions":[2.491E3,4.375E2,3.992E3,-5.6443546E-2,1.7985E3,5E-1,3.462429E1,5E-1,1.95E1,2.7324541E1,2.2076105E1,1.289E3,2E0,1.85E1,2.15E1,1.55E1,1.5445E3,1.25E1,2.8E1,1.994E3,2.5335165E1,1.0058855E1,2.5E0,1.622526E1,1.4383008E1,1.6658659E1,1.8718401E1,1.2419463E0,2.661307E0,1.5601925E1,1.2008742E1,1.691466E1,2.116086E1,1.7349483E1,1.9466972E1],"split_indices":[0,0,0,0,0,6,0,6,2,0,0,0,6,2,2,2,0,3,2,0,0,0,6,0,0,0,0,0,0,0,0,0,0,0,0],"split_type":[0,0,0,0,0,0,0,0,0,0,0,0,0,0,0,0,0,0,0,0,0,0,0,0,0,0,0,0,0,0,0,0,0,0,0],"sum_hessian":[2.667E3,2.385E3,2.82E2,7E1,2.315E3,2.32E2,5E1,1.314E3,1.001E3,1.77E2,5.5E1,1.03E3,2.84E2,2.59E2,7.42E2,3.79E2,6.51E2,6.3E1,2.21E2,1.86E2,7.3E1,2.7E1,7.15E2,1.63E2,2.16E2,5.13E2,1.38E2,4.6E1,1.7E1,1.29E2,9.2E1,5.3E1,1.33E2,4.29E2,2.86E2],"tree_param":{"num_deleted":"0","num_feature":"7","num_nodes":"35","size_leaf_vector":"0"}},{"base_weights":[9.044483E1,8.386258E1,1.4410725E2,-2.9037604E-1,8.666319E1,1.3135039E2,1.8180754E2,7.891373E1,9.881786E1,1.3505084E2,1.051626E2,1.6117276E2,2.0994588E2,8.436333E1,6.029275E1,1.0074116E2,4.336521E1,1.1535147E2,1.4092561E2,8.086402E1,1.00852196E2,6.4926167E0,7.411948E1,1.0310524E2,6.1791748E1,1.1711688E2,1.1589036E0,7.545999E1,8.618732E1,5.0502157E0,1.14345045E1,6.6945526E1,8.6685104E1,9.3599144E1,1.1749677E2,-9.7308035E0,7.827152E1,-2.5250301E0,4.452061E0],"categories":[],"categories_nodes":[],"categories_segments":[],"categories_sizes":[],"default_left":[true,true,true,false,true,true,true,true,true,true,false,false,false,true,true,true,true,false,false,true,false,true,true,true,true,false,true,false,false,false,false,false,false,false,false,false,false,false,false],"id":3,"left_children":[1,3,5,-1,7,9,11,13,15,17,-1,-1,-1,19,21,23,25,-1,-1,27,-1,29,31,33,35,-1,37,-1,-1,-1,-1,-1,-1,-1,-1,-1,-1,-1,-1],"loss_changes":[9.7195E5,5.85466E5,1.21796E5,0E0,2.18614E5,8.0495E3,9.072E3,1.44367E5,9.5008E4,6.619E3,0E0,0E0,0E0,5.7421E4,2.5019388E5,7.6476E4,1.0256805E5,0E0,0E0,2.0599E4,0E0,4.386953E2,1.833225E4,1.04845E5,6.4420594E4,0E0,2.7843646E2,0E0,0E0,0E0,0E0,0E0,0E0,0E0,0E0,0E0,0E0,0E0,0E0],"parents":[2147483647,0,0,1,1,2,2,4,4,5,5,6,6,7,7,8,8,9,9,13,13,14,14,15,15,16,16,19,19,21,21,22,22,23,23,24,24,26,26],"right_children":[2,4,6,-1,8,10,12,14,16,18,-1,-1,-1,20,22,24,26,-1,-1,28,-1,30,32,34,36,-1,38,-1,-1,-1,-1,-1,-1,-1,-1,-1,-1,-1,-1],"split_conditions":[2.491E3,4.375E2,5.175E2,-4.747337E-2,1.9505E3,4.5E0,4.4975E3,5E-1,3.15E2,2.952E3,1.7192957E1,2.635002E1,3.4323902E1,1.615E2,2E0,2.374E3,7.5E0,1.8858728E1,2.3039827E1,1.18E2,1.6488253E1,1.55E1,1.27E2,1.985E2,3E0,1.9147354E1,3.65E2,1.23369E1,1.4090703E1,8.256561E-1,1.869419E0,1.0944876E1,1.4172086E1,1.5302457E1,1.9209463E1,-1.5908821E0,1.2796555E1,-4.1281536E-1,7.2786427E-1],"split_indices":[0,0,1,0,0,6,0,6,1,0,0,0,0,1,6,0,3,0,0,1,0,3,1,1,6,0,1,0,0,0,0,0,0,0,0,0,0,0,0],"split_type":[0,0,0,0,0,0,0,0,0,0,0,0,0,0,0,0,0,0,0,0,0,0,0,0,0,0,0,0,0,0,0,0,0,0,0,0,0,0,0],"sum_hessian":[2.785E3,2.483E3,3.02E2,8E1,2.403E3,2.29E2,7.3E1,1.472E3,9.31E2,1.97E2,3.2E1,4.6E1,2.7E1,1.136E3,3.36E2,8.99E2,3.2E1,5E1,1.47E2,9.42E2,1.94E2,6.9E1,2.67E2,8.46E2,5.3E1,1.1E1,2.1E1,4.75E2,4.67E2,5.5E1,1.4E1,1.74E2,9.3E1,5.14E2,3.32E2,1E1,4.3E1,1E1,1.1E1],"tree_param":{"num_deleted":"0","num_feature":"7","num_nodes":"39","size_leaf_vector":"0"}},{"base_weights":[7.586215E1,7.082427E1,1.1956907E2,-2.4316227E-1,7.301787E1,1.0649763E2,1.4294614E2,6.707963E1,8.3181305E1,1.2637562E2,1.0160901E2,1.3540868E2,1.7956471E2,7.1352264E1,5.102476E1,9.110502E1,7.2363625E1,8.506808E1,1.0639426E2,6.9073E1,7.9283325E1,5.382021E0,6.3661865E1,8.658673E1,1.1975251E2,-9.324809E0,8.0890396E1,1.1549152E2,9.090767E1,6.456179E1,7.111603E1,8.750528E1,7.523216E1,7.1701565E0,-5.1718793E0,6.1834587E1,8.719676E1,9.304532E1,7.864109E1,7.6646065E1,1.2596768E2,-2.6829414E0,-1.5467816E1,7.1711655E1,9.7364365E1],"categories":[],"categories_nodes":[],"categories_segments":[],"categories_sizes":[],"default_left":[true,true,true,false,true,true,true,true,true,false,true,false,false,true,true,true,true,false,true,true,true,true,true,true,true,true,true,false,false,false,false,false,false,false,false,false,false,false,false,false,false,false,false,false,false],"id":4,"left_children":[1,3,5,-1,7,9,11,13,15,-1,17,-1,-1,19,21,23,25,-1,27,29,31,33,35,37,39,41,43,-1,-1,-1,-1,-1,-1,-1,-1,-1,-1,-1,-1,-1,-1,-1,-1,-1,-1],"loss_changes":[6.06054E5,3.90542E5,7.24375E4,0E0,1.41055E5,5.39325E3,3.238E3,1.019105E5,6.98415E4,0E0,3.267625E3,0E0,0E0,1.64285E4,1.8825775E5,5.5742E4,2.66843E5,0E0,5.952875E3,4.1435E3,2.185125E3,1.3961599E3,5.5945625E3,1.549275E4,8.2641875E3,1.4653525E3,4.53105E4,0E0,0E0,0E0,0E0,0E0,0E0,0E0,0E0,0E0,0E0,0E0,0E0,0E0,0E0,0E0,0E0,0E0,0E0],"parents":[2147483647,0,0,1,1,2,2,4,4,5,5,6,6,7,7,8,8,10,10,13,13,14,14,15,15,16,16,18,18,19,19,20,20,21,21,22,22,23,23,24,24,25,25,26,26],"right_children":[2,4,6,-1,8,10,12,14,16,-1,18,-1,-1,20,22,24,26,-1,28,30,32,34,36,38,40,42,44,-1,-1,-1,-1,-1,-1,-1,-1,-1,-1,-1,-1,-1,-1,-1,-1,-1,-1],"split_conditions":[2.491E3,4.375E2,3.6275E3,-3.9754424E-2,1.9685E3,7E0,5.9425E3,5E-1,5E-1,2.0661058E1,2.952E3,2.2137867E1,2.9356907E1,1.545E3,2E0,1.6E1,2.5E0,1.3907719E1,5E-1,1.198E3,4E0,1.874E3,1.874E3,1.9975E3,1.996E3,1.98E3,3.75E1,1.8881626E1,1.486243E1,1.05551605E1,1.1626708E1,1.4306175E1,1.2299652E1,1.1722437E0,-8.4554684E-1,1.0109292E1,1.4255736E1,1.5211912E1,1.2856976E1,1.253081E1,2.0594366E1,-4.3863216E-1,-2.5288222E0,1.1724087E1,1.591803E1],"split_indices":[0,0,0,0,0,3,0,6,6,0,0,0,0,0,6,3,6,0,6,0,3,0,0,0,0,0,3,0,0,0,0,0,0,0,0,0,0,0,0,0,0,0,0,0,0],"split_type":[0,0,0,0,0,0,0,0,0,0,0,0,0,0,0,0,0,0,0,0,0,0,0,0,0,0,0,0,0,0,0,0,0,0,0,0,0,0,0,0,0,0,0,0,0],"sum_hessian":[2.79E3,2.504E3,2.86E2,7.5E1,2.429E3,1.87E2,9.9E1,1.538E3,8.91E2,3.2E1,1.55E2,8.6E1,1.3E1,1.212E3,3.26E2,5.1E2,3.81E2,3.9E1,1.16E2,9.49E2,2.63E2,7.1E1,2.55E2,4.44E2,6.6E1,3.6E1,3.45E2,6.9E1,4.7E1,3.06E2,6.43E2,8E1,1.83E2,6.1E1,1E1,2.4E2,1.5E1,2.39E2,2.05E2,1E1,5.6E1,1.8E1,1.8E1,2.25E2,1.2E2],"tree_param":{"num_deleted":"0","num_feature":"7","num_nodes":"45","size_leaf_vector":"0"}},{"base_weights":[6.407349E1,7.007646E1,5.036362E1,6.175844E1,7.6603645E1,-3.1280644E-2,6.2814396E1,6.09494E1,7.99857E1,8.004781E1,6.1228504E1,4.036211E0,-1.4526447E0,5.89164E1,8.125751E1,6.3864357E1,5.807596E1,5.2540543E1,9.519035E1,7.5357925E1,1.1372122E2,5.313453E1,8.524884E1,5.3733187E0,1.7977865E0,-2.5065193E0,3.928776E0,6.5726616E1,5.0498394E1,6.1951862E1,7.779629E1,5.5329575E1,6.497291E1,7.7362595E1,5.4501762E1,7.43667E1,1.2100698E2,5.4998787E1,4.2842224E1,7.3925815E0,3.2548347E0,-6.4429283E-1,-1.7027475E1,6.057583E1,7.8586006E1,4.187984E1,6.499616E1,6.387428E1,4.131175E1,8.51808E1,5.3622883E1,8.081693E1,5.9904472E1,8.463714E1,6.682185E1,5.624541E1,3.9824345E1,-1.1316576E-1,-4.6759276E0,5.843191E1,7.127419E1,8.490747E1,5.897475E1],"categories":[],"categories_nodes":[],"categories_segments":[],"categories_sizes":[],"default_left":[true,true,true,true,true,true,true,true,true,true,true,true,true,true,false,true,true,false,false,true,true,true,false,true,false,true,false,true,true,true,true,false,true,true,false,false,false,true,false,false,false,true,false,true,true,false,false,false,false,false,false,false,false,false,false,false,false,false,false,false,false,false,false],"id":5,"left_children":[1,3,5,7,9,11,13,15,17,19,21,23,25,27,-1,29,31,-1,-1,33,35,37,-1,39,-1,41,-1,43,45,47,49,-1,51,53,-1,-1,-1,55,-1,-1,-1,57,-1,59,61,-1,-1,-1,-1,-1,-1,-1,-1,-1,-1,-1,-1,-1,-1,-1,-1,-1,-1],"loss_changes":[2.24671E5,9.9816E4,5.3209425E5,7.6675E3,5.20035E4,9.825209E2,4.4077E4,3.14025E3,8.746672E3,1.29585E5,3.45275E4,1.2093164E2,7.2421844E2,2.905375E4,0E0,5.736875E3,4.418E3,0E0,0E0,2.7999E4,2.1077625E4,5.6440625E2,0E0,8.980371E1,0E0,2.8526953E3,0E0,1.5685125E4,2.9373688E4,1.1391375E4,3.2654375E3,0E0,4.372125E3,4.8073E4,0E0,0E0,0E0,1.2884375E2,0E0,0E0,0E0,2.021601E2,0E0,9.76125E2,5.508125E3,0E0,0E0,0E0,0E0,0E0,0E0,0E0,0E0,0E0,0E0,0E0,0E0,0E0,0E0,0E0,0E0,0E0,0E0],"parents":[2147483647,0,0,1,1,2,2,3,3,4,4,5,5,6,6,7,7,8,8,9,9,10,10,11,11,12,12,13,13,15,15,16,16,19,19,20,20,21,21,23,23,25,25,27,27,28,28,29,29,30,30,32,32,33,33,37,37,41,41,43,43,44,44],"right_children":[2,4,6,8,10,12,14,16,18,20,22,24,26,28,-1,30,32,-1,-1,34,36,38,-1,40,-1,42,-1,44,46,48,50,-1,52,54,-1,-1,-1,56,-1,-1,-1,58,-1,60,62,-1,-1,-1,-1,-1,-1,-1,-1,-1,-1,-1,-1,-1,-1,-1,-1,-1,-1],"split_conditions":[5E-1,3.5E0,2.5E0,3.6E1,1.75E1,7.5E0,3.95E1,2.25E1,5E-1,1.6E1,1.95E1,4E0,3.75E1,2.8E1,1.3284732E1,1.65E1,5E-1,8.589815E0,1.5562603E1,1.3E1,1.85E1,5E-1,1.3937272E1,3.2E1,2.9391882E-1,3.15E1,6.4231277E-1,2.25E1,3.95E1,1.4E1,5E-1,9.045793E0,2.75E1,5E-1,8.910454E0,1.2158158E1,1.9783344E1,3.15E1,7.0042443E0,1.2086078E0,5.321306E-1,5E0,-2.7838097E0,5.5E0,5.5E0,6.846905E0,1.0626176E1,1.044276E1,6.7540283E0,1.3926148E1,8.766767E0,1.3212703E1,9.793739E0,1.3837265E1,1.0924657E1,9.195522E0,6.5108533E0,-1.8501388E-2,-7.644641E-1,9.552991E0,1.1652567E1,1.3881461E1,9.64174E0],"split_indices":[6,3,6,2,3,3,3,2,5,3,2,3,3,2,0,2,5,0,0,3,2,5,0,2,0,3,0,2,2,2,5,0,2,5,0,0,0,3,0,0,0,5,0,5,5,0,0,0,0,0,0,0,0,0,0,0,0,0,0,0,0,0,0],"split_type":[0,0,0,0,0,0,0,0,0,0,0,0,0,0,0,0,0,0,0,0,0,0,0,0,0,0,0,0,0,0,0,0,0,0,0,0,0,0,0,0,0,0,0,0,0,0,0,0,0,0,0,0,0,0,0,0,0,0,0,0,0,0,0],"sum_hessian":[2.772E3,1.925E3,8.47E2,8.51E2,1.074E3,1.68E2,6.79E2,8.19E2,3.2E1,8.74E2,2E2,4.3E1,1.25E2,5.64E2,1.15E2,3.96E2,4.23E2,1.3E1,1.9E1,7.7E2,1.04E2,1.52E2,4.8E1,2.6E1,1.7E1,1.05E2,2E1,3.08E2,2.56E2,3.53E2,4.3E1,3.09E2,1.14E2,7E2,7E1,1.8E1,8.6E1,1.25E2,2.7E1,1.2E1,1.4E1,9.4E1,1.1E1,2.24E2,8.4E1,1.63E2,9.3E1,3.21E2,3.2E1,3.1E1,1.2E1,2.4E1,9E1,4.1E2,2.9E2,1.13E2,1.2E1,8.4E1,1E1,1.92E2,3.2E1,6.1E1,2.3E1],"tree_param":{"num_deleted":"0","num_feature":"7","num_nodes":"63","size_leaf_vector":"0"}},{"base_weights":[5.3363823E1,4.617458E1,7.112362E1,-1.8535449E-1,4.785533E1,6.55877E1,1.03863785E2,3.9527443E1,5.199168E1,6.9385155E1,4.8765484E1,8.5018295E1,1.1277909E2,4.9036537E1,3.3920265E1,5.275843E1,2.0267141E1,6.0306614E1,8.042916E1,-1.749116E1,5.8800636E1,1.05851746E2,1.4720631E2,4.7008644E1,7.4099174E1,-3.054252E0,3.5142178E1,5.048532E1,6.262553E1,-1.187547E0,6.134801E1,5.3081676E1,7.8758064E1,8.742322E1,6.494656E1,6.5589035E1,4.4598534E1,4.9158833E1,3.9919277E1,4.0838093E1,3.02548E1,5.299659E1,4.399073E1,5.3676E1,6.511641E1,5.972239E1,4.752116E1,7.861296E1,9.437937E1],"categories":[],"categories_nodes":[],"categories_segments":[],"categories_sizes":[],"default_left":[true,true,true,false,true,true,true,true,true,true,true,false,true,true,true,true,true,true,true,false,true,false,false,true,false,false,true,true,true,false,false,true,false,true,false,false,false,false,false,false,false,false,false,false,false,false,false,false,false],"id":6,"left_children":[1,3,5,-1,7,9,11,13,15,17,19,-1,21,23,25,27,29,31,33,-1,35,-1,-1,37,-1,-1,39,41,43,-1,-1,45,-1,47,-1,-1,-1,-1,-1,-1,-1,-1,-1,-1,-1,-1,-1,-1,-1],"loss_changes":[3.55094E5,1.559335E5,1.3942825E5,0E0,6.4448E4,4.086825E4,9.702875E3,3.271475E4,3.02255E4,5.157625E4,8.813616E4,0E0,2.2658125E3,8.5435E3,1.8590688E4,2.499175E4,2.828616E4,3.7525375E4,2.1478625E4,0E0,8.048625E3,0E0,0E0,1.408E3,0E0,0E0,9.777406E3,1.43875E4,1.6360625E3,0E0,0E0,5.5645625E3,0E0,2.972625E3,0E0,0E0,0E0,0E0,0E0,0E0,0E0,0E0,0E0,0E0,0E0,0E0,0E0,0E0,0E0],"parents":[2147483647,0,0,1,1,2,2,4,4,5,5,6,6,7,7,8,8,9,9,10,10,12,12,13,13,14,14,15,15,16,16,17,17,18,18,20,20,23,23,26,26,27,27,28,28,31,31,33,33],"right_children":[2,4,6,-1,8,10,12,14,16,18,20,-1,22,24,26,28,30,32,34,-1,36,-1,-1,38,-1,-1,40,42,44,-1,-1,46,-1,48,-1,-1,-1,-1,-1,-1,-1,-1,-1,-1,-1,-1,-1,-1,-1],"split_conditions":[1.994E3,4.375E2,3.6275E3,-3.0303473E-2,1.18E2,5E-1,5.175E2,1.4E1,3.15E2,1.92E2,2.5E0,1.389958E1,5.965E3,1.5485E3,3.3E1,2.325E2,1.98E3,2.4E1,2.4E1,-2.859617E0,3.75E1,1.7305626E1,2.4066654E1,1.4235E3,1.2114421E1,-4.9933746E-1,1.3965E3,5E-1,1.96E3,-1.9415121E-1,1.0029742E1,2.25E1,1.28761E1,1.85E1,1.0618067E1,1.07231045E1,7.2913823E0,8.0369425E0,6.526374E0,6.6765904E0,4.946336E0,8.664374E0,7.192013E0,8.775451E0,1.0645835E1,9.76397E0,7.7692003E0,1.2852377E1,1.5430016E1],"split_indices":[0,0,0,0,1,6,1,2,1,1,6,0,0,0,1,1,0,2,2,0,2,0,0,0,0,0,0,6,0,0,0,2,0,2,0,0,0,0,0,0,0,0,0,0,0,0,0,0,0],"split_type":[0,0,0,0,0,0,0,0,0,0,0,0,0,0,0,0,0,0,0,0,0,0,0,0,0,0,0,0,0,0,0,0,0,0,0,0,0,0,0,0,0,0,0,0,0,0,0,0,0],"sum_hessian":[2.806E3,2E3,8.06E2,7E1,1.93E3,6.92E2,1.14E2,6.44E2,1.286E3,5.62E2,1.3E2,4E1,7.4E1,2.36E2,4.08E2,1.255E3,3.1E1,3.12E2,2.5E2,1.7E1,1.13E2,6.5E1,9E0,2.21E2,1.5E1,1.3E1,3.95E2,1.025E3,2.3E2,2.1E1,1E1,2.27E2,8.5E1,1.69E2,8.1E1,7.4E1,3.9E1,1.65E2,5.6E1,1.79E2,2.16E2,7.34E2,2.91E2,5.5E1,1.75E2,9.9E1,1.28E2,8E1,8.9E1],"tree_param":{"num_deleted":"0","num_feature":"7","num_nodes":"49","size_leaf_vector":"0"}},{"base_weights":[4.51806E1,4.3302246E1,9.327872E1,2.6839869E1,4.6339794E1,7.312924E1,9.853903E1,-1.5860429E0,3.1303709E1,4.2989273E1,5.5696674E1,-5.2405543E0,-1.5242985E-1,3.538184E1,2.2183361E1,4.5326485E1,3.5445614E1,6.9807846E1,4.682509E1,3.0918535E1,3.948658E1,2.411691E1,-1.2855056E-1,4.2107876E1,5.1114666E1,5.493965E-1,4.0414253E1,6.5537285E1,8.481219E1,5.226087E1,3.5471436E1,3.2366512E1,2.2405886E1,4.174087E1,3.137227E1,2.9844776E1,1.6242683E1,4.3947136E1,3.983973E1,5.7429817E1,4.790179E1,2.4631603E0,-7.3366227E0,3.7079445E1,4.7650314E1,7.748687E1,5.4758347E1,9.073744E1,5.769628E1,4.3538437E1,5.840993E1,4.0949356E1,2.1464005E0],"categories":[],"categories_nodes":[],"categories_segments":[],"categories_sizes":[],"default_left":[true,true,true,true,true,false,false,true,true,true,true,false,false,true,true,true,true,true,true,true,true,true,false,true,true,true,true,true,true,true,true,false,false,false,false,false,false,false,false,false,false,false,false,false,false,false,false,false,false,false,false,false,false],"id":7,"left_children":[1,3,5,7,9,-1,-1,11,13,15,17,-1,-1,19,21,23,25,27,29,31,33,35,-1,37,39,41,43,45,47,49,51,-1,-1,-1,-1,-1,-1,-1,-1,-1,-1,-1,-1,-1,-1,-1,-1,-1,-1,-1,-1,-1,-1],"loss_changes":[2.432155E5,1.30559E5,3.5788125E3,5.245925E4,6.73135E4,0E0,0E0,2.9700507E2,1.24845E4,2.73315E4,6.9698125E4,0E0,0E0,3.2569062E3,4.8817383E3,2.11205E4,6.811247E4,8.70775E3,2.041225E4,7.701797E2,9.474844E2,4.198824E3,0E0,1.61125E3,6.201E3,7.71922E2,6.521125E3,1.866375E4,2.13275E3,1.0420875E4,2.1811703E4,0E0,0E0,0E0,0E0,0E0,0E0,0E0,0E0,0E0,0E0,0E0,0E0,0E0,0E0,0E0,0E0,0E0,0E0,0E0,0E0,0E0,0E0],"parents":[2147483647,0,0,1,1,2,2,3,3,4,4,7,7,8,8,9,9,10,10,13,13,14,14,15,15,16,16,17,17,18,18,19,19,20,20,21,21,23,23,24,24,25,25,26,26,27,27,28,28,29,29,30,30],"right_children":[2,4,6,8,10,-1,-1,12,14,16,18,-1,-1,20,22,24,26,28,30,32,34,36,-1,38,40,42,44,46,48,50,52,-1,-1,-1,-1,-1,-1,-1,-1,-1,-1,-1,-1,-1,-1,-1,-1,-1,-1,-1,-1,-1,-1],"split_conditions":[4.725E2,9.85E1,5.175E2,3.3E1,2.315E2,1.1955848E1,1.6110075E1,1.15E1,5E-1,1.5E0,5E-1,-8.5677445E-1,-2.4920646E-2,8.7E1,1.5E0,1.615E2,3.5E0,1.35E1,3.025E2,8.45E1,5E-1,9.15E1,-2.1016639E-2,4.5E0,1.775E2,2.175E2,1.845E2,5.5E0,1.8E1,1.65E1,3.75E1,5.291578E0,3.6631222E0,6.824185E0,5.12903E0,4.879301E0,2.6555047E0,7.1848855E0,6.5133686E0,9.389159E0,7.8314295E0,4.027003E-1,-1.1994592E0,6.062092E0,7.7903156E0,1.2668273E1,8.952403E0,1.48345995E1,9.432724E0,7.1180677E0,9.549397E0,6.694781E0,3.5091347E-1],"split_indices":[1,1,1,1,1,0,0,3,4,5,5,0,0,1,4,1,5,3,1,1,5,1,0,3,1,1,1,3,3,3,3,0,0,0,0,0,0,0,0,0,0,0,0,0,0,0,0,0,0,0,0,0,0],"split_type":[0,0,0,0,0,0,0,0,0,0,0,0,0,0,0,0,0,0,0,0,0,0,0,0,0,0,0,0,0,0,0,0,0,0,0,0,0,0,0,0,0,0,0,0,0,0,0,0,0,0,0,0,0],"sum_hessian":[2.736E3,2.635E3,1.01E2,4.12E2,2.223E3,2.4E1,7.7E1,5.6E1,3.56E2,1.641E3,5.82E2,1.5E1,4.1E1,2.44E2,1.12E2,1.249E3,3.92E2,2.22E2,3.6E2,1.21E2,1.23E2,1.03E2,9E0,8.08E2,4.41E2,4.9E1,3.43E2,1.77E2,4.5E1,2.41E2,1.19E2,1.01E2,2E1,9.3E1,3E1,5.8E1,4.5E1,4.36E2,3.72E2,1.43E2,2.98E2,4E1,9E0,2.39E2,1.04E2,8.1E1,9.6E1,3.5E1,1E1,1.03E2,1.38E2,1.02E2,1.7E1],"tree_param":{"num_deleted":"0","num_feature":"7","num_nodes":"53","size_leaf_vector":"0"}},{"base_weights":[3.7596283E1,4.1275833E1,2.8952753E1,3.5539474E1,4.5601208E1,-3.4669197E0,3.6378487E1,3.9235992E1,3.31225E1,4.3593895E1,5.609702E1,-6.377074E0,-1.9017838E0,3.4028446E1,4.8138756E1,4.2408974E1,3.0736181E1,3.1777966E1,4.4978264E1,4.2493214E1,5.4747265E1,3.782179E1,6.857677E1,-3.5107214E0,-1.6727636E1,-1.9583914E-1,-6.9374056E0,3.915464E1,2.659619E1,3.7303123E1,4.6927826E1,1.5394955E1,3.3155754E1,3.2870922E1,2.561164E1,3.931172E1,5.2989887E1,4.434442E1,3.4639523E1,1.1464726E2,4.5131073E1,4.4614506E1,3.4413364E1,7.709946E1,5.955183E1,-2.5206332E0,-4.4661107E0,3.362333E0,-1.1439798E0,-1.7511742E1,9.5546655E-2,3.502658E1,4.7550144E1,2.1229628E1,3.6122875E1,3.949057E1,3.037926E1,2.5761507E1,3.484706E1,3.1611816E1,3.5675274E1,2.4550669E1,4.586731E1,3.3536777E1,4.632841E1,4.648845E1,3.1903978E1,6.546226E1,3.813893E1,3.6560734E1,2.1937723E1,8.2220184E1,5.7370354E1,-8.2450736E-1,-2.6435392E0,3.307982E1,4.399948E1,5.3814274E1,3.3250366E1,1.11852E1,2.3816168E1],"categories":[],"categories_nodes":[],"categories_segments":[],"categories_sizes":[],"default_left":[true,true,true,true,true,true,true,true,true,true,true,true,true,true,false,true,true,true,true,true,true,true,true,true,false,true,true,true,true,true,false,false,true,true,false,true,false,true,true,false,true,false,true,true,false,false,false,false,true,false,false,true,true,true,false,false,false,false,false,false,false,false,false,false,false,false,false,false,false,false,false,false,false,false,false,false,false,false,false,false,false],"id":8,"left_children":[1,3,5,7,9,11,13,15,17,19,21,23,25,27,-1,29,31,33,35,37,39,41,43,45,-1,47,49,51,53,55,-1,-1,57,59,-1,61,-1,63,65,-1,67,-1,69,71,-1,-1,-1,-1,73,-1,-1,75,77,79,-1,-1,-1,-1,-1,-1,-1,-1,-1,-1,-1,-1,-1,-1,-1,-1,-1,-1,-1,-1,-1,-1,-1,-1,-1,-1,-1],"loss_changes":[8.3648E4,4.47405E4,1.92723E5,5.9083125E3,1.991375E4,6.698191E2,1.6341E4,7.1537812E3,6.4494375E3,8.65825E3,3.5477688E4,1.4809216E3,8.48005E2,1.975075E4,0E0,3.4509062E3,2.7857188E3,2.1684375E3,8.182031E1,1.0373625E4,3.915408E4,7.3203125E1,2.9254375E3,2.739856E1,0E0,2.5652945E2,1.8635669E3,9.44675E3,1.07786875E4,4.7073438E2,0E0,0E0,4.34375E1,1.9309375E2,0E0,1.9596719E3,0E0,1.2586E4,3.7233438E3,0E0,7.1542188E3,0E0,5.552383E2,9.875E0,0E0,0E0,0E0,0E0,2.6032036E1,0E0,0E0,2.3581875E3,7.423578E3,3.547336E3,0E0,0E0,0E0,0E0,0E0,0E0,0E0,0E0,0E0,0E0,0E0,0E0,0E0,0E0,0E0,0E0,0E0,0E0,0E0,0E0,0E0,0E0,0E0,0E0,0E0,0E0,0E0],"parents":[2147483647,0,0,1,1,2,2,3,3,4,4,5,5,6,6,7,7,8,8,9,9,10,10,11,11,12,12,13,13,15,15,16,16,17,17,18,18,19,19,20,20,21,21,22,22,23,23,25,25,26,26,27,27,28,28,29,29,32,32,33,33,35,35,37,37,38,38,40,40,42,42,43,43,48,48,51,51,52,52,53,53],"right_children":[2,4,6,8,10,12,14,16,18,20,22,24,26,28,-1,30,32,34,36,38,40,42,44,46,-1,48,50,52,54,56,-1,-1,58,60,-1,62,-1,64,66,-1,68,-1,70,72,-1,-1,-1,-1,74,-1,-1,76,78,80,-1,-1,-1,-1,-1,-1,-1,-1,-1,-1,-1,-1,-1,-1,-1,-1,-1,-1,-1,-1,-1,-1,-1,-1,-1,-1,-1],"split_conditions":[1.5E0,5E-1,3.5E0,1.75E1,1.6E1,1.1E1,3.95E1,5E-1,3.4E1,3.15E1,1.85E1,7E0,3.1E1,2.8E1,7.8701706E0,1E0,1E0,1.1E1,5E-1,2.7E1,3.25E1,1.75E1,5E-1,3.05E1,-2.7347894E0,1.65E1,3.95E1,2.25E1,3.95E1,1.05E1,7.6721964E0,2.51691E0,8.5E0,5E-1,4.1872287E0,1.15E1,8.663279E0,3.5E0,4E0,1.8743599E1,5.5E0,7.2939935E0,5E-1,1.95E1,9.736086E0,-4.1209653E-1,-7.3016125E-1,5.4970545E-1,3.25E1,-2.862982E0,1.5620854E-2,5.5E0,5.5E0,4.5E0,5.905703E0,6.456285E0,4.9666834E0,4.2117305E0,5.697121E0,5.1681933E0,5.832525E0,4.013771E0,7.4988136E0,5.4829035E0,7.5741987E0,7.6003633E0,5.2159586E0,1.0702377E1,6.2353063E0,5.9772882E0,3.5865827E0,1.3442119E1,9.379438E0,-1.3479811E-1,-4.3219033E-1,5.408196E0,7.193444E0,8.798057E0,5.4360785E0,1.8286602E0,3.8936882E0],"split_indices":[5,4,5,2,3,3,3,5,2,2,2,3,3,2,0,3,3,3,5,2,2,2,5,2,0,2,2,2,2,2,0,0,2,5,0,3,0,3,3,0,3,0,5,2,0,0,0,0,2,0,0,5,5,3,0,0,0,0,0,0,0,0,0,0,0,0,0,0,0,0,0,0,0,0,0,0,0,0,0,0,0],"split_type":[0,0,0,0,0,0,0,0,0,0,0,0,0,0,0,0,0,0,0,0,0,0,0,0,0,0,0,0,0,0,0,0,0,0,0,0,0,0,0,0,0,0,0,0,0,0,0,0,0,0,0,0,0,0,0,0,0,0,0,0,0,0,0,0,0,0,0,0,0,0,0,0,0,0,0,0,0,0,0,0,0],"sum_hessian":[2.667E3,1.868E3,7.99E2,8.07E2,1.061E3,1.49E2,6.5E2,3.13E2,4.94E2,8.95E2,1.66E2,5.1E1,9.8E1,5.45E2,1.05E2,2.25E2,8.8E1,4.47E2,4.7E1,8.19E2,7.6E1,6.9E1,9.7E1,4.1E1,1E1,7.4E1,2.4E1,3.2E2,2.25E2,1.1E2,1.15E2,1.3E1,7.5E1,3.76E2,7.1E1,3.1E1,1.6E1,6.59E2,1.6E2,9E0,6.7E1,1.9E1,5E1,4.6E1,5.1E1,2.2E1,1.9E1,1.5E1,5.9E1,9E0,1.5E1,2.18E2,1.02E2,1.46E2,7.9E1,8E1,3E1,1.7E1,5.8E1,2.68E2,1.08E2,1.1E1,2E1,1.05E2,5.54E2,2.7E1,1.33E2,1.5E1,5.2E1,4.1E1,9E0,3.4E1,1.2E1,5E1,9E0,1.83E2,3.5E1,6.9E1,3.3E1,3.1E1,1.15E2],"tree_param":{"num_deleted":"0","num_feature":"7","num_nodes":"81","size_leaf_vector":"0"}},{"base_weights":[3.1234322E1,2.9596188E1,6.1903923E1,2.0585484E1,3.2886986E1,5.2387596E1,7.541011E1,-1.3529848E0,2.2418749E1,3.5779484E1,2.6686813E1,6.919218E1,9.707802E1,-4.76658E0,8.405044E-3,2.8845638E1,1.852041E1,3.255186E1,4.536354E1,-3.7218285E0,3.3071297E1,-5.3254038E-2,3.220846E-2,2.2272104E1,3.180328E1,2.4246218E0,1.9247362E1,3.169966E1,4.424173E1,3.245072E1,4.663647E1,-2.1817331E0,-1.5976328E1,2.6177578E1,3.754511E1,2.4540222E1,1.1656273E1,2.8690266E1,4.5729664E1,2.1064722E1,1.4284212E1,3.2490723E1,2.5867159E1,3.8372868E1,2.0376154E1,5.1922062E1,4.058548E1,2.3792162E0,-5.1125464E0,2.96386E1,1.7658558E1,3.5786694E1,4.50443E1],"categories":[],"categories_nodes":[],"categories_segments":[],"categories_sizes":[],"default_left":[true,true,true,true,true,false,true,true,true,true,true,false,false,false,true,true,true,true,true,true,true,true,true,true,true,false,true,true,false,true,true,true,false,true,true,false,false,false,false,false,false,false,false,false,false,false,false,false,false,false,false,false,false],"id":9,"left_children":[1,3,5,7,9,-1,11,13,15,17,19,-1,-1,-1,-1,23,25,27,29,31,33,-1,-1,35,37,-1,39,41,-1,43,45,47,-1,49,51,-1,-1,-1,-1,-1,-1,-1,-1,-1,-1,-1,-1,-1,-1,-1,-1,-1,-1],"loss_changes":[1.3877825E5,7.816075E4,1.41524375E4,2.8749938E4,3.3935E4,0E0,8.0228125E2,2.6101566E2,1.5969219E4,3.9467625E4,1.2107897E5,0E0,0E0,0E0,5.8659807E-2,4.0855938E3,4.7824688E3,8.48825E3,3.915125E3,2.0195238E3,1.48905625E4,0E0,0E0,1.6346289E3,5.959875E3,0E0,3.2565156E3,3.4415E3,0E0,1.568832E3,7.4415E3,1.322578E3,0E0,5.543172E3,2.4635E3,0E0,0E0,0E0,0E0,0E0,0E0,0E0,0E0,0E0,0E0,0E0,0E0,0E0,0E0,0E0,0E0,0E0,0E0],"parents":[2147483647,0,0,1,1,2,2,3,3,4,4,6,6,7,7,8,8,9,9,10,10,14,14,15,15,16,16,17,17,18,18,19,19,20,20,23,23,24,24,26,26,27,27,29,29,30,30,31,31,33,33,34,34],"right_children":[2,4,6,8,10,-1,12,14,16,18,20,-1,-1,-1,-1,24,26,28,30,32,34,-1,-1,36,38,-1,40,42,-1,44,46,48,-1,50,52,-1,-1,-1,-1,-1,-1,-1,-1,-1,-1,-1,-1,-1,-1,-1,-1,-1,-1],"split_conditions":[4.12E2,1.165E2,5.535E2,3.3E1,5E-1,8.564811E0,2.85E1,1.5E0,1.4E1,1.985E2,3E0,1.131218E1,1.5871216E1,-7.792848E-1,1.3741346E-3,8.75E1,1.55E1,3.4E1,4.5E0,4E0,1.845E2,-8.706464E-3,5.2657383E-3,8.55E1,1.1E1,3.9639968E-1,1.5E0,1.855E2,7.2330484E0,1.5E0,2.35E1,2.175E2,-2.6119583E0,3.8E1,2.995E2,4.0120635E0,1.9056756E0,4.690551E0,7.47631E0,3.4438562E0,2.3353155E0,5.311885E0,4.2290034E0,6.2735524E0,3.3312829E0,8.488701E0,6.635291E0,3.8897634E-1,-8.3584654E-1,4.8455935E0,2.886985E0,5.850741E0,7.36426E0],"split_indices":[1,1,1,1,6,0,2,6,2,1,6,0,0,0,2,1,2,2,2,5,1,2147483647,2147483647,1,2,0,5,1,0,2,2,1,0,2,1,0,0,0,0,0,0,0,0,0,0,0,0,0,0,0,0,0,0],"split_type":[0,0,0,0,0,0,0,0,0,0,0,0,0,0,0,0,0,0,0,0,0,0,0,0,0,0,0,0,0,0,0,0,0,0,0,0,0,0,0,0,0,0,0,0,0,0,0,0,0,0,0,0,0],"sum_hessian":[2.798E3,2.658E3,1.4E2,7.13E2,1.945E3,8.5E1,5.5E1,5.5E1,6.58E2,1.323E3,6.22E2,4.6E1,9E0,1.5E1,4E1,2.46E2,4.12E2,9.93E2,3.3E2,1.08E2,5.14E2,9E0,3.1E1,7.9E1,1.67E2,1.8E1,3.94E2,9.29E2,6.4E1,3.2E1,2.98E2,9.7E1,1.1E1,2.05E2,3.09E2,6.4E1,1.5E1,1.39E2,2.8E1,2.86E2,1.08E2,8.14E2,1.15E2,2E1,1.2E1,1.55E2,1.43E2,3.8E1,5.9E1,1.44E2,6.1E1,2.55E2,5.4E1],"tree_param":{"num_deleted":"2","num_feature":"7","num_nodes":"53","size_leaf_vector":"0"}},{"base_weights":[2.588729E1,2.458711E1,4.9801033E1,1.8679026E1,2.7489525E1,4.1687805E1,5.777619E1,-1.591081E-1,2.017225E1,3.017205E1,2.1747356E1,6.525919E1,5.090277E1,4.439761E0,-9.9516463E-1,2.5886726E1,1.6803133E1,2.783227E1,3.9098255E1,-2.7194278E0,2.5916857E1,-4.729105E0,4.231089E-2,2.6577566E1,3.6628277E0,6.5075004E-1,1.7505198E1,2.6651098E1,3.954987E1,4.3681076E1,3.0528116E1,-4.5472555E0,4.527779E0,7.373577E0,2.7281195E1,-0E0,5.5210423E-2,2.8785397E1,2.3178879E1,9.277856E0,1.8011074E1,2.9324358E1,2.452009E1,4.707734E1,3.5155617E1,1.869888E1,4.6600822E1,2.3227983E1,3.9958527E1,-2.1493711E0,-9.947245E0,2.1330328E1,-1.1716763E1,2.5044657E1,3.3589684E1],"categories":[],"categories_nodes":[],"categories_segments":[],"categories_sizes":[],"default_left":[true,true,true,true,true,false,true,true,true,true,true,false,false,false,true,true,true,true,true,true,true,false,true,true,false,false,true,true,true,true,true,true,false,true,true,true,true,false,false,false,false,false,false,false,false,false,false,false,false,false,false,false,false,false,false],"id":10,"left_children":[1,3,5,7,9,-1,11,13,15,17,19,-1,-1,-1,21,23,25,27,29,31,33,-1,-1,37,-1,-1,39,41,43,45,47,49,-1,51,53,-1,-1,-1,-1,-1,-1,-1,-1,-1,-1,-1,-1,-1,-1,-1,-1,-1,-1,-1,-1],"loss_changes":[8.3770125E4,4.397775E4,6.6347812E3,2.41415E4,2.6107125E4,0E0,1.5778125E2,2.49964E2,1.4864375E4,2.3588E4,5.689597E4,0E0,0E0,0E0,2.1398257E2,4.3964688E3,5.6898594E3,1.1945875E4,8.199031E3,1.1068168E3,1.1835969E4,0E0,2.4869166E-2,1.455875E3,0E0,0E0,1.8347969E3,4.1548125E3,1.1108594E3,1.0497469E4,5.1203516E3,8.313667E2,0E0,9.310329E3,5.400125E3,0E0,0E0,0E0,0E0,0E0,0E0,0E0,0E0,0E0,0E0,0E0,0E0,0E0,0E0,0E0,0E0,0E0,0E0,0E0,0E0],"parents":[2147483647,0,0,1,1,2,2,3,3,4,4,6,6,7,7,8,8,9,9,10,10,14,14,15,15,16,16,17,17,18,18,19,19,20,20,22,22,23,23,26,26,27,27,28,28,29,29,30,30,31,31,33,33,34,34],"right_children":[2,4,6,8,10,-1,12,14,16,18,20,-1,-1,-1,22,24,26,28,30,32,34,-1,-1,38,-1,-1,40,42,44,46,48,50,-1,52,54,-1,-1,-1,-1,-1,-1,-1,-1,-1,-1,-1,-1,-1,-1,-1,-1,-1,-1,-1,-1],"split_conditions":[4.185E2,1.255E2,5.175E2,6.65E1,1.5E0,6.8155093E0,6.06E2,7.5E0,1.4E1,2.28E2,4E0,1.0669179E1,8.322058E0,7.258534E-1,1.45E1,1.55E1,1.55E1,3.4E1,5E-1,3.75E1,4E0,-7.7315795E-1,6.917377E-3,5E-1,5.988331E-1,1.06390655E-1,7.35E1,2.25E1,7E0,4.5E0,1.35E1,3.025E2,7.402434E-1,2.55E1,3.95E1,-0E0,9.026312E-3,4.706104E0,3.7894983E0,1.51683E0,2.9446175E0,4.794218E0,4.008772E0,7.6966405E0,5.7475667E0,3.0570664E0,7.618735E0,3.7975264E0,6.5327907E0,-3.5139915E-1,-1.6262679E0,3.48728E0,-1.9155651E0,4.094533E0,5.4915533E0],"split_indices":[1,1,1,1,5,0,1,3,2,1,5,0,0,0,3,3,2,2,5,3,3,0,2,5,0,0,1,2,3,2,3,1,0,2,3,2147483647,2147483647,0,0,0,0,0,0,0,0,0,0,0,0,0,0,0,0,0,0],"split_type":[0,0,0,0,0,0,0,0,0,0,0,0,0,0,0,0,0,0,0,0,0,0,0,0,0,0,0,0,0,0,0,0,0,0,0,0,0,0,0,0,0,0,0,0,0,0,0,0,0,0,0,0,0,0,0],"sum_hessian":[2.733E3,2.594E3,1.39E2,8.57E2,1.737E3,7.2E1,6.7E1,6.3E1,7.94E2,1.181E3,5.56E2,2.8E1,3.9E1,9E0,5.4E1,2.92E2,5.02E2,9.39E2,2.42E2,8.1E1,4.75E2,1.1E1,4.3E1,2.83E2,9E0,2.1E1,4.81E2,8.56E2,8.3E1,1.55E2,8.7E1,6.5E1,1.6E1,3.3E1,4.42E2,1E1,3.3E1,1.67E2,1.16E2,2.9E1,4.52E2,3.74E2,4.82E2,2.7E1,5.6E1,1.7E1,1.38E2,5.1E1,3.6E1,4.6E1,1.9E1,1.9E1,1.4E1,3.3E2,1.12E2],"tree_param":{"num_deleted":"2","num_feature":"7","num_nodes":"55","size_leaf_vector":"0"}},{"base_weights":[2.2249926E1,2.4709702E1,1.6404648E1,2.0474396E1,2.7786991E1,-4.230277E0,2.2220053E1,1.989162E1,2.8740868E1,2.6277225E1,3.5039352E1,-6.373351E0,-1.0143466E0,2.0215538E1,3.0786652E1,2.2011549E1,1.8416594E1,2.7118109E1,1.7064531E1,2.2225977E1,4.5103104E1,-7.792477E0,7.5087583E-1,-1.8543055E0,-3.960149E-1,2.2650272E1,1.5395498E1,1.8381578E1,2.3923944E1,1.6191685E1,1.9843536E1,3.0264572E1,2.5592548E1,1.9441835E1,1.5484436E-1,2.466545E1,1.709727E1,4.6782192E1,2.9480705E1,-4.1234994E0,-1.25747795E1,-2.7286804E0,-1.3006886E0,5.4254178E-2,-1.9477075E0,1.7589413E1,2.4467646E1,1.0016633E1,2.2890238E1,2.7085154E1,1.6425163E1,2.0629667E1,2.6568247E1,1.7592344E1,1.3882097E1,2.9157972E1,1.8550615E1,2.7529408E1,7.908314E1,2.4424812E1,3.3292545E1,1.714982E1,2.7537655E1,2.0673548E1,2.8782324E1,1.0115225E-2,-8.759693E0,-6.416824E0,-1.5760421E1,1.9672548E1,1.189669E1,2.1745129E1,2.8193436E1,7.419027E0,1.6652603E1],"categories":[],"categories_nodes":[],"categories_segments":[],"categories_sizes":[],"default_left":[true,true,true,true,true,true,true,true,false,true,true,true,true,true,false,true,true,true,true,true,true,true,false,true,true,true,true,true,true,true,true,true,true,true,false,true,false,false,false,true,true,false,false,false,false,true,true,true,false,false,false,false,false,false,false,false,false,false,false,false,false,false,false,false,false,false,false,false,false,false,false,false,false,false,false],"id":11,"left_children":[1,3,5,7,9,11,13,15,-1,17,19,21,23,25,-1,27,29,31,33,35,37,39,-1,41,43,45,47,49,51,53,55,57,59,61,-1,63,-1,-1,-1,65,67,-1,-1,-1,-1,69,71,73,-1,-1,-1,-1,-1,-1,-1,-1,-1,-1,-1,-1,-1,-1,-1,-1,-1,-1,-1,-1,-1,-1,-1,-1,-1,-1,-1],"loss_changes":[3.944425E4,2.48255E4,9.897714E4,3.3904375E3,1.13988125E4,1.246741E3,1.04113125E4,2.0055312E3,0E0,6.7815E3,2.3616766E4,1.1089414E3,3.7353806E1,5.7948594E3,0E0,1.7196406E3,1.1399219E3,3.3258125E3,3.2501348E3,6.4785156E2,1.3896406E3,1.5422852E3,0E0,1.0838356E1,3.1138247E1,2.7455E3,6.9817266E3,1.4555586E3,1.1955781E3,3.5264844E2,2.7876406E3,3.439289E4,4.4200625E3,8.3833203E2,0E0,3.176875E2,0E0,0E0,0E0,1.01713654E3,6.6052783E2,0E0,0E0,0E0,0E0,8.8769336E2,1.9354375E3,1.6999482E3,0E0,0E0,0E0,0E0,0E0,0E0,0E0,0E0,0E0,0E0,0E0,0E0,0E0,0E0,0E0,0E0,0E0,0E0,0E0,0E0,0E0,0E0,0E0,0E0,0E0,0E0,0E0],"parents":[2147483647,0,0,1,1,2,2,3,3,4,4,5,5,6,6,7,7,9,9,10,10,11,11,12,12,13,13,15,15,16,16,17,17,18,18,19,19,20,20,21,21,23,23,24,24,25,25,26,26,27,27,28,28,29,29,30,30,31,31,32,32,33,33,35,35,39,39,40,40,45,45,46,46,47,47],"right_children":[2,4,6,8,10,12,14,16,-1,18,20,22,24,26,-1,28,30,32,34,36,38,40,-1,42,44,46,48,50,52,54,56,58,60,62,-1,64,-1,-1,-1,66,68,-1,-1,-1,-1,70,72,74,-1,-1,-1,-1,-1,-1,-1,-1,-1,-1,-1,-1,-1,-1,-1,-1,-1,-1,-1,-1,-1,-1,-1,-1,-1,-1,-1],"split_conditions":[5E-1,5E-1,2.5E0,3.4E1,1.6E1,1.5E0,3.95E1,1.75E1,4.698824E0,1.05E1,1.85E1,3.95E1,2.55E1,3.8E1,5.0332875E0,1E0,2.4E1,2.25E1,3.75E1,2.05E1,3E1,7.5E0,1.2276015E-1,1.65E1,3.25E1,4E0,3.95E1,4E0,1.1E1,2.2E1,2.75E1,2.15E1,3.15E1,2.3E1,2.5315393E-2,1.75E1,2.7952201E0,7.648387E0,4.8197794E0,3.05E1,1.95E1,-4.4610998E-1,-2.1264865E-1,8.869977E-3,-3.1842932E-1,2.45E1,2.25E1,2.4E1,3.7423086E0,4.4281325E0,2.6853383E0,3.3727295E0,4.3436236E0,2.8761597E0,2.2695742E0,4.767016E0,3.0328267E0,4.500763E0,1.2929245E1,3.993195E0,5.4429746E0,2.8038118E0,4.5021114E0,3.3799036E0,4.7056017E0,1.6537309E-3,-1.4321159E0,-1.0490819E0,-2.57666E0,3.216251E0,1.9449813E0,3.5550954E0,4.6093245E0,1.2129314E0,2.722522E0],"split_indices":[6,4,6,2,3,6,3,2,0,3,2,2,2,2,0,3,2,2,2,3,3,3,0,2,2,3,2,2,2,2,2,2,2,2,0,3,0,0,0,2,2,0,0,0,0,2,2,3,0,0,0,0,0,0,0,0,0,0,0,0,0,0,0,0,0,0,0,0,0,0,0,0,0,0,0],"split_type":[0,0,0,0,0,0,0,0,0,0,0,0,0,0,0,0,0,0,0,0,0,0,0,0,0,0,0,0,0,0,0,0,0,0,0,0,0,0,0,0,0,0,0,0,0,0,0,0,0,0,0,0,0,0,0,0,0,0,0,0,0,0,0,0,0,0,0,0,0,0,0,0,0,0,0],"sum_hessian":[2.771E3,1.948E3,8.23E2,8.23E2,1.125E3,1.81E2,6.42E2,7.72E2,5.1E1,9.35E2,1.9E2,1.08E2,7.3E1,5.23E2,1.19E2,3.11E2,4.61E2,8.55E2,8E1,8.5E1,1.05E2,9E1,1.8E1,3E1,4.3E1,3.45E2,1.78E2,1.11E2,2E2,1.85E2,2.76E2,2.73E2,5.82E2,7E1,1E1,5.5E1,3E1,9.3E1,1.2E1,5.2E1,3.8E1,1E1,2E1,3.4E1,9E0,9.4E1,2.51E2,1.05E2,7.3E1,1.8E1,9.3E1,9.3E1,1.07E2,1.11E2,7.4E1,3.1E1,2.45E2,2.6E2,1.3E1,5.09E2,7.3E1,5.7E1,1.3E1,3.1E1,2.4E1,2.8E1,2.4E1,1.4E1,2.4E1,6.7E1,2.7E1,1.49E2,1.02E2,7.7E1,2.8E1],"tree_param":{"num_deleted":"0","num_feature":"7","num_nodes":"75","size_leaf_vector":"0"}},{"base_weights":[1.8255774E1,1.6397825E1,3.331192E1,-8.055041E-1,1.6883749E1,3.0513212E1,5.0736847E1,-1.5305443E0,-3.1657282E-1,1.5636915E1,2.1995861E1,2.8447355E1,3.6183533E1,4.1975117E1,7.000607E1,-3.3641765E-1,-2.3208852E0,-1.4438305E0,7.601729E-2,1.4870249E1,2.0304115E1,2.852904E1,1.803576E1,3.1532192E1,2.0561264E1,3.954114E1,2.0877087E1,1.5427921E1,5.7038417E0,1.4053843E1,2.2285759E1,2.5581495E1,3.710983E1,1.9757086E1,1.1744529E1,3.4891884E1,2.6922953E1,5.982008E0,2.6456673E1,2.3948105E1,1.501497E1,8.822551E0,-1.1715123E1,2.037004E1,2.6216867E0,2.3713459E1,4.598486E1,4.1515415E1,2.5322308E1,1.685777E1,3.9755383E1,-1.25499525E1,1.6928654E1,2.9584389E1,5.6651478E1,3.8057617E1,2.4359562E1],"categories":[],"categories_nodes":[],"categories_segments":[],"categories_sizes":[],"default_left":[true,true,true,true,true,true,true,true,true,true,true,true,true,false,false,false,false,false,false,true,true,true,true,true,true,false,false,true,true,true,false,true,true,true,true,true,true,false,false,false,false,false,false,false,false,false,false,false,false,false,false,false,false,false,false,false,false],"id":12,"left_children":[1,3,5,7,9,11,13,15,17,19,21,23,25,-1,-1,-1,-1,-1,-1,27,29,31,33,35,37,-1,-1,39,41,43,-1,45,47,49,51,53,55,-1,-1,-1,-1,-1,-1,-1,-1,-1,-1,-1,-1,-1,-1,-1,-1,-1,-1,-1,-1],"loss_changes":[7.6093625E4,2.0421625E4,1.30695625E4,2.3337543E1,1.47820625E4,2.018125E3,3.7975625E3,2.4292965E1,1.8906857E1,6.5341562E3,1.14570625E4,4.1118125E3,2.5571562E3,0E0,0E0,0E0,0E0,0E0,0E0,8.322875E3,2.9882344E3,3.4166094E3,2.9144375E3,1.203625E3,4.8218945E3,0E0,0E0,5.0915E3,5.3180825E3,4.7809854E3,0E0,3.9299297E3,1.1195703E3,1.2482891E4,8.399592E3,7.203414E3,8.6152734E2,0E0,0E0,0E0,0E0,0E0,0E0,0E0,0E0,0E0,0E0,0E0,0E0,0E0,0E0,0E0,0E0,0E0,0E0,0E0,0E0],"parents":[2147483647,0,0,1,1,2,2,3,3,4,4,5,5,6,6,7,7,8,8,9,9,10,10,11,11,12,12,19,19,20,20,21,21,22,22,23,23,24,24,27,27,28,28,29,29,31,31,32,32,33,33,34,34,35,35,36,36],"right_children":[2,4,6,8,10,12,14,16,18,20,22,24,26,-1,-1,-1,-1,-1,-1,28,30,32,34,36,38,-1,-1,40,42,44,-1,46,48,50,52,54,56,-1,-1,-1,-1,-1,-1,-1,-1,-1,-1,-1,-1,-1,-1,-1,-1,-1,-1,-1,-1],"split_conditions":[2.4875E3,4.375E2,4.677E3,1.5E0,1.994E3,3.827E3,2.1E1,2.4E1,2.85E1,3.95E1,1.9975E3,2.997E3,3.986E3,6.8624816E0,1.1445243E1,-5.5000678E-2,-3.7943986E-1,-2.3605081E-1,1.2428013E-2,3.8E1,2.5E0,3.05E1,5E-1,2.4E1,2.5E0,6.464553E0,3.4131799E0,7.5E0,1.8925E3,5E-1,3.6434827E0,2.5E0,3.75E1,2.4E1,4.5E0,2.1E1,2.84E3,9.779942E-1,4.325382E0,3.9152584E0,2.4547865E0,1.4423925E0,-1.915297E0,3.3302834E0,4.286177E-1,3.8768964E0,7.5180316E0,6.7873254E0,4.139926E0,2.756065E0,6.499579E0,-2.0517826E0,2.7676535E0,4.8367305E0,9.2619095E0,6.2220125E0,3.9825273E0],"split_indices":[0,0,0,4,0,0,2,2,2,2,0,0,0,0,0,0,0,0,0,2,6,2,6,2,6,0,0,2,0,6,0,6,2,2,6,2,0,0,0,0,0,0,0,0,0,0,0,0,0,0,0,0,0,0,0,0,0],"split_type":[0,0,0,0,0,0,0,0,0,0,0,0,0,0,0,0,0,0,0,0,0,0,0,0,0,0,0,0,0,0,0,0,0,0,0,0,0,0,0,0,0,0,0,0,0,0,0,0,0,0,0,0,0,0,0,0,0],"sum_hessian":[2.739E3,2.44E3,2.99E2,6.7E1,2.373E3,2.6E2,3.9E1,2.6E1,4.1E1,1.911E3,4.62E2,1.95E2,6.5E1,2.9E1,1E1,1.1E1,1.5E1,1E1,3.1E1,1.645E3,2.66E2,1.72E2,2.9E2,1.38E2,5.7E1,5.2E1,1.3E1,1.55E3,9.5E1,6.6E1,2E2,1.31E2,4.1E1,2.26E2,6.4E1,7.6E1,6.2E1,1.7E1,4E1,6.9E1,1.481E3,8.1E1,1.4E1,4.2E1,2.4E1,1.22E2,9E0,2.8E1,1.3E1,1.99E2,2.7E1,1.1E1,5.3E1,6.3E1,1.3E1,9E0,5.3E1],"tree_param":{"num_deleted":"0","num_feature":"7","num_nodes":"57","size_leaf_vector":"0"}},{"base_weights":[1.5780381E1,1.2533731E1,2.3955364E1,-5.055788E-1,1.3026384E1,2.2200317E1,4.9272392E1,-1.8434067E0,-1.5428184E-1,1.4709297E1,1.1329657E1,2.857935E1,2.0230108E1,5.8998547E1,3.7180157E1,-5.748081E-1,7.217483E-2,1.2174555E1,1.8573002E1,7.49365E0,1.3519893E1,3.2816082E1,2.539009E1,8.277873E0,2.2971949E1,4.1778487E-1,-1.3668619E0,1.729955E1,1.1435453E1,2.8172604E1,1.5541435E1,8.359061E0,-5.1293755E0,2.1528387E1,1.2697174E1,3.320041E1,1.590861E1,5.299034E0,1.0893377E1,2.6104E1,1.4105077E1,1.5828033E1,2.2149185E1,9.134464E0,1.3154933E1,3.29383E1,7.536142E0,3.8687468E0,1.872588E1,7.0993357E0,1.2424039E1,-1.1054559E1,3.663467E0,3.6517532E1,1.3245262E1,1.0181715E1,1.6071451E1,2.8790678E1,4.5220753E1,1.2064147E1,2.772929E1,9.14337E0,2.6753819E1,-2.6817566E1,2.0093962E1],"categories":[],"categories_nodes":[],"categories_segments":[],"categories_sizes":[],"default_left":[true,true,true,true,true,true,true,false,true,true,true,true,true,false,false,true,false,true,true,true,true,false,true,true,true,false,false,true,true,true,true,true,true,true,true,true,true,false,false,true,true,false,false,false,false,false,false,false,false,false,false,false,false,false,false,false,false,false,false,false,false,false,false,false,false],"id":13,"left_children":[1,3,5,7,9,11,13,-1,15,17,19,21,23,-1,-1,25,-1,27,29,31,33,-1,35,37,39,-1,-1,41,43,45,47,49,51,53,55,57,59,-1,-1,61,63,-1,-1,-1,-1,-1,-1,-1,-1,-1,-1,-1,-1,-1,-1,-1,-1,-1,-1,-1,-1,-1,-1,-1,-1],"loss_changes":[7.300131E4,1.27213125E4,3.3730344E4,3.3717068E1,5.2746562E3,8.6518125E3,3.6722031E3,0E0,5.7372804E0,9.112156E3,7.910742E3,1.4684219E3,1.8320734E4,0E0,0E0,1.7226688E1,0E0,1.9909531E3,1.0497727E4,3.8558848E3,3.7141719E3,0E0,7.0177344E3,7.7344434E2,1.237275E4,0E0,0E0,1.5026953E2,1.8902734E3,8.498453E3,1.0629344E4,1.5832871E3,1.2399143E3,6.3373086E3,4.517633E3,1.6020586E3,1.8406807E3,0E0,0E0,3.4750938E3,3.0437723E4,0E0,0E0,0E0,0E0,0E0,0E0,0E0,0E0,0E0,0E0,0E0,0E0,0E0,0E0,0E0,0E0,0E0,0E0,0E0,0E0,0E0,0E0,0E0,0E0],"parents":[2147483647,0,0,1,1,2,2,3,3,4,4,5,5,6,6,8,8,9,9,10,10,11,11,12,12,15,15,17,17,18,18,19,19,20,20,22,22,23,23,24,24,27,27,28,28,29,29,30,30,31,31,32,32,33,33,34,34,35,35,36,36,39,39,40,40],"right_children":[2,4,6,8,10,12,14,-1,16,18,20,22,24,-1,-1,26,-1,28,30,32,34,-1,36,38,40,-1,-1,42,44,46,48,50,52,54,56,58,60,-1,-1,62,64,-1,-1,-1,-1,-1,-1,-1,-1,-1,-1,-1,-1,-1,-1,-1,-1,-1,-1,-1,-1,-1,-1,-1,-1],"split_conditions":[1.994E3,4.375E2,4.1815E3,1.65E1,5E-1,1.9975E3,9.5E0,-3.0137724E-1,2.55E1,1.3605E3,5.5E0,5E-1,1.9985E3,9.64563E0,6.078557E0,1.9E1,1.1799811E-2,9.93E2,1.25E1,3.2E1,7.5E0,5.3650775E0,4E0,2.5E0,1.5E0,6.830335E-2,-2.2346728E-1,2.5E0,1.1405E3,1.698E3,1.55E1,3E0,1.447E3,3E1,3.95E1,2.5E0,3.05E1,8.663353E-1,1.7809504E0,2E0,3.5E0,2.5877137E0,3.6211543E0,1.493387E0,2.1506906E0,5.3850594E0,1.2320784E0,6.324986E-1,3.0614805E0,1.1606653E0,2.0311973E0,-1.8073019E0,5.989376E-1,5.9702253E0,2.1654584E0,1.6646013E0,2.62751E0,4.7069674E0,7.3931084E0,1.9723587E0,4.5334415E0,1.4948429E0,4.3739624E0,-4.3843846E0,3.2851474E0],"split_indices":[0,0,0,2,5,0,3,0,2,0,3,5,0,0,0,2,0,0,2,2,3,0,3,3,5,0,0,3,0,0,2,5,0,2,2,3,2,0,0,2,5,0,0,0,0,0,0,0,0,0,0,0,0,0,0,0,0,0,0,0,0,0,0,0,0],"split_type":[0,0,0,0,0,0,0,0,0,0,0,0,0,0,0,0,0,0,0,0,0,0,0,0,0,0,0,0,0,0,0,0,0,0,0,0,0,0,0,0,0,0,0,0,0,0,0,0,0,0,0,0,0,0,0,0,0,0,0,0,0,0,0,0,0],"sum_hessian":[2.761E3,1.978E3,7.83E2,7.2E1,1.906E3,7.34E2,4.9E1,1.4E1,5.8E1,9.53E2,9.53E2,1.7E2,5.64E2,2.5E1,2.4E1,2E1,3.8E1,5.78E2,3.75E2,3.48E2,6.05E2,6.9E1,1.01E2,1.06E2,4.58E2,9E0,1.1E1,7E1,5.08E2,8.8E1,2.87E2,3.26E2,2.2E1,5.4E1,5.51E2,5.4E1,4.7E1,5.1E1,5.5E1,3.37E2,1.21E2,5.7E1,1.3E1,2.2E2,2.88E2,7.1E1,1.7E1,6.2E1,2.25E2,2.51E2,7.5E1,1.3E1,9E0,1.8E1,3.6E1,3.18E2,2.33E2,4.2E1,1.2E1,3.7E1,1E1,1.3E1,3.24E2,1.5E1,1.06E2],"tree_param":{"num_deleted":"0","num_feature":"7","num_nodes":"65","size_leaf_vector":"0"}},{"base_weights":[1.2816282E1,1.225408E1,3.4452454E1,7.650664E0,1.389738E1,4.042898E1,2.7680664E1,1.01154175E1,4.1305776E0,1.2624208E1,1.697213E1,3.514209E1,2.1928745E1,1.1181739E1,2.6584725E0,-1.9569576E0,5.1976213E0,1.2996991E1,2.9575675E0,2.0844011E1,1.2114875E1,1.0194826E1,2.4896301E1,-9.825879E0,2.789495E-1,1.380706E-2,6.808303E0,1.3737398E1,1.122444E1,5.7446766E0,1.4001739E0,2.790822E1,1.8518784E1,-7.5963244E0,1.5930492E1,5.48387E0,1.2121749E1,-3.84811E0,5.3664503E0,1.1893691E1,5.4000497E0,1.2955642E1,1.776999E1,1.0119258E1,1.7226377E1,-4.656116E0,5.032409E0,4.5672844E1,2.2951145E1,1.5696935E1,2.3869518E1,-1.5473198E1,-4.043124E0,1.82379E1,3.690294E0],"categories":[],"categories_nodes":[],"categories_segments":[],"categories_sizes":[],"default_left":[true,true,true,true,true,false,true,true,true,true,true,false,false,true,false,true,true,true,true,true,true,true,false,false,false,true,true,true,true,false,true,true,true,true,true,false,false,false,false,false,false,false,false,false,false,false,false,false,false,false,false,false,false,false,false],"id":14,"left_children":[1,3,5,7,9,-1,11,13,15,17,19,-1,-1,21,-1,23,25,27,29,31,33,35,-1,-1,-1,37,39,41,43,-1,45,47,49,51,53,-1,-1,-1,-1,-1,-1,-1,-1,-1,-1,-1,-1,-1,-1,-1,-1,-1,-1,-1,-1],"loss_changes":[3.345925E4,2.0443906E4,1.7034688E3,6.176824E3,7.6144688E3,0E0,7.656465E2,3.3157305E3,1.9398818E3,5.072547E3,1.0706719E4,0E0,0E0,4.721707E3,0E0,7.959446E2,2.111276E3,1.6347344E3,2.252533E2,4.7816094E3,1.9752203E4,3.0626133E3,0E0,0E0,0E0,1.2818431E3,1.315291E3,2.7883125E3,2.5278398E3,0E0,8.154126E2,5.8099414E3,3.3336016E3,1.1379324E3,6.114578E3,0E0,0E0,0E0,0E0,0E0,0E0,0E0,0E0,0E0,0E0,0E0,0E0,0E0,0E0,0E0,0E0,0E0,0E0,0E0,0E0],"parents":[2147483647,0,0,1,1,2,2,3,3,4,4,6,6,7,7,8,8,9,9,10,10,13,13,15,15,16,16,17,17,18,18,19,19,20,20,21,21,25,25,26,26,27,27,28,28,30,30,31,31,32,32,33,33,34,34],"right_children":[2,4,6,8,10,-1,12,14,16,18,20,-1,-1,22,-1,24,26,28,30,32,34,36,-1,-1,-1,38,40,42,44,-1,46,48,50,52,54,-1,-1,-1,-1,-1,-1,-1,-1,-1,-1,-1,-1,-1,-1,-1,-1,-1,-1,-1,-1],"split_conditions":[5.175E2,1.175E2,6.07E2,2.5E0,2.295E2,6.609705E0,9.5E0,1.145E2,3.35E1,2.14E2,1.5E0,5.745355E0,3.5851147E0,1.105E2,4.3463176E-1,1.15E1,4E0,1.05E1,5.5E0,5.5E0,4E0,8.7E1,4.0702786E0,-1.6064259E0,4.5605253E-2,3.5E0,9E0,6.5E0,1.935E2,9.3919307E-1,2.5E0,2.75E2,1.35E1,1.65E1,5.5E0,8.96554E-1,1.981776E0,-6.2912476E-1,8.773571E-1,1.944491E0,8.828502E-1,2.1181085E0,2.905203E0,1.6543902E0,2.816328E0,-7.6122504E-1,8.2274497E-1,7.4670205E0,3.7522662E0,2.5662806E0,3.9024105E0,-2.529702E0,-6.6100746E-1,2.9817011E0,6.033235E-1],"split_indices":[1,1,1,3,1,0,3,1,1,1,5,0,0,1,0,3,3,3,3,3,5,1,0,0,0,5,3,3,1,0,5,1,3,3,5,0,0,0,0,0,0,0,0,0,0,0,0,0,0,0,0,0,0,0,0],"split_type":[0,0,0,0,0,0,0,0,0,0,0,0,0,0,0,0,0,0,0,0,0,0,0,0,0,0,0,0,0,0,0,0,0,0,0,0,0,0,0,0,0,0,0,0,0,0,0,0,0,0,0,0,0,0,0],"sum_hessian":[2.785E3,2.716E3,6.9E1,7.16E2,2E3,3.4E1,3.5E1,4.2E2,2.96E2,1.418E3,5.82E2,1.3E1,2.2E1,3.67E2,5.3E1,4.4E1,2.52E2,1.365E3,5.3E1,3.22E2,2.6E2,3.44E2,2.3E1,9E0,3.5E1,6E1,1.92E2,9.58E2,4.07E2,1.8E1,3.5E1,7.7E1,2.45E2,4.2E1,2.18E2,1.01E2,2.43E2,3.5E1,2.5E1,4E1,1.52E2,8.06E2,1.52E2,3.46E2,6.1E1,1.3E1,2.2E1,1.5E1,6.2E1,1.63E2,8.2E1,1.2E1,3E1,1.83E2,3.5E1],"tree_param":{"num_deleted":"0","num_feature":"7","num_nodes":"55","size_leaf_vector":"0"}},{"base_weights":[1.0873438E1,1.0368195E1,2.9199947E1,5.5522227E0,1.1268025E1,1.6951878E1,3.283137E1,8.65738E0,1.689576E0,1.0392767E1,1.3898362E1,2.5859327E1,6.3338895E0,3.9042786E1,2.4156809E1,9.741264E0,-5.9333377E0,-1.6032915E0,6.0351105E0,1.0752703E1,3.0016434E0,1.6822834E1,9.737124E0,8.290462E0,2.3156334E1,9.1724837E-1,-3.116522E0,-5.8767657E0,8.333464E0,1.1536739E1,8.714017E0,5.1214486E-1,1.1677906E1,3.5747416E0,1.770826E1,-5.335796E0,1.3415249E1,8.84269E0,-1.1312405E0,-1.7530799E0,2.8093357E0,-7.911792E0,-9.9467087E-1,1.3824183E1,6.3085585E0,1.1282367E1,1.9065098E1,4.4750013E0,9.946303E0,-5.533569E0,2.645864E0,2.1074144E1,1.4335839E1,-1.2993677E1,-1.6885976E0,1.4628283E1,5.5446463E0],"categories":[],"categories_nodes":[],"categories_segments":[],"categories_sizes":[],"default_left":[true,true,true,true,true,true,true,true,true,true,true,false,false,false,false,true,false,true,true,true,true,true,true,true,false,true,true,false,true,true,true,true,false,false,true,true,true,false,false,false,false,false,false,false,false,false,false,false,false,false,false,false,false,false,false,false,false],"id":15,"left_children":[1,3,5,7,9,11,13,15,17,19,21,-1,-1,-1,-1,23,-1,25,27,29,31,33,35,37,-1,39,41,-1,43,45,47,49,-1,-1,51,53,55,-1,-1,-1,-1,-1,-1,-1,-1,-1,-1,-1,-1,-1,-1,-1,-1,-1,-1,-1,-1],"loss_changes":[2.5422906E4,1.16614375E4,2.7271719E3,5.1172705E3,5.098625E3,1.628272E3,2.0645E3,3.8064531E3,2.7577363E3,4.5254062E3,6.720008E3,0E0,0E0,0E0,0E0,4.1044336E3,0E0,4.2275363E2,2.3216995E3,2.5081406E3,1.7417107E3,3.816125E3,1.315668E4,1.0569775E3,0E0,2.1729192E2,6.928276E2,0E0,6.879717E2,2.0342188E3,2.3457227E3,8.3978845E2,0E0,0E0,3.2113047E3,1.2885061E3,1.7297812E3,0E0,0E0,0E0,0E0,0E0,0E0,0E0,0E0,0E0,0E0,0E0,0E0,0E0,0E0,0E0,0E0,0E0,0E0,0E0,0E0],"parents":[2147483647,0,0,1,1,2,2,3,3,4,4,5,5,6,6,7,7,8,8,9,9,10,10,15,15,17,17,18,18,19,19,20,20,21,21,22,22,23,23,25,25,26,26,28,28,29,29,30,30,31,31,34,34,35,35,36,36],"right_children":[2,4,6,8,10,12,14,16,18,20,22,-1,-1,-1,-1,24,-1,26,28,30,32,34,36,38,-1,40,42,-1,44,46,48,50,-1,-1,52,54,56,-1,-1,-1,-1,-1,-1,-1,-1,-1,-1,-1,-1,-1,-1,-1,-1,-1,-1,-1,-1],"split_conditions":[5.175E2,9.85E1,1.8E1,5E-1,2.315E2,7.5E0,6.06E2,9.65E1,3.5E0,2.01E2,1.5E0,4.2277226E0,1.035523E0,6.383077E0,3.9493794E0,9.4E1,-9.700371E-1,1.5E0,7.05E1,1.05E1,3.6E1,2.5E0,4E0,3.6E1,3.7858124E0,2E1,1.15E1,-9.607882E-1,1.05E1,5.5E0,1.45E1,2.07E2,1.9092125E0,5.8443195E-1,2.35E1,1.65E1,5.5E0,1.4456851E0,-1.849457E-1,-2.8660977E-1,4.592963E-1,-1.2934932E0,-1.6261803E-1,2.2601058E0,1.0313817E0,1.8445461E0,3.116939E0,7.3161477E-1,1.626114E0,-9.046792E-1,4.325704E-1,3.4453967E0,2.343756E0,-2.124327E0,-2.760676E-1,2.3915675E0,9.0649027E-1],"split_indices":[1,1,2,5,1,2,1,1,5,1,5,0,0,0,0,1,0,5,1,3,2,2,5,2,0,2,3,0,2,5,3,1,0,0,2,3,5,0,0,0,0,0,0,0,0,0,0,0,0,0,0,0,0,0,0,0,0],"split_type":[0,0,0,0,0,0,0,0,0,0,0,0,0,0,0,0,0,0,0,0,0,0,0,0,0,0,0,0,0,0,0,0,0,0,0,0,0,0,0,0,0,0,0,0,0,0,0,0,0,0,0,0,0,0,0,0,0],"sum_hessian":[2.778E3,2.705E3,7.3E1,4.27E2,2.278E3,1.8E1,5.5E1,2.36E2,1.91E2,1.713E3,5.65E2,9E0,9E0,3E1,2.5E1,2.2E2,1.6E1,1.09E2,8.2E1,1.633E3,8E1,3.3E2,2.35E2,2E2,2E1,4.1E1,6.8E1,1.3E1,6.9E1,1.176E3,4.57E2,6.3E1,1.7E1,2.1E1,3.09E2,4.6E1,1.89E2,1.89E2,1.1E1,1.7E1,2.4E1,2E1,4.8E1,1.7E1,5.2E1,1.14E3,3.6E1,1.04E2,3.53E2,1.6E1,4.7E1,1.52E2,1.57E2,1.4E1,3.2E1,1.63E2,2.6E1],"tree_param":{"num_deleted":"0","num_feature":"7","num_nodes":"57","size_leaf_vector":"0"}},{"base_weights":[9.457401E0,7.256228E0,1.5103591E1,-9.7972083E-1,7.5334735E0,1.4483756E1,4.0461212E1,-2.2613075E0,-2.380621E-1,7.100023E0,1.2169987E1,1.9288197E1,1.2972697E1,7.2533407E0,-5.41845E0,1.8998293E0,1.3746677E1,2.319954E1,1.6401457E1,3.4872541E0,1.4838873E1,1.2410904E1,7.0502295E0,-2.6121697E0,-7.526542E0,1.6123732E1,1.2721626E1,2.6475843E1,2.049638E1,1.2717484E1,2.0343765E1,1.9464021E0,5.4550385E0,1.6721941E1,8.617188E0,1.0847759E1,1.731941E1,6.1568074E0,8.437799E0,1.4306352E1,9.460252E0,1.35451145E1,1.9758312E1,-7.8657846E0,1.0615392E1],"categories":[],"categories_nodes":[],"categories_segments":[],"categories_sizes":[],"default_left":[true,true,true,true,true,true,false,false,false,true,true,true,true,true,true,false,true,true,true,true,true,true,true,false,false,false,false,false,false,true,false,false,false,true,true,false,false,false,false,false,false,false,false,false,false],"id":16,"left_children":[1,3,5,7,9,11,-1,-1,-1,13,15,17,19,21,23,-1,25,27,29,31,33,35,37,-1,-1,-1,-1,-1,-1,39,-1,-1,-1,41,43,-1,-1,-1,-1,-1,-1,-1,-1,-1,-1],"loss_changes":[3.4400188E4,4.5751484E3,1.1633781E4,6.1810955E1,3.7994062E3,5.2695312E3,0E0,0E0,0E0,3.4405938E3,2.6271113E3,1.6457969E3,1.0247719E4,1.7437891E3,1.0893262E2,0E0,1.3645117E2,1.0550391E2,1.2902031E3,2.823562E2,5.545914E3,3.065254E2,2.0371562E3,0E0,0E0,0E0,0E0,0E0,0E0,1.6117773E2,0E0,0E0,0E0,3.3155781E3,3.8715996E3,0E0,0E0,0E0,0E0,0E0,0E0,0E0,0E0,0E0,0E0],"parents":[2147483647,0,0,1,1,2,2,3,3,4,4,5,5,9,9,10,10,11,11,12,12,13,13,14,14,16,16,17,17,18,18,19,19,20,20,21,21,22,22,29,29,33,33,34,34],"right_children":[2,4,6,8,10,12,-1,-1,-1,14,16,18,20,22,24,-1,26,28,30,32,34,36,38,-1,-1,-1,-1,-1,-1,40,-1,-1,-1,42,44,-1,-1,-1,-1,-1,-1,-1,-1,-1,-1],"split_conditions":[1.994E3,4.375E2,5.9425E3,1.5E0,3.7E1,1.9975E3,6.6149745E0,-3.6969954E-1,-3.89206E-2,3.35E1,2.5E0,4E0,1.9985E3,9.97E2,1.8925E3,3.106017E-1,4.5E0,1.9955E3,5.5E0,2.5E0,5E-1,2.5E0,1.585E3,-4.2706177E-1,-1.2305089E0,2.6360574E0,2.0798495E0,4.3285165E0,3.3509383E0,1.996E3,3.3259876E0,3.1821588E-1,8.9184034E-1,2.952E3,2.5E0,1.7734923E0,2.831538E0,1.006572E0,1.3794898E0,2.3389351E0,1.5466498E0,2.214481E0,3.2302723E0,-1.2859715E0,1.7355027E0],"split_indices":[0,0,0,4,3,0,0,0,0,3,6,3,0,0,0,0,6,0,3,3,6,3,0,0,0,0,0,0,0,0,0,0,0,0,6,0,0,0,0,0,0,0,0,0,0],"split_type":[0,0,0,0,0,0,0,0,0,0,0,0,0,0,0,0,0,0,0,0,0,0,0,0,0,0,0,0,0,0,0,0,0,0,0,0,0,0,0,0,0,0,0,0,0],"sum_hessian":[2.776E3,1.999E3,7.77E2,6.5E1,1.934E3,7.6E2,1.7E1,2.3E1,4.2E1,1.771E3,1.63E2,1.79E2,5.81E2,1.75E3,2.1E1,2.2E1,1.41E2,7.3E1,1.06E2,9.6E1,4.85E2,6.4E1,1.686E3,1E1,1.1E1,3.8E1,1.03E2,2.9E1,4.4E1,5.7E1,4.9E1,5.5E1,4.1E1,3.71E2,1.14E2,5.1E1,1.3E1,1.029E3,6.57E2,3.6E1,2.1E1,1.84E2,1.87E2,1.2E1,1.02E2],"tree_param":{"num_deleted":"0","num_feature":"7","num_nodes":"45","size_leaf_vector":"0"}},{"base_weights":[8.084843E0,9.518579E0,6.778108E0,1.1517702E1,7.5719953E0,5.4619856E0,8.343014E0,1.0784461E1,4.8429237E1,6.3658457E0,1.1905538E1,7.768023E0,-3.7517805E0,1.0427536E1,6.561784E0,1.5962303E1,9.685303E0,3.505874E0,8.151925E0,1.4587571E1,6.569042E0,3.9546666E0,9.782787E0,-9.507217E0,-1.8652389E0,1.1911223E1,4.88384E0,2.6859944E0,9.810661E0,1.0597536E1,2.8200006E1,8.775863E0,1.6054005E1,5.0317127E-1,5.3558636E0,2.1452103E1,7.6450152E0,1.3467714E1,1.777845E1,1.2123044E1,-7.913015E-1,6.53932E0,-1.6068577E0,7.489058E0,1.1939206E1,-4.3896213E-1,-4.2505116E0,8.212967E0,1.5352707E1,-3.921635E0,6.39883E0,-1.3703514E0,3.7839444E0,8.055988E0,1.0933673E1,1.3134797E1,8.749261E0,1.8813253E1,3.536674E1,1.1416215E1,7.066002E0,1.7610107E1,7.083009E0,7.3969203E-1,-8.2683015E-1,9.021955E0,1.0891149E0,3.3666892E0,8.391281E0,9.190413E0,1.4388249E1,-7.1879897E0,7.588171E0,1.2936221E0,1.278124E1,4.6199265E-1,-3.2140634E0,9.904278E0,6.91612E-1,1.7702856E1,9.559827E0,3.58807E0,-1.0447936E0,-9.782476E0,-1.8655245E0,1.2261251E1,6.6857314E0,1.9960014E1,8.360358E0,1.096243E1,2.418137E0,1.1738155E1,8.311547E0],"categories":[],"categories_nodes":[],"categories_segments":[],"categories_sizes":[],"default_left":[true,true,true,true,true,true,true,true,false,true,true,true,true,true,true,true,true,true,true,true,true,true,true,false,true,true,true,true,true,true,true,true,true,true,true,false,true,false,false,true,true,true,true,true,true,true,true,true,true,false,false,false,true,false,true,false,false,false,false,false,false,false,false,false,false,false,false,false,false,false,false,false,false,false,false,false,false,false,false,false,false,false,false,false,false,false,false,false,false,false,false,false,false],"id":17,"left_children":[1,3,5,7,9,11,13,15,-1,17,19,21,23,25,27,29,31,33,35,37,39,41,43,-1,45,47,49,51,53,55,57,59,61,63,65,-1,67,-1,-1,69,71,73,75,77,79,81,83,85,87,-1,-1,-1,89,-1,91,-1,-1,-1,-1,-1,-1,-1,-1,-1,-1,-1,-1,-1,-1,-1,-1,-1,-1,-1,-1,-1,-1,-1,-1,-1,-1,-1,-1,-1,-1,-1,-1,-1,-1,-1,-1,-1,-1],"loss_changes":[4.9839688E3,4.9026016E3,2.8645977E3,1.654668E4,3.3345742E3,1.6411424E4,2.3201484E3,3.3700469E3,0E0,2.5901035E3,1.9190098E3,4.699621E3,1.6634907E3,2.3656543E3,4.378918E3,6.720004E3,2.8323633E3,1.1018442E3,1.9552578E3,8.808789E1,2.0144214E3,3.1018062E3,1.9009414E3,0E0,3.9885724E2,2.8230703E3,8.792472E2,7.2259595E2,2.834004E2,2.3812695E2,1.4790352E3,1.9571094E3,7.5094336E2,2.4820337E1,1.9126233E3,0E0,9.437383E2,0E0,0E0,5.015039E1,1.2337014E3,4.7945596E3,2.3133708E2,3.2421533E3,2.6516445E3,1.8633604E2,5.604836E2,6.199419E2,3.6624707E3,0E0,0E0,0E0,1.2165995E3,0E0,1.3772754E2,0E0,0E0,0E0,0E0,0E0,0E0,0E0,0E0,0E0,0E0,0E0,0E0,0E0,0E0,0E0,0E0,0E0,0E0,0E0,0E0,0E0,0E0,0E0,0E0,0E0,0E0,0E0,0E0,0E0,0E0,0E0,0E0,0E0,0E0,0E0,0E0,0E0,0E0],"parents":[2147483647,0,0,1,1,2,2,3,3,4,4,5,5,6,6,7,7,9,9,10,10,11,11,12,12,13,13,14,14,15,15,16,16,17,17,18,18,19,19,20,20,21,21,22,22,24,24,25,25,26,26,27,27,28,28,29,29,30,30,31,31,32,32,33,33,34,34,36,36,39,39,40,40,41,41,42,42,43,43,44,44,45,45,46,46,47,47,48,48,52,52,54,54],"right_children":[2,4,6,8,10,12,14,16,-1,18,20,22,24,26,28,30,32,34,36,38,40,42,44,-1,46,48,50,52,54,56,58,60,62,64,66,-1,68,-1,-1,70,72,74,76,78,80,82,84,86,88,-1,-1,-1,90,-1,92,-1,-1,-1,-1,-1,-1,-1,-1,-1,-1,-1,-1,-1,-1,-1,-1,-1,-1,-1,-1,-1,-1,-1,-1,-1,-1,-1,-1,-1,-1,-1,-1,-1,-1,-1,-1,-1,-1],"split_conditions":[5E-1,2.25E1,3.5E0,2.15E1,7.5E0,1.5E0,2.8E1,7.5E0,7.917661E0,2.55E1,1.2E1,1.85E1,1.25E1,2.65E1,3.95E1,5.5E0,1.85E1,2.5E0,2.75E1,3.4E1,3.75E1,1.35E1,5.5E0,-1.5543282E0,1.65E1,1.7E1,1.9E1,4.5E0,2.45E1,3.5E0,4.5E0,1.25E1,1.95E1,2.4E1,5.5E0,3.5071888E0,1E0,2.201827E0,2.906586E0,3.3E1,1.8E1,1.25E1,1.75E1,4E0,6.5E0,1.5E1,1.95E1,1.05E1,5.5E0,-6.411453E-1,1.0461401E0,-2.2403777E-1,3.8E1,1.3170677E0,5.5E0,2.1473985E0,1.4304104E0,3.0757654E0,5.782083E0,1.8664287E0,1.1552156E0,2.8790638E0,1.157996E0,1.2093172E-1,-1.3517787E-1,1.4749929E0,1.7805861E-1,5.504176E-1,1.3718846E0,1.5025342E0,2.3523245E0,-1.1751593E0,1.2405846E0,2.1149336E-1,2.0895958E0,7.553085E-2,-5.254649E-1,1.6192433E0,1.1307115E-1,2.8942273E0,1.5629293E0,5.86611E-1,-1.7081256E-1,-1.5993301E0,-3.0499327E-1,2.0045831E0,1.0930455E0,3.2632484E0,1.3668289E0,1.7922398E0,3.953395E-1,1.9190626E0,1.3588489E0],"split_indices":[5,2,5,2,3,5,2,2,0,2,3,2,3,3,2,2,2,3,2,2,2,2,3,0,3,2,2,3,3,3,3,2,2,2,3,0,3,0,0,2,3,2,2,3,3,3,2,2,5,0,0,0,2,0,5,0,0,0,0,0,0,0,0,0,0,0,0,0,0,0,0,0,0,0,0,0,0,0,0,0,0,0,0,0,0,0,0,0,0,0,0,0,0],"split_type":[0,0,0,0,0,0,0,0,0,0,0,0,0,0,0,0,0,0,0,0,0,0,0,0,0,0,0,0,0,0,0,0,0,0,0,0,0,0,0,0,0,0,0,0,0,0,0,0,0,0,0,0,0,0,0,0,0,0,0,0,0,0,0,0,0,0,0,0,0,0,0,0,0,0,0,0,0,0,0,0,0,0,0,0,0,0,0,0,0,0,0,0,0],"sum_hessian":[2.695E3,1.282E3,1.413E3,6.3E2,6.52E2,7.7E2,6.43E2,6.19E2,1.1E1,5.12E2,1.4E2,6.16E2,1.54E2,2.94E2,3.49E2,1.06E2,5.13E2,1.98E2,3.14E2,9.2E1,4.8E1,2.14E2,4.02E2,3.7E1,1.17E2,2.31E2,6.3E1,1.6E2,1.89E2,7.5E1,3.1E1,4.51E2,6.2E1,7.6E1,1.22E2,1E1,3.04E2,7.2E1,2E1,2.7E1,2.1E1,1.46E2,6.8E1,1.97E2,2.05E2,7.4E1,4.3E1,1.13E2,1.18E2,9E0,5.4E1,3.4E1,1.26E2,7.7E1,1.12E2,2.9E1,4.6E1,1.5E1,1.6E1,1.75E2,2.76E2,5.2E1,1E1,6.5E1,1.1E1,6.5E1,5.7E1,4.6E1,2.58E2,1.4E1,1.3E1,1.2E1,9E0,8E1,6.6E1,3E1,3.8E1,1.45E2,5.2E1,5.8E1,1.47E2,9E0,6.5E1,1.2E1,3.1E1,2.9E1,8.4E1,7E1,4.8E1,1.9E1,1.07E2,8.3E1,2.9E1],"tree_param":{"num_deleted":"0","num_feature":"7","num_nodes":"93","size_leaf_vector":"0"}},{"base_weights":[6.13873E0,4.8136E0,9.586963E0,3.3777118E0,6.0108967E0,8.859747E0,2.3474922E1,5.7364545E0,1.9729154E0,2.695192E0,6.861724E0,1.8856382E1,7.6330743E0,3.506251E1,1.3973562E1,6.291081E0,-4.3721156E0,3.4845035E0,1.6014181E-1,1.2565268E1,1.6498176E0,7.7131333E0,3.41506E0,5.3015297E1,1.3051117E1,2.190622E0,9.255577E0,8.325145E0,1.72318E1,4.35791E0,8.878184E0,6.2158644E-1,4.572274E0,1.0967634E1,-4.1101274E-1,3.7036297E0,-3.1220484E0,8.222616E0,-8.756199E0,-1.1218133E1,6.6091557E0,1.820588E0,2.2978973E1,-1.1205858E1,5.2485266E0,4.7512264E0,1.0035665E1,5.765159E0,2.5352502E0,1.3630216E1,5.9207096E0,1.2104496E0,-2.482347E0,1.1064741E1,3.3855915E0,-2.2011163E0,4.3049583E0,-1.3700707E0,1.0781037E1,-7.635257E-2,-4.602147E0,7.610457E0,2.0070131E1,-1.5664524E1,-2.2567844E0,-1.4898681E1,-4.9641285E0,5.0640087E0,1.2396705E1,7.856471E-1,2.6308625E0,-1.4913004E1,-4.106947E0,1.348576E1,1.6417859E0,3.2035918E0,1.447514E1,1.32672205E1,8.140707E0],"categories":[],"categories_nodes":[],"categories_segments":[],"categories_sizes":[],"default_left":[true,true,true,true,true,true,true,true,true,true,true,true,true,false,true,true,false,true,true,false,true,true,true,false,true,true,true,false,false,true,true,true,true,false,true,true,true,true,true,true,true,true,false,true,true,true,true,false,false,false,false,false,false,false,false,false,false,false,false,false,false,false,false,false,false,false,false,false,false,false,false,false,false,false,false,false,false,false,false],"id":18,"left_children":[1,3,5,7,9,11,13,15,17,19,21,23,25,-1,27,29,-1,31,33,-1,35,37,39,-1,41,43,45,-1,-1,47,49,51,53,-1,55,57,59,61,63,65,67,69,-1,71,73,75,77,-1,-1,-1,-1,-1,-1,-1,-1,-1,-1,-1,-1,-1,-1,-1,-1,-1,-1,-1,-1,-1,-1,-1,-1,-1,-1,-1,-1,-1,-1,-1,-1],"loss_changes":[1.2412273E4,3.3684922E3,7.4223047E3,2.9663828E3,3.0098867E3,8.681078E3,3.5761445E3,1.9059717E3,1.5470767E3,2.2573489E3,2.4780352E3,1.4765467E4,5.6559062E3,0E0,2.575044E2,1.5496953E3,0E0,9.555337E2,1.5986978E3,0E0,1.9815562E3,5.811246E3,8.0659434E3,0E0,7.5360215E3,6.1617075E3,1.6893789E3,0E0,0E0,4.560581E2,1.8135898E3,1.5999959E2,1.6784238E3,0E0,2.0859036E3,5.079335E3,2.7391412E2,4.658711E3,9.047987E2,6.365547E2,1.1954507E3,2.5081894E1,0E0,6.727009E2,3.6001035E3,1.0795931E3,2.4667695E3,0E0,0E0,0E0,0E0,0E0,0E0,0E0,0E0,0E0,0E0,0E0,0E0,0E0,0E0,0E0,0E0,0E0,0E0,0E0,0E0,0E0,0E0,0E0,0E0,0E0,0E0,0E0,0E0,0E0,0E0,0E0,0E0],"parents":[2147483647,0,0,1,1,2,2,3,3,4,4,5,5,6,6,7,7,8,8,9,9,10,10,11,11,12,12,14,14,15,15,17,17,18,18,20,20,21,21,22,22,24,24,25,25,26,26,29,29,30,30,31,31,32,32,34,34,35,35,36,36,37,37,38,38,39,39,40,40,41,41,43,43,44,44,45,45,46,46],"right_children":[2,4,6,8,10,12,14,16,18,20,22,24,26,-1,28,30,-1,32,34,-1,36,38,40,-1,42,44,46,-1,-1,48,50,52,54,-1,56,58,60,62,64,66,68,70,-1,72,74,76,78,-1,-1,-1,-1,-1,-1,-1,-1,-1,-1,-1,-1,-1,-1,-1,-1,-1,-1,-1,-1,-1,-1,-1,-1,-1,-1,-1,-1,-1,-1,-1,-1],"split_conditions":[1.994E3,1.315E2,4.677E3,1.4E1,1.343E3,1.495E2,7.5E0,1.305E2,1.417E3,1.25E1,1.9855E3,1.996E3,1.75E1,5.7323446E0,4.945E2,1.2205E3,-7.1479404E-1,8.25E1,1E0,2.0542865E0,1.3325E3,3.03E2,1.989E3,8.667433E0,2.4E1,1.685E2,2.5E0,1.361072E0,2.8172147E0,9.5E0,1.4235E3,3.35E1,9E1,1.7930907E0,3.4E1,2.7E1,4.5E0,2.96E2,3.65E2,2.4E1,2.685E2,2.5E0,3.756816E0,3.5E0,7.5E0,1.93E2,2.11E2,9.425417E-1,4.1448623E-1,2.2283943E0,9.679726E-1,1.9789553E-1,-4.0583712E-1,1.8089666E0,5.535079E-1,-3.5985893E-1,7.0381457E-1,-2.2399187E-1,1.7625841E0,-1.2482827E-2,-7.524017E-1,1.2442281E0,3.2812514E0,-2.5609818E0,-3.6896008E-1,-2.4357746E0,-8.115818E-1,8.2791114E-1,2.0267284E0,1.2844488E-1,4.3011782E-1,-2.4381163E0,-6.714418E-1,2.2047772E0,2.6841438E-1,5.237529E-1,2.3665302E0,2.1690483E0,1.3309183E0],"split_indices":[0,1,0,2,0,1,3,1,0,2,0,0,2,0,1,0,0,1,3,0,0,1,0,0,2,1,3,0,0,2,0,2,1,0,2,2,3,1,1,3,1,3,0,3,2,1,1,0,0,0,0,0,0,0,0,0,0,0,0,0,0,0,0,0,0,0,0,0,0,0,0,0,0,0,0,0,0,0,0],"split_type":[0,0,0,0,0,0,0,0,0,0,0,0,0,0,0,0,0,0,0,0,0,0,0,0,0,0,0,0,0,0,0,0,0,0,0,0,0,0,0,0,0,0,0,0,0,0,0,0,0,0,0,0,0,0,0,0,0,0,0,0,0,0,0,0,0,0,0,0,0,0,0,0,0,0,0,0,0,0,0],"sum_hessian":[2.726E3,1.971E3,7.55E2,8.98E2,1.073E3,7.19E2,3.6E1,3.34E2,5.64E2,2.2E2,8.53E2,7.7E1,6.42E2,1.5E1,2.1E1,3.17E2,1.7E1,3.07E2,2.57E2,2E1,2E2,6.83E2,1.7E2,1E1,6.7E1,1.48E2,4.94E2,9E0,1.2E1,1.83E2,1.34E2,8.5E1,2.22E2,1.2E1,2.45E2,1.4E2,6E1,6.63E2,2E1,3E1,1.4E2,3.2E1,3.5E1,2.7E1,1.21E2,7.4E1,4.2E2,1.02E2,8.1E1,5E1,8.4E1,7.2E1,1.3E1,3.3E1,1.89E2,1.78E2,6.7E1,8.2E1,5.8E1,2E1,4E1,6.32E2,3.1E1,9E0,1.1E1,1.8E1,1.2E1,1.12E2,2.8E1,1.5E1,1.7E1,1.7E1,1E1,3.6E1,8.5E1,6.5E1,9E0,1.53E2,2.67E2],"tree_param":{"num_deleted":"0","num_feature":"7","num_nodes":"79","size_leaf_vector":"0"}},{"base_weights":[5.457594E0,5.085416E0,1.681964E1,5.1742373E0,-1.6357065E1,8.827761E0,1.9816751E1,3.2310328E0,6.094871E0,5.2941575E0,1.3583398E1,2.1934372E1,1.3530883E1,6.3071265E0,1.8592314E0,7.0118265E0,4.059539E0,1.6000628E1,2.766399E1,4.3222556E0,1.1001478E1,7.3072857E-1,2.870519E0,4.857426E0,8.51862E0,-4.897567E0,5.684963E0,6.0059066E0,1.4513043E0,1.7811592E1,5.357317E0,-4.684407E0,2.100278E0,1.1977503E1,2.2592108E0,6.727049E0,3.2254522E0,1.2984696E1,7.565288E0,-1.0167522E1,-2.654944E0,1.841573E0,6.866924E0],"categories":[],"categories_nodes":[],"categories_segments":[],"categories_sizes":[],"default_left":[true,true,true,true,false,true,true,true,true,false,false,true,false,true,true,true,true,false,false,true,true,true,true,true,true,true,true,false,false,false,false,false,false,false,false,false,false,false,false,false,false,false,false],"id":19,"left_children":[1,3,5,7,-1,9,11,13,15,-1,-1,17,-1,19,21,23,25,-1,-1,27,29,31,33,35,37,39,41,-1,-1,-1,-1,-1,-1,-1,-1,-1,-1,-1,-1,-1,-1,-1,-1],"loss_changes":[1.1303234E4,5.053789E3,1.8566309E3,4.6302266E3,0E0,3.453025E2,5.0974023E2,3.523204E3,3.2601367E3,0E0,0E0,1.0465723E3,0E0,2.3540586E3,6.604104E2,3.897496E3,8.0354688E3,0E0,0E0,8.7470215E2,2.8222627E3,2.0563396E3,1.6743093E3,1.5084639E3,2.9343203E3,9.756117E2,2.1029326E3,0E0,0E0,0E0,0E0,0E0,0E0,0E0,0E0,0E0,0E0,0E0,0E0,0E0,0E0,0E0,0E0],"parents":[2147483647,0,0,1,1,2,2,3,3,5,5,6,6,7,7,8,8,11,11,13,13,14,14,15,15,16,16,19,19,20,20,21,21,22,22,23,23,24,24,25,25,26,26],"right_children":[2,4,6,8,-1,10,12,14,16,-1,-1,18,-1,20,22,24,26,-1,-1,28,30,32,34,36,38,40,42,-1,-1,-1,-1,-1,-1,-1,-1,-1,-1,-1,-1,-1,-1,-1,-1],"split_conditions":[4.725E2,6.5E0,1.8E1,1.255E2,-2.6742048E0,6.01E2,6.06E2,1.25E1,1.5E0,8.65538E-1,2.22074E0,5.485E2,2.2121544E0,1.105E2,4E0,1.615E2,4E0,2.615931E0,4.5227656E0,5E-1,5E-1,2.05E1,1.4E1,4.5E0,1.775E2,1.5E1,9.5E0,9.8190135E-1,2.372727E-1,2.9120045E0,8.758639E-1,-7.6585037E-1,3.4337294E-1,1.9581933E0,3.6935675E-1,1.0998003E0,5.273269E-1,2.1228588E0,1.2368435E0,-1.6622809E0,-4.3405488E-1,3.0107746E-1,1.1226684E0],"split_indices":[1,5,2,1,0,1,1,2,5,0,0,1,0,1,3,1,5,0,0,5,5,2,2,3,1,3,3,0,0,0,0,0,0,0,0,0,0,0,0,0,0,0,0],"split_type":[0,0,0,0,0,0,0,0,0,0,0,0,0,0,0,0,0,0,0,0,0,0,0,0,0,0,0,0,0,0,0,0,0,0,0,0,0,0,0,0,0,0,0],"sum_hessian":[2.693E3,2.609E3,8.4E1,2.599E3,1E1,2.4E1,6E1,8.37E2,1.762E3,1.5E1,9E0,4.3E1,1.7E1,2.57E2,5.8E2,1.213E3,5.49E2,2.3E1,2E1,1.82E2,7.5E1,2.75E2,3.05E2,5.01E2,7.12E2,8.4E1,4.65E2,1.14E2,6.8E1,3.3E1,4.2E1,5.5E1,2.2E2,1.8E1,2.87E2,2.32E2,2.69E2,1.23E2,5.89E2,2.4E1,6E1,1.1E2,3.55E2],"tree_param":{"num_deleted":"0","num_feature":"7","num_nodes":"43","size_leaf_vector":"0"}},{"base_weights":[4.4992557E0,3.0530307E0,7.356397E0,3.2651176E0,-1.0997103E1,6.75246E0,1.6802029E1,3.376266E0,-1.6674856E1,4.9734025E0,7.797799E0,2.5071844E1,1.1966418E1,4.712849E-1,4.086205E0,8.501102E0,2.450472E0,1.459217E1,6.1161485E0,8.558377E0,1.8056507E1,1.2712651E0,-5.2289877E0,2.951086E0,5.662097E0,1.3979515E0,1.4143459E1,-1.0393553E1,4.304773E0,1.1466253E1,3.6060665E1,8.628825E0,2.9753652E0,1.7270795E-1,3.0430694E0,-7.5978203E0,-3.0306897E0,3.4130354E0,-4.613876E0,2.496396E1,5.083332E0,-1.2709025E-1,2.3535345E0,-1.4958965E0,1.6334284E1,-1.9260128E1,1.8220918E0,7.2533836E0,4.872509E-1,1.8116316E1,7.5691733E0,1.0577884E1,3.4360106E0,1.0150454E0,8.168507E0],"categories":[],"categories_nodes":[],"categories_segments":[],"categories_sizes":[],"default_left":[true,true,true,true,false,true,true,true,false,true,true,false,true,true,true,true,true,true,true,false,false,true,true,true,true,true,true,true,true,true,false,true,true,false,false,false,false,false,false,false,false,false,false,false,false,false,false,false,false,false,false,false,false,false,false],"id":20,"left_children":[1,3,5,7,-1,9,11,13,-1,15,17,-1,19,21,23,25,27,29,31,-1,-1,33,35,37,39,41,43,45,47,49,-1,51,53,-1,-1,-1,-1,-1,-1,-1,-1,-1,-1,-1,-1,-1,-1,-1,-1,-1,-1,-1,-1,-1,-1],"loss_changes":[1.1173852E4,5.401426E3,5.074086E3,3.9881836E3,0E0,1.5530352E3,1.8537324E3,3.639504E3,0E0,2.8255322E3,6.054629E3,0E0,5.8856934E2,1.5929567E3,2.5203125E3,5.308284E3,4.521344E3,6.692746E3,3.3896826E3,0E0,0E0,5.945879E2,1.9925989E2,2.9056216E3,6.4930312E3,8.807916E1,2.5621807E3,2.637233E3,1.852581E3,2.2950186E3,0E0,2.3905664E3,1.965261E3,0E0,0E0,0E0,0E0,0E0,0E0,0E0,0E0,0E0,0E0,0E0,0E0,0E0,0E0,0E0,0E0,0E0,0E0,0E0,0E0,0E0,0E0],"parents":[2147483647,0,0,1,1,2,2,3,3,5,5,6,6,7,7,9,9,10,10,12,12,13,13,14,14,15,15,16,16,17,17,18,18,21,21,22,22,23,23,24,24,25,25,26,26,27,27,28,28,29,29,31,31,32,32],"right_children":[2,4,6,8,-1,10,12,14,-1,16,18,-1,20,22,24,26,28,30,32,-1,-1,34,36,38,40,42,44,46,48,50,-1,52,54,-1,-1,-1,-1,-1,-1,-1,-1,-1,-1,-1,-1,-1,-1,-1,-1,-1,-1,-1,-1,-1,-1],"split_conditions":[1.989E3,1.9855E3,5.535E2,6.5E0,-1.7979084E0,1.82E2,6.06E2,9.25E1,-2.7261603E0,1.495E2,2.07E2,4.0989776E0,4.599E3,1.4755E3,1.5855E3,5E-1,1.996E3,2.3435E3,5E-1,1.399203E0,2.9520454E0,8.75E1,3.5E0,1.95E2,1.594E3,1.335E2,1.992E3,5E-1,1.775E2,1.855E2,5.895532E0,2.9975E3,3.25E2,2.8235897E-2,4.975092E-1,-1.2421622E0,-4.9548528E-1,5.579947E-1,-7.5431925E-1,4.08134E0,8.310703E-1,-2.0777892E-2,3.8477767E-1,-2.4456304E-1,2.6704803E0,-3.1488245E0,2.9789248E-1,1.1858505E0,7.96603E-2,2.9618235E0,1.2374787E0,1.7293706E0,5.617509E-1,1.6594905E-1,1.3354633E0],"split_indices":[0,0,1,5,0,1,1,1,0,1,1,0,0,0,0,5,0,0,5,0,0,1,5,1,0,1,0,4,1,1,0,0,1,0,0,0,0,0,0,0,0,0,0,0,0,0,0,0,0,0,0,0,0,0,0],"split_type":[0,0,0,0,0,0,0,0,0,0,0,0,0,0,0,0,0,0,0,0,0,0,0,0,0,0,0,0,0,0,0,0,0,0,0,0,0,0,0,0,0,0,0,0,0,0,0,0,0,0,0,0,0,0,0],"sum_hessian":[2.709E3,1.8E3,9.09E2,1.774E3,2.6E1,8.56E2,5.3E1,1.765E3,9E0,3.19E2,5.37E2,1.8E1,3.5E1,3.47E2,1.418E3,1.32E2,1.87E2,1.05E2,4.32E2,2.4E1,1.1E1,3.05E2,4.2E1,8.26E2,5.92E2,5.9E1,7.3E1,2.3E1,1.64E2,9.3E1,1.2E1,2.39E2,1.93E2,1.89E2,1.16E2,1.9E1,2.3E1,7.79E2,4.7E1,1.6E1,5.76E2,2.3E1,3.6E1,9E0,6.4E1,1.3E1,1E1,9.2E1,7.2E1,3.3E1,6E1,1.73E2,6.6E1,1.41E2,5.2E1],"tree_param":{"num_deleted":"0","num_feature":"7","num_nodes":"55","size_leaf_vector":"0"}},{"base_weights":[3.3395576E0,3.150358E0,1.638239E1,2.5298274E0,4.677193E0,1.120558E1,2.4815327E1,1.9125928E0,4.3759637E0,7.107351E0,3.6306832E0,1.704008E1,4.048496E0,3.550462E0,-1.1091764E0,5.2551336E0,-1.7753825E0,5.3657246E0,9.735521E0,-8.211744E-1,4.7005286E0,2.147855E0,6.1156616E0,-5.8067644E-1,-1.2774872E1,-1.4887534E0,5.4905667E0,-8.955048E0,7.59166E0,-5.4467506E0,6.967523E0,1.3582785E1,8.175659E0,5.0433054E0,-5.3831816E0,6.36873E0,1.6042594E0,8.057217E0,1.9169778E0,-9.552884E-2,-4.8255887E0,4.675311E0,6.3392477E0,3.9098392E0,1.0212292E1,1.030531E1,4.9509974E0,3.5055711E0,7.121545E0],"categories":[],"categories_nodes":[],"categories_segments":[],"categories_sizes":[],"default_left":[true,true,true,true,true,true,false,true,true,true,true,false,false,true,true,true,true,true,true,false,true,true,true,true,false,false,true,false,false,false,true,false,true,true,false,false,false,false,false,false,false,false,false,false,false,false,false,false,false],"id":21,"left_children":[1,3,5,7,9,11,-1,13,15,17,19,-1,-1,21,23,25,27,29,31,-1,33,35,37,39,-1,-1,41,-1,-1,-1,43,-1,45,47,-1,-1,-1,-1,-1,-1,-1,-1,-1,-1,-1,-1,-1,-1,-1],"loss_changes":[6.7192246E3,2.5518027E3,1.4189717E3,2.1864795E3,1.9587734E3,1.0134839E3,0E0,7.1609478E3,2.6165576E3,1.0165303E3,2.6144692E3,0E0,0E0,3.3604883E3,3.1286792E3,6.788125E2,4.170579E3,2.514859E3,4.3772168E2,0E0,1.5548545E3,1.3835842E3,2.6813271E3,1.00377515E3,0E0,0E0,2.5096191E2,0E0,0E0,0E0,1.1980884E3,0E0,4.1361963E2,1.3411973E3,0E0,0E0,0E0,0E0,0E0,0E0,0E0,0E0,0E0,0E0,0E0,0E0,0E0,0E0,0E0],"parents":[2147483647,0,0,1,1,2,2,3,3,4,4,5,5,7,7,8,8,9,9,10,10,13,13,14,14,15,15,16,16,17,17,18,18,20,20,21,21,22,22,23,23,26,26,30,30,32,32,33,33],"right_children":[2,4,6,8,10,12,-1,14,16,18,20,-1,-1,22,24,26,28,30,32,-1,34,36,38,40,-1,-1,42,-1,-1,-1,44,-1,46,48,-1,-1,-1,-1,-1,-1,-1,-1,-1,-1,-1,-1,-1,-1,-1],"split_conditions":[4.677E3,1.9915E3,6.116E3,2.5E0,1.9975E3,4.9995E3,4.0570397E0,5E-1,1.978E3,1.9965E3,1.9985E3,2.7858703E0,6.618857E-1,1.3605E3,4E0,9.985E2,1.989E3,5E-1,5E-1,-1.342532E-1,3.986E3,9.93E2,1.708E3,1.962E3,-2.0885546E0,-2.4339522E-1,1.874E3,-1.4640543E0,1.241155E0,-8.9048535E-1,1.994E3,2.2206397E0,5E-1,2.952E3,-8.800925E-1,1.0412191E0,2.622792E-1,1.3172686E0,3.134053E-1,-1.56179415E-2,-7.88932E-1,7.643632E-1,1.036399E0,6.392168E-1,1.6696002E0,1.6848078E0,8.09435E-1,5.7312334E-1,1.1642963E0],"split_indices":[0,0,0,6,0,0,0,5,0,0,0,0,0,0,5,0,0,4,4,0,0,0,0,0,0,0,0,0,0,0,0,0,5,0,0,0,0,0,0,0,0,0,0,0,0,0,0,0,0],"split_type":[0,0,0,0,0,0,0,0,0,0,0,0,0,0,0,0,0,0,0,0,0,0,0,0,0,0,0,0,0,0,0,0,0,0,0,0,0,0,0,0,0,0,0,0,0,0,0,0,0],"sum_hessian":[2.744E3,2.706E3,3.8E1,1.926E3,7.8E2,2.5E1,1.3E1,1.445E3,4.81E2,2.33E2,5.47E2,1.3E1,1.2E1,9.37E2,5.08E2,4.21E2,6E1,1.42E2,9.1E1,1.06E2,4.41E2,6.07E2,3.3E2,4.87E2,2.1E1,1.4E1,4.07E2,3.4E1,2.6E1,1.8E1,1.24E2,2.4E1,6.7E1,4.27E2,1.4E1,6.8E1,5.39E2,2.25E2,1.05E2,4.38E2,4.9E1,2.11E2,1.96E2,6.5E1,5.9E1,3.9E1,2.8E1,2.47E2,1.8E2],"tree_param":{"num_deleted":"0","num_feature":"7","num_nodes":"49","size_leaf_vector":"0"}},{"base_weights":[3.239282E0,2.0001657E0,4.1741095E0,9.2741995E0,1.6690749E0,2.024128E1,3.925524E0,3.1011205E0,1.1355155E1,3.1619413E0,9.927382E-1,3.8130195E0,1.7583052E1,6.1403785E0,2.1694782E1,1.7682548E0,5.2537026E0,1.5476664E0,-4.3446865E0,6.3900876E0,3.289439E0,3.9677331E0,9.1069496E-1,8.679712E0,3.3067174E0,1.0870727E0,1.4296639E1,-8.431184E0,-1.9724816E-2,3.6414802E0,1.45320425E1,-3.0082593E0,3.4906623E0,-2.2166536E0,5.8070045E0,-6.7164654E-1,2.8031178E0,6.170476E0,1.2649842E1,1.0622029E0,5.1141634E0,2.185747E0,-6.6675925E-1,-3.6987157E0,4.300629E0,9.310447E0,3.0295837E-1,1.781604E1,7.595066E0,-1.1140075E0,-7.1646976E0,1.2807191E1,3.3384652E0],"categories":[],"categories_nodes":[],"categories_segments":[],"categories_sizes":[],"default_left":[true,true,true,true,true,false,true,false,true,true,true,true,false,false,false,true,true,true,true,true,true,true,true,true,true,true,false,false,true,true,true,true,true,false,false,false,false,false,false,false,false,false,false,false,false,false,false,false,false,false,false,false,false],"id":22,"left_children":[1,3,5,7,9,-1,11,-1,13,15,17,19,-1,-1,-1,21,23,25,27,29,31,33,35,37,39,41,-1,-1,43,45,47,49,51,-1,-1,-1,-1,-1,-1,-1,-1,-1,-1,-1,-1,-1,-1,-1,-1,-1,-1,-1,-1],"loss_changes":[3.0939512E3,2.7620947E3,6.0117754E3,6.048618E2,1.1119199E3,0E0,2.2406191E3,0E0,1.8575103E3,9.9248145E2,2.263253E3,1.9920039E3,0E0,0E0,0E0,3.87964E2,8.83302E2,4.0397148E3,1.2710603E3,5.5614307E3,1.5857607E3,6.731597E2,4.5437332E2,4.0719263E2,3.5467822E2,1.288853E3,0E0,0E0,5.88018E2,3.5727112E3,1.2959883E3,2.978078E2,1.6633955E3,0E0,0E0,0E0,0E0,0E0,0E0,0E0,0E0,0E0,0E0,0E0,0E0,0E0,0E0,0E0,0E0,0E0,0E0,0E0,0E0],"parents":[2147483647,0,0,1,1,2,2,3,3,4,4,6,6,8,8,9,9,10,10,11,11,15,15,16,16,17,17,18,18,19,19,20,20,21,21,22,22,23,23,24,24,25,25,28,28,29,29,30,30,31,31,32,32],"right_children":[2,4,6,8,10,-1,12,-1,14,16,18,20,-1,-1,-1,22,24,26,28,30,32,34,36,38,40,42,-1,-1,44,46,48,50,52,-1,-1,-1,-1,-1,-1,-1,-1,-1,-1,-1,-1,-1,-1,-1,-1,-1,-1,-1,-1],"split_conditions":[1.585E3,7.5E0,1.594E3,1.35E3,1.4E1,3.3092322E0,5.577E3,5.0699997E-1,5E-1,1.331E3,1.4975E3,5E-1,2.8746405E0,1.0038861E0,3.5468643E0,9.985E2,1.4145E3,1.4965E3,2.25E1,2.4E1,2.5E0,8.865E2,1.5E0,1.3505E3,1.4975E3,1.3325E3,2.3373473E0,-1.3784082E0,5E-1,1.75E1,3.2E1,2.069E3,7.5E0,-3.623991E-1,9.4938296E-1,-1.0980701E-1,4.582797E-1,1.0088067E0,2.0681136E0,1.7365879E-1,8.361109E-1,3.573462E-1,-1.0900799E-1,-6.047004E-1,7.0310676E-1,1.5221583E0,4.9530447E-2,2.9127316E0,1.2417119E0,-1.8212828E-1,-1.1713513E0,2.0938385E0,5.458033E-1],"split_indices":[0,2,0,0,2,0,0,0,2,0,0,4,0,0,0,0,0,0,2,2,2,0,6,0,0,0,0,0,4,2,2,0,2,0,0,0,0,0,0,0,0,0,0,0,0,0,0,0,0,0,0,0,0],"split_type":[0,0,0,0,0,0,0,0,0,0,0,0,0,0,0,0,0,0,0,0,0,0,0,0,0,0,0,0,0,0,0,0,0,0,0,0,0,0,0,0,0,0,0,0,0,0,0,0,0,0,0,0,0],"sum_hessian":[2.678E3,1.153E3,1.525E3,4.9E1,1.104E3,2.2E1,1.503E3,1.3E1,3.6E1,3.43E2,7.61E2,1.492E3,1.1E1,2.5E1,1.1E1,2.07E2,1.36E2,6.9E2,7.1E1,2.5E2,1.242E3,5.7E1,1.5E2,4.8E1,8.8E1,6.67E2,2.3E1,3.6E1,3.5E1,1.88E2,6.2E1,3.8E1,1.204E3,1.3E1,4.4E1,8.2E1,6.8E1,3.1E1,1.7E1,4E1,4.8E1,4.1E2,2.57E2,1.9E1,1.6E1,6.9E1,1.19E2,4.1E1,2.1E1,2.7E1,1.1E1,1.8E1,1.186E3],"tree_param":{"num_deleted":"0","num_feature":"7","num_nodes":"53","size_leaf_vector":"0"}},{"base_weights":[2.8561044E0,2.459487E0,8.238733E0,2.5393171E0,-1.6248976E1,8.950777E0,-5.3153634E0,1.5286309E0,3.4314816E0,1.3857308E1,7.5736465E0,1.8104806E0,-5.402948E0,1.8019802E1,3.187842E0,5.8375344E0,1.7787949E1,5.3784595E0,1.0945452E1,1.5685697E0,1.0494941E1,-1.619038E0,-1.1400771E1,-5.5400386E0,3.345546E0,1.2910878E1,2.1284906E1,6.090818E0,2.0360024E0,9.561741E0,1.5094145E1,1.1721903E0,3.4916434E0,6.858451E0,1.3906398E1,1.2004435E0,-3.854757E0,6.4033213E0,2.5959284E0,7.7292166E0,5.051611E0,1.123722E1,3.4997818E0],"categories":[],"categories_nodes":[],"categories_segments":[],"categories_sizes":[],"default_left":[true,true,true,true,false,true,false,true,true,true,true,true,true,false,true,false,true,true,true,true,true,true,false,false,true,false,false,true,false,true,false,false,false,false,false,false,false,false,false,false,false,false,false],"id":23,"left_children":[1,3,5,7,-1,9,-1,11,13,15,17,19,21,-1,23,-1,25,27,29,31,33,35,-1,-1,37,-1,-1,39,-1,41,-1,-1,-1,-1,-1,-1,-1,-1,-1,-1,-1,-1,-1],"loss_changes":[5.840377E3,3.8610215E3,1.862543E3,2.2924219E3,0E0,1.101251E3,0E0,2.3477659E3,4.748259E3,1.0904038E3,9.896719E2,2.3997837E3,1.0462184E3,0E0,1.8515938E3,0E0,1.4631592E2,1.9588184E2,1.676206E2,8.496919E2,2.8601343E2,1.9414197E2,0E0,0E0,2.9824365E3,0E0,0E0,8.158276E1,0E0,4.0530396E2,0E0,0E0,0E0,0E0,0E0,0E0,0E0,0E0,0E0,0E0,0E0,0E0,0E0],"parents":[2147483647,0,0,1,1,2,2,3,3,5,5,7,7,8,8,9,9,10,10,11,11,12,12,14,14,16,16,17,17,18,18,19,19,20,20,21,21,24,24,27,27,29,29],"right_children":[2,4,6,8,-1,10,-1,12,14,16,18,20,22,-1,24,-1,26,28,30,32,34,36,-1,-1,38,-1,-1,40,-1,42,-1,-1,-1,-1,-1,-1,-1,-1,-1,-1,-1,-1,-1],"split_conditions":[3.735E2,6.5E0,6.95E2,1.5855E3,-2.6565335E0,2.9955E3,-8.6900496E-1,1.95E2,1.594E3,1.98E3,5.45E2,1.675E2,4E0,2.9460444E0,9.25E1,9.543743E-1,2.441E3,2.5E0,6.116E3,1.43E2,1.377E3,6.66E2,-1.8639039E0,-9.057369E-1,1.47E2,2.1107903E0,3.479854E0,4.255E2,3.3286458E-1,4.4975E3,2.467731E0,1.9164056E-1,5.7084626E-1,1.1212832E0,2.273547E0,1.9625965E-1,-6.302115E-1,1.0468744E0,4.2440647E-1,1.2636441E0,8.258842E-1,1.837165E0,5.721768E-1],"split_indices":[1,5,1,0,0,0,0,1,0,0,1,1,5,0,1,0,0,5,0,1,0,0,0,0,1,0,0,1,0,0,0,0,0,0,0,0,0,0,0,0,0,0,0],"split_type":[0,0,0,0,0,0,0,0,0,0,0,0,0,0,0,0,0,0,0,0,0,0,0,0,0,0,0,0,0,0,0,0,0,0,0,0,0,0,0,0,0,0,0],"sum_hessian":[2.745E3,2.558E3,1.87E2,2.548E3,1E1,1.78E2,9E0,1.196E3,1.352E3,3.7E1,1.41E2,1.15E3,4.6E1,2.1E1,1.331E3,1.3E1,2.4E1,8.7E1,5.4E1,1.12E3,3E1,2.9E1,1.7E1,2.3E1,1.308E3,1.2E1,1.2E1,7.1E1,1.6E1,4.3E1,1.1E1,9.3E2,1.9E2,1.6E1,1.4E1,1.3E1,1.6E1,2.56E2,1.052E3,2.5E1,4.6E1,3.3E1,1E1],"tree_param":{"num_deleted":"0","num_feature":"7","num_nodes":"43","size_leaf_vector":"0"}},{"base_weights":[2.359715E0,2.2597377E0,1.9836151E1,1.6105088E0,3.8984585E0,1.2093718E-1,2.0183735E0,1.023161E1,3.2193084E0,1.5568005E0,-3.760485E0,2.527516E0,1.0390775E0,2.7703066E0,1.606325E1,-1.0164957E0,4.815999E0,3.5633123E-1,1.0420538E1,-5.6965923E0,-2.4750489E-1,1.9555799E0,7.364598E0,-9.460187E-1,2.840614E0,1.1927434E1,-1.9172895E0,2.2739016E1,9.824412E0,-1.3075647E1,4.788094E-1,7.620254E0,2.593773E0,1.8360718E0,-7.031367E-1,8.10966E0,1.3413005E1,-3.025842E0,-7.8989553E0,-3.199466E0,2.9900706E0,2.1339364E0,-4.8970556E0,-4.614851E0,9.760233E0,-6.467007E0,6.7047054E-1,8.896782E0,2.1743329E0,-1.6339674E1,-7.5094967E0,2.5062895E0,-3.756542E0,1.0289843E1,3.2921982E0,-5.089188E-1,5.145134E0],"categories":[],"categories_nodes":[],"categories_segments":[],"categories_sizes":[],"default_left":[true,true,false,true,true,true,true,true,true,true,true,true,true,true,true,true,true,true,true,true,true,true,true,true,true,false,false,false,false,true,true,true,true,false,false,false,false,false,false,false,false,false,false,false,false,false,false,false,false,false,false,false,false,false,false,false,false],"id":24,"left_children":[1,3,-1,5,7,9,11,13,15,17,19,21,23,25,27,29,31,33,35,37,39,41,43,45,47,-1,-1,-1,-1,49,51,53,55,-1,-1,-1,-1,-1,-1,-1,-1,-1,-1,-1,-1,-1,-1,-1,-1,-1,-1,-1,-1,-1,-1,-1,-1],"loss_changes":[4.9087275E3,2.9952148E3,0E0,1.2284888E3,3.4059238E3,2.4354277E3,7.886045E2,3.3030044E3,4.902085E3,3.388998E3,8.002551E2,2.8723936E3,1.9520198E3,1.5267772E3,1.5625107E3,3.596585E3,3.2565342E3,4.43567E2,1.506997E2,4.2145093E2,4.2055826E2,1.1527944E3,3.2026558E3,2.3256267E3,1.1329976E3,0E0,0E0,0E0,0E0,2.7333325E2,1.5377252E3,2.6445977E3,2.3385757E3,0E0,0E0,0E0,0E0,0E0,0E0,0E0,0E0,0E0,0E0,0E0,0E0,0E0,0E0,0E0,0E0,0E0,0E0,0E0,0E0,0E0,0E0,0E0,0E0],"parents":[2147483647,0,0,1,1,3,3,4,4,5,5,6,6,7,7,8,8,9,9,10,10,11,11,12,12,13,13,14,14,15,15,16,16,17,17,18,18,19,19,20,20,21,21,22,22,23,23,24,24,29,29,30,30,31,31,32,32],"right_children":[2,4,-1,6,8,10,12,14,16,18,20,22,24,26,28,30,32,34,36,38,40,42,44,46,48,-1,-1,-1,-1,50,52,54,56,-1,-1,-1,-1,-1,-1,-1,-1,-1,-1,-1,-1,-1,-1,-1,-1,-1,-1,-1,-1,-1,-1,-1,-1],"split_conditions":[6.325E2,1.994E3,3.2429981E0,9.85E1,1.48E2,1.4145E3,1.805E2,1.27E2,1.81E2,1.245E3,3E0,1.625E2,2.305E2,1.9975E3,1.4E2,1.996E3,9.5E0,1.5E0,1.35E3,1.4785E3,9.25E1,1.595E2,1.35E3,5.5E0,5.5E0,1.9500076E0,-3.134563E-1,3.7175853E0,1.6061862E0,3.5E0,1.79E2,2.79E2,1.55E1,3.0017808E-1,-1.1495531E-1,1.3258425E0,2.1928825E0,-4.9469274E-1,-1.2913946E0,-5.230784E-1,4.8884448E-1,3.4887573E-1,-8.006161E-1,-7.544787E-1,1.5956935E0,-1.0572864E0,1.09614745E-1,1.4545285E0,3.554801E-1,-2.6713617E0,-1.2277222E0,4.0975147E-1,-6.1415434E-1,1.682279E0,5.382391E-1,-8.320277E-2,8.4117424E-1],"split_indices":[1,0,0,1,1,0,1,1,1,0,6,1,1,0,1,0,3,3,0,0,1,1,0,3,3,0,0,0,0,3,1,1,3,0,0,0,0,0,0,0,0,0,0,0,0,0,0,0,0,0,0,0,0,0,0,0,0],"split_type":[0,0,0,0,0,0,0,0,0,0,0,0,0,0,0,0,0,0,0,0,0,0,0,0,0,0,0,0,0,0,0,0,0,0,0,0,0,0,0,0,0,0,0,0,0,0,0,0,0,0,0,0,0,0,0,0,0],"sum_hessian":[2.836E3,2.821E3,1.5E1,2.022E3,7.99E2,4.35E2,1.587E3,7.6E1,7.23E2,3.18E2,1.17E2,1.043E3,5.44E2,3.4E1,4.2E1,1.98E2,5.25E2,2.81E2,3.7E1,7.5E1,4.2E1,9.34E2,1.09E2,2.59E2,2.85E2,1.1E1,2.3E1,1.9E1,2.3E1,2.1E1,1.77E2,2.31E2,2.94E2,1.17E2,1.64E2,2.3E1,1.4E1,3.5E1,4E1,2.2E1,2E1,9.11E2,2.3E1,1.8E1,9.1E1,5.8E1,2.01E2,2.7E1,2.58E2,1.2E1,9E0,1.2E2,5.7E1,1.42E2,8.9E1,1.33E2,1.61E2],"tree_param":{"num_deleted":"0","num_feature":"7","num_nodes":"57","size_leaf_vector":"0"}},{"base_weights":[1.635177E0,1.3527669E0,6.8902183E0,3.0647378E0,1.0106318E0,5.7734303E0,1.6198877E1,3.6493597E0,-1.4222519E1,5.934541E-1,2.2029448E0,6.926113E0,-7.9291453E0,2.5856686E0,1.4937398E1,3.9993948E-1,3.6587675E0,5.54636E0,1.1389467E0,9.78153E0,5.6906447E0,3.4882772E0,-1.852551E0,5.083829E0,2.295949E1,-7.0592564E-1,8.9782536E-1,1.744506E1,-1.1462581E-1,-2.9160388E0,7.6510005E0,-1.9303271E-1,2.453548E0,-4.0482664E0,7.5864077E0,1.9235079E0,5.471909E0,-3.7695355E0,2.545616E0,1.9578458E-1,-4.918219E0,4.5650703E-1,5.933255E0,-1.809925E1,3.3103995E0,-6.610152E-1,-5.6669397E0,-1.4719694E0,1.0198637E1,2.1343775E0,-1.8200064E0,3.617395E0,-2.4282572E0,1.7182508E0,8.788971E0],"categories":[],"categories_nodes":[],"categories_segments":[],"categories_sizes":[],"default_left":[true,true,true,true,true,true,false,true,false,true,true,true,false,true,true,true,true,true,true,false,true,true,true,false,false,true,true,false,true,true,true,true,true,false,true,false,false,false,false,false,false,false,false,false,false,false,false,false,false,false,false,false,false,false,false],"id":25,"left_children":[1,3,5,7,9,11,-1,13,-1,15,17,19,-1,21,23,25,27,29,31,-1,33,35,37,-1,-1,39,41,-1,43,45,47,49,51,-1,53,-1,-1,-1,-1,-1,-1,-1,-1,-1,-1,-1,-1,-1,-1,-1,-1,-1,-1,-1,-1],"loss_changes":[3.9548667E3,1.4822622E3,1.3169326E3,4.3152275E3,1.0507749E3,1.9975151E3,0E0,4.869544E3,0E0,9.286178E2,1.942105E3,3.4412842E2,0E0,1.5089541E3,2.6455913E3,8.1389154E2,4.842623E3,2.3739985E3,7.3099677E2,0E0,1.5451934E3,9.567639E2,5.493817E2,0E0,0E0,1.745093E3,2.2607603E3,0E0,4.6204233E3,1.6277296E2,2.4800044E3,7.9145636E2,1.2021183E3,0E0,4.702063E2,0E0,0E0,0E0,0E0,0E0,0E0,0E0,0E0,0E0,0E0,0E0,0E0,0E0,0E0,0E0,0E0,0E0,0E0,0E0,0E0],"parents":[2147483647,0,0,1,1,2,2,3,3,4,4,5,5,7,7,9,9,10,10,11,11,13,13,14,14,15,15,16,16,17,17,18,18,20,20,21,21,22,22,25,25,26,26,28,28,29,29,30,30,31,31,32,32,34,34],"right_children":[2,4,6,8,10,12,-1,14,-1,16,18,20,-1,22,24,26,28,30,32,-1,34,36,38,-1,-1,40,42,-1,44,46,48,50,52,-1,54,-1,-1,-1,-1,-1,-1,-1,-1,-1,-1,-1,-1,-1,-1,-1,-1,-1,-1,-1,-1],"split_conditions":[4.12E2,1.25E1,6.207E3,2.07E3,1.65E1,6.845E2,2.6483428E0,1.877E3,-2.3252294E0,2.6265E3,1.85E1,3.6275E3,-1.2963303E0,2.5E0,6E0,2.4E1,2.605E2,1.5445E3,3.05E1,1.5991753E0,4.725E2,1.12E2,8E0,8.3115155E-1,3.7536304E0,1.855E2,1.994E3,2.8520803E0,3.15E2,1.475E2,1.75E1,1.425E3,2.54E2,-6.618482E-1,6.5E0,3.1447294E-1,8.945985E-1,-6.1627865E-1,4.161809E-1,3.200868E-2,-8.0407614E-1,7.463401E-2,9.7002363E-1,-2.9590335E0,5.412148E-1,-1.08068906E-1,-9.264839E-1,-2.4065122E-1,1.6673678E0,3.4894785E-1,-2.9755154E-1,5.914053E-1,-3.9699402E-1,2.809156E-1,1.4369025E0],"split_indices":[1,2,0,0,3,1,0,0,0,0,3,0,0,3,2,2,1,0,2,0,1,1,3,0,0,1,0,0,1,1,2,0,1,0,3,0,0,0,0,0,0,0,0,0,0,0,0,0,0,0,0,0,0,0,0],"split_type":[0,0,0,0,0,0,0,0,0,0,0,0,0,0,0,0,0,0,0,0,0,0,0,0,0,0,0,0,0,0,0,0,0,0,0,0,0,0,0,0,0,0,0,0,0,0,0,0,0,0,0,0,0,0,0],"sum_hessian":[2.671E3,2.536E3,1.35E2,4.21E2,2.115E3,1.22E2,1.3E1,4.08E2,1.3E1,1.568E3,5.47E2,1.13E2,9E0,3.74E2,3.4E1,1.476E3,9.2E1,1.31E2,4.16E2,3.2E1,8.1E1,3.11E2,6.3E1,1.6E1,1.8E1,4.58E2,1.018E3,1.9E1,7.3E1,2.6E1,1.05E2,2.07E2,2.09E2,1.3E1,6.8E1,1.75E2,1.36E2,4.4E1,1.9E1,3.78E2,8E1,9.37E2,8.1E1,1.1E1,6.2E1,1.5E1,1.1E1,2.3E1,8.2E1,8.5E1,1.22E2,1.69E2,4E1,1.2E1,5.6E1],"tree_param":{"num_deleted":"0","num_feature":"7","num_nodes":"55","size_leaf_vector":"0"}},{"base_weights":[1.4659437E0,1.5084802E0,-9.318447E0,1.2457255E0,3.1146612E0,1.3295171E0,-8.190937E0,2.0888789E0,7.149589E0,1.2495201E0,1.2234811E1,-2.5220385E0,-1.4159168E1,3.7562916E0,-3.1837184E0,3.6871836E0,1.1082376E1,1.460313E-1,1.5025841E0,9.694404E0,1.8541684E0,-1.7828096E1,-9.143089E-1,7.075924E0,-5.559873E-1,4.8624384E-1,-5.4739804E0,1.9933275E0,2.9721248E-1,5.903512E0,1.6404701E1,9.698562E-1,1.2259343E1,2.429118E0,-5.012509E0],"categories":[],"categories_nodes":[],"categories_segments":[],"categories_sizes":[],"default_left":[true,true,false,true,true,true,true,true,true,true,false,false,false,true,true,true,false,true,true,true,true,false,true,false,false,false,false,false,false,false,false,false,false,false,false],"id":26,"left_children":[1,3,-1,5,7,9,11,13,15,17,-1,-1,-1,19,21,23,-1,25,27,29,31,-1,33,-1,-1,-1,-1,-1,-1,-1,-1,-1,-1,-1,-1],"loss_changes":[1.282625E3,1.1594136E3,0E0,1.8854065E3,1.5854236E3,2.0345063E3,6.722284E2,2.737442E3,1.01898804E3,6.5186255E2,0E0,0E0,0E0,2.6458767E3,2.473379E3,6.2323224E2,0E0,8.374393E2,1.12296E3,1.3496963E3,1.6423354E3,0E0,9.169067E2,0E0,0E0,0E0,0E0,0E0,0E0,0E0,0E0,0E0,0E0,0E0,0E0],"parents":[2147483647,0,0,1,1,3,3,4,4,5,5,6,6,7,7,8,8,9,9,13,13,14,14,15,15,17,17,18,18,19,19,20,20,22,22],"right_children":[2,4,-1,6,8,10,12,14,16,18,-1,-1,-1,20,22,24,-1,26,28,30,32,-1,34,-1,-1,-1,-1,-1,-1,-1,-1,-1,-1,-1,-1],"split_conditions":[6.5E0,2.885E2,-1.5234662E0,2.79E2,4E0,2.685E2,5.5E0,5E-1,3.36E2,9.85E1,2.0002604E0,-4.1232625E-1,-2.3148723E0,3.02E2,3.025E2,3.065E2,1.8118496E0,9.6E1,1.855E2,1.35E1,6.275E2,-2.9147027E0,3.35E2,1.1568377E0,-9.089796E-2,7.949565E-2,-8.9493716E-1,3.2588768E-1,4.8591055E-2,9.6516097E-1,2.6819928E0,1.585611E-1,2.0042713E0,3.9713475E-1,-8.194915E-1],"split_indices":[5,1,0,1,5,1,3,5,1,1,0,0,0,1,1,1,0,1,1,3,1,0,1,0,0,0,0,0,0,0,0,0,0,0,0],"split_type":[0,0,0,0,0,0,0,0,0,0,0,0,0,0,0,0,0,0,0,0,0,0,0,0,0,0,0,0,0,0,0,0,0,0,0],"sum_hessian":[2.767E3,2.757E3,1E1,2.371E3,3.86E2,2.351E3,2E1,3.09E2,7.7E1,2.335E3,1.6E1,1.1E1,9E0,2.35E2,7.4E1,4.2E1,3.5E1,4.36E2,1.899E3,5.6E1,1.79E2,9E0,6.5E1,2.3E1,1.9E1,4.12E2,2.4E1,1.349E3,5.5E2,3.7E1,1.9E1,1.66E2,1.3E1,3.6E1,2.9E1],"tree_param":{"num_deleted":"0","num_feature":"7","num_nodes":"35","size_leaf_vector":"0"}},{"base_weights":[1.3658311E0,1.1483359E0,6.3777056E0,1.1980208E0,-1.2107718E1,5.1875343E0,1.3408075E1,1.0388594E0,6.795944E0,3.3099353E0,1.5596363E1,1.1442556E0,-4.5326524E0,9.823404E0,5.0112896E0,4.612995E0,-2.4211419E-1,9.694291E-1,5.5159607E0,-8.673072E0,7.2699804E0,6.620417E0,1.1120636E1,1.2576225E0,7.6420827E0,6.1177087E0,-1.6331466E0,4.468221E0,-3.936764E0,5.3568614E-1,2.2366657E0,1.4974858E1,1.2595425E0,-5.8144784E0,-1.3271505E1,5.1223817E0,1.0143591E1,3.0602424E0,1.4807705E1],"categories":[],"categories_nodes":[],"categories_segments":[],"categories_sizes":[],"default_left":[true,true,true,true,false,true,false,true,true,true,false,true,true,true,true,true,true,true,true,true,false,false,false,false,true,true,false,false,false,false,false,false,false,false,false,false,false,false,false],"id":27,"left_children":[1,3,5,7,-1,9,-1,11,13,15,-1,17,19,21,23,25,27,29,31,33,-1,-1,-1,-1,35,37,-1,-1,-1,-1,-1,-1,-1,-1,-1,-1,-1,-1,-1],"loss_changes":[3.0120742E3,1.7628005E3,8.8983496E2,2.3510354E3,0E0,1.8998347E3,0E0,1.5173364E3,3.4291162E2,3.9984186E2,0E0,1.9265474E3,2.408925E3,3.1683594E1,4.630287E2,6.027947E2,4.3518167E2,1.3356865E3,3.8839656E3,3.93125E2,0E0,0E0,0E0,0E0,1.2218237E2,1.3069796E3,0E0,0E0,0E0,0E0,0E0,0E0,0E0,0E0,0E0,0E0,0E0,0E0,0E0],"parents":[2147483647,0,0,1,1,2,2,3,3,5,5,7,7,8,8,9,9,11,11,12,12,13,13,14,14,15,15,16,16,17,17,18,18,19,19,24,24,25,25],"right_children":[2,4,6,8,-1,10,-1,12,14,16,-1,18,20,22,24,26,28,30,32,34,-1,-1,-1,-1,36,38,-1,-1,-1,-1,-1,-1,-1,-1,-1,-1,-1,-1,-1],"split_conditions":[3.8785E3,4.73E2,6.325E2,3.735E2,-1.9794822E0,5E-1,2.1920767E0,3.35E2,3.95E2,4.9995E3,2.5498383E0,2.6265E3,3.5E0,2.482E3,4.12E2,5.985E2,5.05E2,2.5E0,2.405E2,2.9955E3,1.1885638E0,1.0823673E0,1.8181047E0,2.056078E-1,2.5E0,5.425E2,-2.67002E-1,7.305063E-1,-6.436187E-1,8.7578945E-2,3.6567086E-1,2.4482288E0,2.059217E-1,-9.506049E-1,-2.1697488E0,8.374545E-1,1.6583683E0,5.0031686E-1,2.420901E0],"split_indices":[0,1,1,1,0,5,0,1,1,0,0,0,5,0,1,1,1,6,1,0,0,0,0,0,5,1,0,0,0,0,0,0,0,0,0,0,0,0,0],"split_type":[0,0,0,0,0,0,0,0,0,0,0,0,0,0,0,0,0,0,0,0,0,0,0,0,0,0,0,0,0,0,0,0,0,0,0,0,0,0,0],"sum_hessian":[2.77E3,2.656E3,1.14E2,2.647E3,9E0,9.9E1,1.5E1,2.575E3,7.2E1,8.5E1,1.4E1,2.528E3,4.7E1,2.5E1,4.7E1,6.2E1,2.3E1,2.432E3,9.6E1,3.5E1,1.2E1,9E0,1.6E1,2E1,2.7E1,5E1,1.2E1,1E1,1.3E1,1.813E3,6.19E2,2.9E1,6.7E1,2.3E1,1.2E1,1.5E1,1.2E1,3.8E1,1.2E1],"tree_param":{"num_deleted":"0","num_feature":"7","num_nodes":"39","size_leaf_vector":"0"}},{"base_weights":[7.868327E-1,7.280617E-1,1.1299004E1,7.6100636E-1,-6.699423E0,7.199328E-1,9.145493E0,7.547894E-1,-7.0683413E0,4.828306E-1,1.6090108E0,9.8537874E-1,-4.5444407E0,9.052511E-1,7.354662E0],"categories":[],"categories_nodes":[],"categories_segments":[],"categories_sizes":[],"default_left":[true,true,false,true,false,true,false,true,false,true,true,false,false,false,false],"id":28,"left_children":[1,3,-1,5,-1,7,-1,9,-1,11,13,-1,-1,-1,-1],"loss_changes":[1.6660479E3,6.646212E2,0E0,9.1759656E2,0E0,7.3082715E2,0E0,6.1801624E2,0E0,5.114931E3,2.592082E3,0E0,0E0,0E0,0E0],"parents":[2147483647,0,0,1,1,3,3,5,5,7,7,9,9,10,10],"right_children":[2,4,-1,6,-1,8,-1,10,-1,12,14,-1,-1,-1,-1],"split_conditions":[6.207E3,4.9995E3,1.847266E0,4.677E3,-1.0952839E0,3.986E3,1.49519E0,2.5E0,-1.155598E0,5E-1,2.685E2,1.6109887E-1,-7.4296737E-1,1.4799885E-1,1.2024084E0],"split_indices":[0,0,0,0,0,0,0,6,0,6,1,0,0,0,0],"split_type":[0,0,0,0,0,0,0,0,0,0,0,0,0,0,0],"sum_hessian":[2.712E3,2.698E3,1.4E1,2.687E3,1.1E1,2.675E3,1.2E1,2.664E3,1.1E1,2.022E3,6.42E2,1.839E3,1.83E2,5.73E2,6.9E1],"tree_param":{"num_deleted":"0","num_feature":"7","num_nodes":"15","size_leaf_vector":"0"}},{"base_weights":[9.5651954E-1,8.9980984E-1,8.986693E0,-5.878948E-1,1.1615286E0,1.162332E1,5.436045E0,-3.5280418E-1,-4.8737783E0,5.3401833E0,1.030124E0,-7.5814766E-1,1.9040084E0,1.0049363E0,8.960432E0,8.973624E-1,2.8826237E0,-1.0498487E-1,-2.3339317E0,-5.033045E0,5.328773E0,-3.0937498E0,5.5627446E0,1.3026973E1,3.7098026E0,1.3625468E0,-4.9694473E-1,-1.7234519E0,3.7383118E0,-1.0160327E0,4.4490094E0,-1.7068757E0,-5.1384625E0,1.3460861E0,7.6584005E0,4.9336588E-1,2.2533793E0,-1.0614335E1,8.3675766E-1,2.9541118E0,7.9910364E0],"categories":[],"categories_nodes":[],"categories_segments":[],"categories_sizes":[],"default_left":[true,true,true,true,true,false,false,true,false,true,true,true,true,true,true,true,true,true,true,false,true,false,false,false,false,true,true,false,true,false,false,false,false,false,false,false,false,false,false,false,false],"id":29,"left_children":[1,3,5,7,9,-1,-1,11,-1,13,15,17,19,21,23,25,27,29,31,-1,33,-1,-1,-1,-1,35,37,-1,39,-1,-1,-1,-1,-1,-1,-1,-1,-1,-1,-1,-1],"loss_changes":[1.2326968E3,1.055937E3,1.1206897E2,4.0655194E2,1.2591848E3,0E0,0E0,3.5437433E2,0E0,1.0880923E3,5.467566E2,3.3697238E2,1.4285741E3,6.340627E2,7.6047534E2,1.3551075E3,5.940154E2,9.706885E2,1.5900372E2,0E0,3.594358E2,0E0,0E0,0E0,0E0,1.2110122E3,7.0675293E3,0E0,3.9492163E2,0E0,0E0,0E0,0E0,0E0,0E0,0E0,0E0,0E0,0E0,0E0,0E0],"parents":[2147483647,0,0,1,1,2,2,3,3,4,4,7,7,9,9,10,10,11,11,12,12,13,13,14,14,15,15,16,16,17,17,18,18,20,20,25,25,26,26,28,28],"right_children":[2,4,6,8,10,-1,-1,12,-1,14,16,18,20,22,24,26,28,30,32,-1,34,-1,-1,-1,-1,36,38,-1,40,-1,-1,-1,-1,-1,-1,-1,-1,-1,-1,-1,-1],"split_conditions":[6.37E2,9.9E1,7.175E2,9.75E1,1.005E2,1.9002882E0,8.887351E-1,9.25E1,-7.968105E-1,1E0,3.65E1,8.95E1,1E0,1.5E0,5.5E0,5E-1,2.5E0,8.75E1,4E0,-8.2284886E-1,9.4E1,-5.0579494E-1,9.094491E-1,2.1297705E0,6.0651296E-1,1.615E2,1.5E0,-2.817659E-1,2.75E2,-1.6611046E-1,7.273654E-1,-2.790559E-1,-8.4008354E-1,2.2007066E-1,1.2520664E0,8.066004E-2,3.6840338E-1,-1.73533E0,1.3680092E-1,4.8296562E-1,1.3064488E0],"split_indices":[1,1,1,1,1,0,0,1,0,3,3,1,3,6,3,6,6,1,6,0,1,0,0,0,0,1,6,0,1,0,0,0,0,0,0,0,0,0,0,0,0],"split_type":[0,0,0,0,0,0,0,0,0,0,0,0,0,0,0,0,0,0,0,0,0,0,0,0,0,0,0,0,0,0,0,0,0,0,0,0,0,0,0,0,0],"sum_hessian":[2.727E3,2.709E3,1.8E1,4.05E2,2.304E3,9E0,9E0,3.85E2,2E1,6.9E1,2.235E3,3.27E2,5.8E1,3.2E1,3.7E1,2.087E3,1.48E2,2.32E2,9.5E1,1.9E1,3.9E1,1.7E1,1.5E1,2E1,1.7E1,1.565E3,5.22E2,2.3E1,1.25E2,1.94E2,3.8E1,7.9E1,1.6E1,1.5E1,2.4E1,7.93E2,7.72E2,6E1,4.62E2,1.07E2,1.8E1],"tree_param":{"num_deleted":"0","num_feature":"7","num_nodes":"41","size_leaf_vector":"0"}},{"base_weights":[8.447705E-1,3.906389E-1,2.020614E0,6.3177127E-1,-1.9110577E0,3.0172207E0,5.3972286E-1,3.6451986E-1,2.9388897E0,-8.5234046E-1,-1.2439061E1,2.0298443E0,1.3768938E1,-8.332133E0,1.4605029E0,5.820203E-1,-2.9733794E0,8.095209E0,2.4019084E0,-1.8408744E0,4.046252E0,4.6219964E0,8.652386E-1,1.9970314E1,2.9185705E0,-4.185255E0,-1.5777324E1,1.1321241E0,1.0165327E1,-1.9839613E-1,1.7250756E0,-8.48723E0,-8.622559E-1,-2.4907076E0,2.7592692E0,-7.621337E0,-4.2839718E-1,5.6131706E0,1.674144E0,1.5101526E1,2.5591922E0,-6.4392763E-1,5.105368E0,1.3101677E1,2.3929684E1,3.888354E0,2.025217E-1,1.2320578E-1,-5.999961E0,2.306231E0,-2.0969474E0,1.515772E0,-3.5691485E0,3.0570297E0,-2.729489E-1,1.7734674E0,-2.3772306E0,2.0073921E1,8.74231E0,1.6098886E1,1.0273807E0,-1.8284252E0,4.550509E0,1.2886909E1,5.514494E-1,5.174294E0,-4.0721745E0,-1.3345606E1,1.0490245E0],"categories":[],"categories_nodes":[],"categories_segments":[],"categories_sizes":[],"default_left":[true,true,true,true,true,true,true,true,true,true,false,true,true,true,true,true,true,false,true,true,true,true,true,true,false,false,false,true,false,true,true,false,true,false,true,false,true,false,false,true,true,true,true,false,false,true,true,false,false,false,false,false,false,false,false,false,false,false,false,false,false,false,false,false,false,false,false,false,false],"id":30,"left_children":[1,3,5,7,9,11,13,15,17,19,-1,21,23,25,27,29,31,-1,33,35,37,39,41,43,-1,-1,-1,45,-1,47,49,-1,51,-1,53,-1,55,-1,-1,57,59,61,63,-1,-1,65,67,-1,-1,-1,-1,-1,-1,-1,-1,-1,-1,-1,-1,-1,-1,-1,-1,-1,-1,-1,-1,-1,-1],"loss_changes":[1.4560929E3,1.0943876E3,1.1194836E3,1.0984015E3,2.0716926E3,4.789286E3,2.5190056E3,1.1629545E3,4.9118127E2,8.351646E2,0E0,1.2540128E3,2.4951157E3,8.2625757E2,7.84273E2,1.3413416E3,1.1320076E3,0E0,3.0239825E2,1.1630616E3,9.727405E1,2.747262E3,1.8533009E3,3.3348633E2,0E0,0E0,0E0,6.90378E2,0E0,1.6696616E3,1.3597936E3,0E0,4.6919403E2,0E0,1.4391614E2,0E0,5.0207242E2,0E0,0E0,4.8411475E2,2.2415195E3,1.3246011E3,2.684005E3,0E0,0E0,7.173396E2,2.3402231E3,0E0,0E0,0E0,0E0,0E0,0E0,0E0,0E0,0E0,0E0,0E0,0E0,0E0,0E0,0E0,0E0,0E0,0E0,0E0,0E0,0E0,0E0],"parents":[2147483647,0,0,1,1,2,2,3,3,4,4,5,5,6,6,7,7,8,8,9,9,11,11,12,12,13,13,14,14,15,15,16,16,18,18,19,19,20,20,21,21,22,22,23,23,27,27,29,29,30,30,32,32,34,34,36,36,39,39,40,40,41,41,42,42,45,45,46,46],"right_children":[2,4,6,8,10,12,14,16,18,20,-1,22,24,26,28,30,32,-1,34,36,38,40,42,44,-1,-1,-1,46,-1,48,50,-1,52,-1,54,-1,56,-1,-1,58,60,62,64,-1,-1,66,68,-1,-1,-1,-1,-1,-1,-1,-1,-1,-1,-1,-1,-1,-1,-1,-1,-1,-1,-1,-1,-1,-1],"split_conditions":[1.994E3,1.9765E3,2.735E2,2.95E1,3.6E1,2.6265E3,2.885E2,1.962E3,3.6E1,2.82E2,-2.0336533E0,1.9975E3,2.983E3,2.83E2,6.3055E3,1.315E2,1.935E2,1.3234799E0,1.07E2,8E0,3.15E2,1.37E2,1.55E1,2.84E3,4.77155E-1,-6.8424433E-1,-2.5794234E0,2.959E3,1.661922E0,1.754E3,2E1,-1.3875712E0,2.25E2,-4.07204E-1,3.2E2,-1.2460068E0,1.9925E3,9.1769326E-1,2.7370462E-1,2.15E1,7.5E0,2.4E1,2.075E3,2.1419837E0,3.9122467E0,2.6E1,2.994E3,2.0142825E-2,-9.809293E-1,3.7704405E-1,-3.4282842E-1,2.4781248E-1,-5.8351755E-1,4.997916E-1,-4.4624217E-2,2.8994292E-1,-3.8865173E-1,3.281871E0,1.429274E0,2.6319954E0,1.6796574E-1,-2.9892793E-1,7.439594E-1,2.1068714E0,9.015607E-2,8.459416E-1,-6.657569E-1,-2.1818635E0,1.7150426E-1],"split_indices":[0,0,1,3,2,0,1,0,2,1,0,0,0,1,0,1,1,0,1,3,1,1,3,0,0,0,0,0,0,0,3,0,1,0,1,0,0,0,0,2,2,2,0,0,0,3,0,0,0,0,0,0,0,0,0,0,0,0,0,0,0,0,0,0,0,0,0,0,0],"split_type":[0,0,0,0,0,0,0,0,0,0,0,0,0,0,0,0,0,0,0,0,0,0,0,0,0,0,0,0,0,0,0,0,0,0,0,0,0,0,0,0,0,0,0,0,0,0,0,0,0,0,0,0,0,0,0,0,0,0,0,0,0,0,0,0,0,0,0,0,0],"sum_hessian":[2.728E3,1.969E3,7.59E2,1.783E3,1.86E2,4.53E2,3.06E2,1.599E3,1.84E2,1.7E2,1.6E1,4.16E2,3.7E1,2.8E1,2.78E2,1.502E3,9.7E1,1.6E1,1.68E2,1.42E2,2.8E1,1.28E2,2.88E2,2.3E1,1.4E1,1.9E1,9E0,2.69E2,9E0,8.93E2,6.09E2,2.6E1,7.1E1,1.1E1,1.57E2,2.7E1,1.15E2,1.6E1,1.2E1,2E1,1.08E2,2.13E2,7.5E1,1E1,1.3E1,6.7E1,2.02E2,8.47E2,4.6E1,5.29E2,8E1,3.8E1,3.3E1,1.43E2,1.4E1,5.4E1,6.1E1,1E1,1E1,1E1,9.8E1,1.74E2,3.9E1,2.7E1,4.8E1,5.8E1,9E0,1.1E1,1.91E2],"tree_param":{"num_deleted":"0","num_feature":"7","num_nodes":"69","size_leaf_vector":"0"}},{"base_weights":[4.4123316E-1,3.4926212E-1,5.4443326E0,4.01036E-1,-1.1147912E1,7.4849067E0,-7.704405E-1,2.8776119E0,2.88998E-1,1.4515247E1,3.9463482E0,-8.341475E-2,8.227683E0,-4.1377282E-1,8.026162E-1,1.6442013E0,-3.4084496E0,1.0766213E1,-7.0302993E-1,3.1579366E-1,-3.691772E0,1.2639412E0,-4.9818543E-1,-4.7763938E-1,4.373415E0,-4.483855E0,-1.7673622E0,4.8259354E0,2.025172E1,-8.6051863E-1,2.2829516E0,-4.5341907E0,3.5369885E0,-3.3064646E-1,1.9966031E0,-3.7091255E0,8.6064833E-1],"categories":[],"categories_nodes":[],"categories_segments":[],"categories_sizes":[],"default_left":[true,true,true,true,false,true,false,true,true,false,false,true,true,true,true,true,true,true,false,true,true,true,true,false,false,false,false,false,false,false,false,false,false,false,false,false,false],"id":31,