{"learner":{"attributes":{"best_iteration":"329","best_ntree_limit":"330","scikit_learn":"{\"objective\": \"reg:squarederror\", \"learning_rate\": 0.25708406051266, \"verbosity\": 0, \"booster\": null, \"tree_method\": null, \"gamma\": 4.801194509487771, \"max_delta_step\": null, \"subsample\": 0.8717977841649704, \"colsample_bytree\": 0.7084549002413318, \"colsample_bylevel\": null, \"colsample_bynode\": null, \"reg_alpha\": 3.8867695461414256, \"reg_lambda\": null, \"scale_pos_weight\": null, \"base_score\": null, \"missing\": NaN, \"num_parallel_tree\": null, \"random_state\": null, \"n_jobs\": null, \"monotone_constraints\": null, \"interaction_constraints\": null, \"importance_type\": null, \"gpu_id\": null, \"validate_parameters\": null, \"predictor\": null, \"enable_categorical\": false, \"kwargs\": {\"nthread\": -1, \"seed\": 1}, \"_estimator_type\": \"regressor\"}"},"feature_names":["engine_size_cm3","power_ps","manufacturer","transmission","transmission_type","fuel","powertrain"],"feature_types":["int","int","int","int","int","int","int"],"gradient_booster":{"model":{"gbtree_model_param":{"num_trees":"330","size_leaf_vector":"0"},"tree_info":[0,0,0,0,0,0,0,0,0,0,0,0,0,0,0,0,0,0,0,0,0,0,0,0,0,0,0,0,0,0,0,0,0,0,0,0,0,0,0,0,0,0,0,0,0,0,0,0,0,0,0,0,0,0,0,0,0,0,0,0,0,0,0,0,0,0,0,0,0,0,0,0,0,0,0,0,0,0,0,0,0,0,0,0,0,0,0,0,0,0,0,0,0,0,0,0,0,0,0,0,0,0,0,0,0,0,0,0,0,0,0,0,0,0,0,0,0,0,0,0,0,0,0,0,0,0,0,0,0,0,0,0,0,0,0,0,0,0,0,0,0,0,0,0,0,0,0,0,0,0,0,0,0,0,0,0,0,0,0,0,0,0,0,0,0,0,0,0,0,0,0,0,0,0,0,0,0,0,0,0,0,0,0,0,0,0,0,0,0,0,0,0,0,0,0,0,0,0,0,0,0,0,0,0,0,0,0,0,0,0,0,0,0,0,0,0,0,0,0,0,0,0,0,0,0,0,0,0,0,0,0,0,0,0,0,0,0,0,0,0,0,0,0,0,0,0,0,0,0,0,0,0,0,0,0,0,0,0,0,0,0,0,0,0,0,0,0,0,0,0,0,0,0,0,0,0,0,0,0,0,0,0,0,0,0,0,0,0,0,0,0,0,0,0,0,0,0,0,0,0,0,0,0,0,0,0,0,0,0,0,0,0,0,0,0,0,0,0,0,0,0,0,0,0,0,0,0,0,0,0],"trees":[{"base_weights":[1.5410732E2,1.4379716E2,2.43349E2,-4.6572837E-1,1.4827231E2,2.1895506E2,2.8430682E2,1.353686E2,1.6885109E2,2.267409E2,1.9158818E2,1.4369325E2,1.04395195E2,1.7255574E2,1.1843345E2,1.3988942E2,1.5760912E2,3.3274708E1,1.2583078E2,1.6377621E2,1.8146878E2,3.7900696E1,1.335711E2,1.3201173E2,1.4366852E2,1.22108345E2,1.4873799E2,1.5152467E2,1.7025388E2,1.9496628E2,1.708771E2],"categories":[],"categories_nodes":[],"categories_segments":[],"categories_sizes":[],"default_left":[true,true,true,false,true,true,false,true,true,false,false,true,true,true,true,true,false,false,true,true,true,false,false,false,false,false,false,false,false,false,false],"id":0,"left_children":[1,3,5,-1,7,9,-1,11,13,-1,-1,15,17,19,21,23,-1,-1,25,27,29,-1,-1,-1,-1,-1,-1,-1,-1,-1,-1],"loss_changes":[4.294392E6,2.726352E6,4.21366E5,0E0,1.06336E6,2.0773E4,0E0,6.34316E5,2.72424E5,0E0,0E0,8.1868E4,8.15381E5,8.3496E4,1.29588625E5,2.6644E4,0E0,0E0,1.6002E4,3.2314E4,6.7766E4,0E0,0E0,0E0,0E0,0E0,0E0,0E0,0E0,0E0,0E0],"parents":[2147483647,0,0,1,1,2,2,4,4,5,5,7,7,8,8,11,11,12,12,13,13,14,14,15,15,18,18,19,19,20,20],"right_children":[2,4,6,-1,8,10,-1,12,14,-1,-1,16,18,20,22,24,-1,-1,26,28,30,-1,-1,-1,-1,-1,-1,-1,-1,-1,-1],"split_conditions":[2.4955E3,4.375E2,3.6275E3,-1.19731344E-1,1.9505E3,1.5E0,7.309076E1,1.5E0,2.374E3,5.8291473E1,4.925427E1,1.545E3,2E0,1.994E3,3.5E0,1.198E3,4.0518795E1,8.554398E0,5.5E0,3.5E0,1.9975E3,9.743665E0,3.4339005E1,3.3938114E1,3.6934887E1,3.139211E1,3.8238167E1,3.895458E1,4.3769558E1,5.0122726E1,4.3929783E1],"split_indices":[0,0,0,0,0,5,0,5,0,0,0,0,6,0,5,0,0,0,5,5,0,0,0,0,0,0,0,0,0,0,0],"split_type":[0,0,0,0,0,0,0,0,0,0,0,0,0,0,0,0,0,0,0,0,0,0,0,0,0,0,0,0,0,0,0],"sum_hessian":[4.706E3,4.221E3,4.85E2,1.27E2,4.094E3,3.08E2,1.77E2,2.521E3,1.573E3,2.34E2,7.4E1,1.984E3,5.37E2,1.463E3,1.1E2,1.567E3,4.17E2,1.25E2,4.12E2,7.47E2,7.16E2,1.8E1,9.2E1,5.2E2,1.047E3,3.6E2,5.2E1,2.67E2,4.8E2,3.07E2,4.09E2],"tree_param":{"num_deleted":"0","num_feature":"7","num_nodes":"31","size_leaf_vector":"0"}},{"base_weights":[1.1474518E2,1.0711457E2,1.8302379E2,-3.4471002E-1,1.102194E2,1.6353317E2,2.1316035E2,1.009967E2,1.2544357E2,1.6771469E2,1.3211412E2,1.9652782E2,2.4443813E2,1.22202805E2,9.973283E1,1.2838043E2,8.8342735E1,1.8364194E2,1.5514786E2,1.00011055E2,2.905175E1,1.4142772E2,1.2184816E2,8.420973E1,1.2375622E2,9.9414536E1,1.2857703E2,1.302715E2,1.6856682E2,1.0398696E2,1.2692986E2,7.28298E1,9.083474E1],"categories":[],"categories_nodes":[],"categories_segments":[],"categories_sizes":[],"default_left":[true,true,true,false,true,true,true,true,true,true,false,false,false,false,true,true,true,false,false,true,false,true,true,true,false,false,false,false,false,false,false,false,false],"id":1,"left_children":[1,3,5,-1,7,9,11,13,15,17,-1,-1,-1,-1,19,21,23,-1,-1,25,-1,27,29,31,-1,-1,-1,-1,-1,-1,-1,-1,-1],"loss_changes":[2.433212E6,1.414776E6,2.40921E5,0E0,5.64928E5,1.49085E4,4.4929E4,5.5858E4,1.56706E5,2.08305E4,0E0,0E0,0E0,0E0,4.442E4,1.0396E5,5.89475E3,0E0,0E0,2.7602E4,0E0,1.19787E5,7.331E4,8.908125E2,0E0,0E0,0E0,0E0,0E0,0E0,0E0,0E0,0E0],"parents":[2147483647,0,0,1,1,2,2,4,4,5,5,6,6,7,7,8,8,9,9,14,14,15,15,16,16,19,19,21,21,22,22,23,23],"right_children":[2,4,6,-1,8,10,12,14,16,18,-1,-1,-1,-1,20,22,24,-1,-1,26,-1,28,30,32,-1,-1,-1,-1,-1,-1,-1,-1,-1],"split_conditions":[2.4955E3,4.375E2,3.6275E3,-8.8619456E-2,1.9685E3,2.6E1,4.984E3,7.5E0,2.374E3,2.35E1,3.3964436E1,5.052417E1,6.284115E1,3.1416395E1,4E1,1.95E1,2.491E3,4.721142E1,3.9886044E1,3.95E1,7.4687424E0,1.85E1,2.4E1,2.15E1,3.1815752E1,2.5557894E1,3.3055107E1,3.3490726E1,4.3335842E1,2.673339E1,3.2631645E1,1.8723383E1,2.3352165E1],"split_indices":[0,0,0,0,0,3,0,2,0,2,0,0,0,0,3,2,0,0,0,2,0,2,2,2,0,0,0,0,0,0,0,0,0],"split_type":[0,0,0,0,0,0,0,0,0,0,0,0,0,0,0,0,0,0,0,0,0,0,0,0,0,0,0,0,0,0,0,0,0],"sum_hessian":[4.709E3,4.238E3,4.71E2,1.19E2,4.119E3,2.9E2,1.81E2,2.57E3,1.549E3,2.52E2,3.8E1,1.23E2,5.8E1,1.39E2,2.431E3,1.433E3,1.16E2,1.05E2,1.47E2,2.421E3,1E1,4.71E2,9.62E2,1.07E2,9E0,2.376E3,4.5E1,3.38E2,1.33E2,2.18E2,7.44E2,4.4E1,6.3E1],"tree_param":{"num_deleted":"0","num_feature":"7","num_nodes":"33","size_leaf_vector":"0"}},{"base_weights":[8.5330086E1,7.942342E1,1.3583017E2,-2.5767833E-1,8.180065E1,1.2140618E2,1.5984203E2,7.3924614E1,9.207427E1,1.2607331E2,1.0470254E2,1.5039233E2,2.102429E2,7.972318E1,5.3376713E1,1.0005572E2,7.977213E1,1.3813724E2,1.1383692E2,7.7591736E1,9.357554E1,8.472871E-1,6.73384E1,9.6260254E1,1.3100584E2,-1.3314516E1,9.1435524E1,9.766697E1,7.64764E1,1.02016945E2,8.184313E1,-3.4239764E0,1.2338639E1,7.689784E1,5.372873E1,8.838658E1,1.0083279E2,1.019543E2,1.4305731E2,-0E0,-1.6463474E1,8.270655E1,1.0991613E2],"categories":[],"categories_nodes":[],"categories_segments":[],"categories_sizes":[],"default_left":[true,true,true,false,true,true,true,true,true,true,false,false,false,true,true,true,true,false,false,true,true,true,true,true,true,true,true,false,false,false,false,false,false,false,false,false,false,false,false,false,false,false,false],"id":2,"left_children":[1,3,5,-1,7,9,11,13,15,17,-1,-1,-1,19,21,23,25,-1,-1,27,29,31,33,35,37,39,41,-1,-1,-1,-1,-1,-1,-1,-1,-1,-1,-1,-1,-1,-1,-1,-1],"loss_changes":[1.391216E6,7.98366E5,1.49557E5,0E0,3.23574E5,1.01475E4,5.3185E4,2.71771E5,1.65212E5,1.842875E4,0E0,0E0,0E0,4.5456E4,3.7664512E5,1.12199E5,7.636875E5,0E0,0E0,2.7074E4,1.4309E4,5.4268994E3,4.8181625E4,2.4807E4,2.4375375E4,3.3421152E3,9.0822E4,0E0,0E0,0E0,0E0,0E0,0E0,0E0,0E0,0E0,0E0,0E0,0E0,0E0,0E0,0E0,0E0],"parents":[2147483647,0,0,1,1,2,2,4,4,5,5,6,6,7,7,8,8,9,9,13,13,14,14,15,15,16,16,19,19,20,20,21,21,22,22,23,23,24,24,25,25,26,26],"right_children":[2,4,6,-1,8,10,12,14,16,18,-1,-1,-1,20,22,24,26,-1,-1,28,30,32,34,36,38,40,42,-1,-1,-1,-1,-1,-1,-1,-1,-1,-1,-1,-1,-1,-1,-1,-1],"split_conditions":[2.4955E3,4.375E2,3.6275E3,-6.6245E-2,1.7985E3,5E-1,5.9425E3,5E-1,5E-1,2.35E1,2.6917355E1,3.8663475E1,5.4050102E1,1.5445E3,2E0,1.6E1,2.5E0,3.5512882E1,2.926566E1,7.5E0,5.5E0,1.25E1,2.8E1,4.5E0,1.85E1,1.9595E3,3.75E1,2.5108622E1,1.9660866E1,2.622693E1,2.1040565E1,-8.802498E-1,3.1720676E0,1.976921E1,1.38128E1,2.2722782E1,2.5922503E1,2.6210827E1,3.6777756E1,-0E0,-4.232497E0,2.1262537E1,2.8257687E1],"split_indices":[0,0,0,0,0,6,0,6,6,2,0,0,0,0,6,3,6,0,0,2,3,3,2,3,2,0,3,0,0,0,0,0,0,0,0,0,0,0,0,0,0,0,0],"split_type":[0,0,0,0,0,0,0,0,0,0,0,0,0,0,0,0,0,0,0,0,0,0,0,0,0,0,0,0,0,0,0,0,0,0,0,0,0,0,0,0,0,0,0],"sum_hessian":[4.702E3,4.212E3,4.9E2,1.22E2,4.09E3,3.1E2,1.8E2,2.32E3,1.77E3,2.37E2,7.3E1,1.55E2,2.5E1,1.807E3,5.13E2,1.069E3,7.01E2,1.14E2,1.23E2,1.572E3,2.35E2,1.08E2,4.05E2,9.56E2,1.13E2,7.8E1,6.23E2,7.8E1,1.494E3,1.32E2,1.03E2,7.9E1,2.9E1,2.35E2,1.7E2,3.59E2,5.97E2,3.6E1,7.7E1,1.5E1,6.3E1,4.27E2,1.96E2],"tree_param":{"num_deleted":"0","num_feature":"7","num_nodes":"43","size_leaf_vector":"0"}},{"base_weights":[6.3437626E1,5.9396305E1,1.056983E2,-1.9224153E-1,6.1141537E1,9.534986E1,1.3005254E2,4.7814976E1,6.582738E1,9.903719E1,7.274137E1,1.1600092E2,1.4863231E2,-9.175215E0,4.9047596E1,7.049931E1,5.5194565E1,1.1730585E2,9.5483E1,4.6370193E1,1.2038176E2,-3.0859582E0,-1.8549229E1,5.4420227E1,4.044298E1,6.543785E1,8.782022E1,-4.2753735E0,6.561737E1,7.056285E1,1.2602141E2,6.714854E1,9.726181E1,-4.0701594E0,-6.8385243E-1,5.237192E1,7.820243E1,4.944391E1,3.2964615E1,6.429681E1,8.1479065E1,8.333565E1,1.0549853E2,4.249201E-2,-1.5492108E1,5.3325233E1,7.459499E1,7.922078E1,4.4687847E1],"categories":[],"categories_nodes":[],"categories_segments":[],"categories_sizes":[],"default_left":[true,true,true,false,true,true,true,true,true,true,false,true,false,true,true,true,true,true,true,false,false,true,false,true,true,true,true,true,true,false,false,true,false,false,false,false,false,false,false,false,false,false,false,false,false,false,false,false,false],"id":3,"left_children":[1,3,5,-1,7,9,11,13,15,17,-1,19,-1,21,23,25,27,29,31,-1,-1,33,-1,35,37,39,41,43,45,-1,-1,47,-1,-1,-1,-1,-1,-1,-1,-1,-1,-1,-1,-1,-1,-1,-1,-1,-1],"loss_changes":[8.01938E5,4.50031E5,9.0559E4,0E0,2.58809E5,1.655425E4,1.3058875E4,7.766625E4,1.49913E5,4.13975E3,0E0,1.603775E4,0E0,1.2286056E3,4.708075E4,1.82497E5,5.912295E5,5.009625E3,3.615875E3,0E0,0E0,1.6565338E1,0E0,2.7450125E4,2.6119062E4,2.478E4,2.88455E4,6.986534E3,8.502225E4,0E0,0E0,3.1660156E2,0E0,0E0,0E0,0E0,0E0,0E0,0E0,0E0,0E0,0E0,0E0,0E0,0E0,0E0,0E0,0E0,0E0],"parents":[2147483647,0,0,1,1,2,2,4,4,5,5,6,6,7,7,8,8,9,9,11,11,13,13,14,14,15,15,16,16,17,17,18,18,21,21,23,23,24,24,25,25,26,26,27,27,28,28,31,31],"right_children":[2,4,6,-1,8,10,12,14,16,18,-1,20,-1,22,24,26,28,30,32,-1,-1,34,-1,36,38,40,42,44,46,-1,-1,48,-1,-1,-1,-1,-1,-1,-1,-1,-1,-1,-1,-1,-1,-1,-1,-1,-1],"split_conditions":[2.952E3,4.375E2,5.175E2,-4.9422238E-2,1.165E2,4.5E0,4.4975E3,3.3E1,5E-1,2.62E2,1.8700647E1,5.5E0,3.8211E1,1.9705E3,2.5E0,1.955E2,2.5E0,1.69E2,3.03E2,1.1921038E1,3.0948233E1,1.641E3,-4.768711E0,1.5485E3,1.4755E3,1.9995E3,1.35E1,3.13E2,1.845E2,1.8140585E1,3.2398098E1,2.89E2,2.5004461E1,-1.0463731E0,-1.7580757E-1,1.3463986E1,2.0104599E1,1.2711242E1,8.474677E0,1.6529684E1,2.094697E1,2.1424267E1,2.712199E1,1.0924019E-2,-3.9827743E0,1.3709068E1,1.9177185E1,2.03664E1,1.1488534E1],"split_indices":[0,0,1,0,1,6,0,1,6,1,0,3,0,0,3,1,6,1,1,0,0,0,0,0,0,0,3,1,1,0,0,1,0,0,0,0,0,0,0,0,0,0,0,0,0,0,0,0,0],"split_type":[0,0,0,0,0,0,0,0,0,0,0,0,0,0,0,0,0,0,0,0,0,0,0,0,0,0,0,0,0,0,0,0,0,0,0,0,0,0,0,0,0,0,0,0,0,0,0,0,0],"sum_hessian":[4.735E3,4.324E3,4.11E2,1.23E2,4.201E3,2.92E2,1.19E2,1.096E3,3.105E3,2.48E2,4.4E1,7.2E1,4.7E1,2.3E1,1.073E3,2.153E3,9.52E2,3.5E1,2.13E2,5E0,6.7E1,1.5E1,8E0,6.57E2,4.16E2,1.67E3,4.83E2,1.42E2,8.1E2,7E0,2.8E1,1.5E1,1.98E2,9E0,6E0,6.08E2,4.9E1,1.86E2,2.3E2,1.564E3,1.06E2,3.9E2,9.3E1,1.03E2,3.9E1,3.45E2,4.65E2,8E0,7E0],"tree_param":{"num_deleted":"0","num_feature":"7","num_nodes":"49","size_leaf_vector":"0"}},{"base_weights":[4.737133E1,4.4164837E1,7.5631584E1,-1.4321788E-1,4.5496037E1,7.086576E1,9.905222E1,4.2381733E1,5.4207806E1,8.119361E1,6.793506E1,8.967411E1,1.2954486E2,4.2906536E1,1.1497512E1,5.8041584E1,4.001037E1,5.1884674E1,7.191741E1,9.822534E1,7.357765E1,4.148276E1,5.192188E1,7.1553698E0,1.9085884E1,5.5292118E1,7.603866E1,-8.621037E0,4.7294777E1,7.5000084E1,5.5099648E1,8.053321E1,4.7375145E1,4.4410023E1,3.0557714E1,2.7971573E1,5.6803543E1,6.1544464E1,4.8171516E1,3.887391E1,8.062595E1,-1.6414843E1,-3.319362E0,5.4141342E1,3.6986168E1,4.5298565E1,7.578198E1],"categories":[],"categories_nodes":[],"categories_segments":[],"categories_sizes":[],"default_left":[true,true,true,false,true,true,true,true,true,false,true,true,false,true,true,true,true,false,true,false,true,true,true,false,false,true,true,true,true,true,false,false,false,false,false,false,false,false,false,false,false,false,false,false,false,false,false],"id":4,"left_children":[1,3,5,-1,7,9,11,13,15,-1,17,19,-1,21,23,25,27,-1,29,-1,31,33,35,-1,-1,37,39,41,43,45,-1,-1,-1,-1,-1,-1,-1,-1,-1,-1,-1,-1,-1,-1,-1,-1,-1],"loss_changes":[4.21728E5,2.49091E5,4.556225E4,0E0,1.08483E5,6.01175E3,9.83625E3,4.82925E4,5.580875E4,0E0,1.6113375E4,7.7665625E2,0E0,3.5631E4,1.4748291E3,3.704825E4,8.274425E4,0E0,8.4265E3,0E0,4.2615625E2,8.06055E4,4.49655E4,0E0,0E0,2.9376E4,1.49843125E4,1.149738E3,1.19001875E4,9.73375E2,0E0,0E0,0E0,0E0,0E0,0E0,0E0,0E0,0E0,0E0,0E0,0E0,0E0,0E0,0E0,0E0,0E0],"parents":[2147483647,0,0,1,1,2,2,4,4,5,5,6,6,7,7,8,8,10,10,11,11,13,13,14,14,15,15,16,16,18,18,20,20,21,21,22,22,25,25,26,26,27,27,28,28,29,29],"right_children":[2,4,6,-1,8,10,12,14,16,-1,18,20,-1,22,24,26,28,-1,30,-1,32,34,36,-1,-1,38,40,42,44,46,-1,-1,-1,-1,-1,-1,-1,-1,-1,-1,-1,-1,-1,-1,-1,-1,-1],"split_conditions":[2.491E3,4.375E2,3.995E3,-3.6819033E-2,1.989E3,7E0,6.116E3,1.9855E3,5E-1,2.0873585E1,2.952E3,4.9995E3,3.330392E1,1.9685E3,3.45E1,1.6E1,2.5E0,1.3338723E1,4.5E0,2.525217E1,1.35E1,5E-1,2.5E0,1.8395315E0,4.906677E0,1.9975E3,1.996E3,1.994E3,1.997E3,9.5E0,1.4165242E1,2.0703806E1,1.2179395E1,1.14171095E1,7.8559017E0,7.1910458E0,1.4603286E1,1.5822102E1,1.238413E1,9.993863E0,2.0727648E1,-4.2199945E0,-8.5335505E-1,1.3918877E1,9.508554E0,1.1645539E1,1.948234E1],"split_indices":[0,0,0,0,0,3,0,0,6,0,0,0,0,0,3,3,6,0,6,0,3,6,6,0,0,0,0,0,0,3,0,0,0,0,0,0,0,0,0,0,0,0,0,0,0,0,0],"split_type":[0,0,0,0,0,0,0,0,0,0,0,0,0,0,0,0,0,0,0,0,0,0,0,0,0,0,0,0,0,0,0,0,0,0,0,0,0,0,0,0,0,0,0,0,0,0,0],"sum_hessian":[4.695E3,4.219E3,4.76E2,1.23E2,4.096E3,3.99E2,7.7E1,3.022E3,1.074E3,8.2E1,3.17E2,6.2E1,1.5E1,2.971E3,5.1E1,8.43E2,2.31E2,6.6E1,2.51E2,3.7E1,2.5E1,2.571E3,4E2,3.4E1,1.7E1,7.35E2,1.08E2,3E1,2.01E2,2.09E2,4.2E1,1.8E1,7E0,2.025E3,5.46E2,6.9E1,3.31E2,3.87E2,3.48E2,1.3E1,9.5E1,1.1E1,1.9E1,1.18E2,8.3E1,7E0,2.02E2],"tree_param":{"num_deleted":"0","num_feature":"7","num_nodes":"47","size_leaf_vector":"0"}},{"base_weights":[3.51205E1,3.882918E1,2.6532131E1,3.3538136E1,4.3151104E1,-6.6708546E0,3.5883648E1,3.2948643E1,5.0110264E1,4.513236E1,3.222091E1,-1.10832205E1,-1.0771036E-1,3.3492363E1,4.7055756E1,3.7241444E1,3.018129E1,4.168429E0,5.7575443E1,4.2754128E1,5.9640553E1,2.6417877E1,4.936289E1,-1.2338476E1,1.2105494E1,3.9202976E1,2.5951138E1,4.947945E1,3.9783836E1,3.959374E1,3.158923E1,1.7451042E1,3.1151215E1,4.6551662E1,3.626063E1,4.1006893E1,6.864123E1,2.7486933E1,1.5710453E1,-6.1623807E0,-1.4720756E1,3.4506676E1,5.0518406E1,2.1714108E1,3.366731E1,3.5342636E1,4.282168E1,2.6154446E1,4.1566036E1,3.1019451E1,1.4435561E0,4.6555557E1,2.9754501E1,4.9985775E1,2.8812416E1,3.0397095E1,4.0434334E1,4.4467396E1,3.2071133E1,7.6619675E1,5.9528885E1,2.2821999E1,3.1258488E1,-1.294857E1,-2.3852215E0,-1.5914674E1,-5.125734E0,3.2757904E1,4.43739E1,5.5309475E1,3.791731E1,3.5167587E1,2.073898E1],"categories":[],"categories_nodes":[],"categories_segments":[],"categories_sizes":[],"default_left":[true,true,true,true,true,true,true,true,true,true,true,true,false,true,true,true,true,false,false,true,true,true,false,true,false,true,true,false,false,true,true,true,true,true,true,true,true,true,false,true,true,true,true,true,false,false,false,false,false,false,false,false,false,false,false,false,false,false,false,false,false,false,false,false,false,false,false,false,false,false,false,false,false],"id":5,"left_children":[1,3,5,7,9,11,13,15,17,19,21,23,-1,25,27,29,31,-1,-1,33,35,37,-1,39,-1,41,43,-1,-1,45,47,49,51,53,55,57,59,61,-1,63,65,67,69,71,-1,-1,-1,-1,-1,-1,-1,-1,-1,-1,-1,-1,-1,-1,-1,-1,-1,-1,-1,-1,-1,-1,-1,-1,-1,-1,-1,-1,-1],"loss_changes":[1.493735E5,7.374E4,4.4436562E5,1.2572375E4,3.75065E4,9.077394E3,2.7925625E4,1.5732625E4,1.6325258E4,4.9912E4,2.6453469E4,5.6225254E3,0E0,3.8478312E4,1.1038125E3,5.9181875E3,1.01578125E4,0E0,0E0,3.054025E4,3.2482438E4,1.8384375E3,0E0,2.4617793E3,0E0,2.5718875E4,1.2163844E4,0E0,0E0,3.5481875E3,7.8673594E3,1.3946791E4,1.59178125E4,4.8754875E4,1.05361875E4,5.0279688E2,5.2335E3,2.4544844E3,0E0,1.2424067E3,1.3029727E3,4.6829062E3,6.65675E3,2.4905078E3,0E0,0E0,0E0,0E0,0E0,0E0,0E0,0E0,0E0,0E0,0E0,0E0,0E0,0E0,0E0,0E0,0E0,0E0,0E0,0E0,0E0,0E0,0E0,0E0,0E0,0E0,0E0,0E0,0E0],"parents":[2147483647,0,0,1,1,2,2,3,3,4,4,5,5,6,6,7,7,8,8,9,9,10,10,11,11,13,13,14,14,15,15,16,16,19,19,20,20,21,21,23,23,25,25,26,26,29,29,30,30,31,31,32,32,33,33,34,34,35,35,36,36,37,37,39,39,40,40,41,41,42,42,43,43],"right_children":[2,4,6,8,10,12,14,16,18,20,22,24,-1,26,28,30,32,-1,-1,34,36,38,-1,40,-1,42,44,-1,-1,46,48,50,52,54,56,58,60,62,-1,64,66,68,70,72,-1,-1,-1,-1,-1,-1,-1,-1,-1,-1,-1,-1,-1,-1,-1,-1,-1,-1,-1,-1,-1,-1,-1,-1,-1,-1,-1,-1,-1],"split_conditions":[5E-1,4.5E0,2.5E0,3.6E1,1.95E1,1.5E0,3.95E1,1.4E1,1E0,1.6E1,2.15E1,4.05E1,-2.7690617E-2,2.8E1,5.5E0,5E-1,1.65E1,1.0716367E0,1.4801729E1,5E-1,1.85E1,3.15E1,1.26904125E1,2.25E1,3.1121297E0,2.25E1,3.95E1,1.2720379E1,1.0227791E1,5E-1,1.25E1,2.5E0,2.25E1,1.15E1,5.5E0,5E-1,5E-1,2.15E1,4.038907E0,1.25E1,6E0,5.5E0,5.5E0,4.5E0,8.655329E0,9.086029E0,1.1008771E1,6.7238913E0,1.0685966E1,7.974607E0,3.7111527E-1,1.1968692E1,7.6494083E0,1.2850547E1,7.407213E0,7.814609E0,1.0395023E1,1.1431859E1,8.244977E0,1.9697699E1,1.5303928E1,5.8671722E0,8.036059E0,-3.3288713E0,-6.1320245E-1,-4.091409E0,-1.3177445E0,8.4215355E0,1.1407824E1,1.4219185E1,9.747936E0,9.041026E0,5.331661E0],"split_indices":[6,3,6,2,3,6,3,2,3,3,2,3,0,2,5,5,2,0,0,5,2,3,0,2,0,2,2,0,0,3,2,3,2,3,3,5,5,3,0,3,5,5,5,6,0,0,0,0,0,0,0,0,0,0,0,0,0,0,0,0,0,0,0,0,0,0,0,0,0,0,0,0,0],"split_type":[0,0,0,0,0,0,0,0,0,0,0,0,0,0,0,0,0,0,0,0,0,0,0,0,0,0,0,0,0,0,0,0,0,0,0,0,0,0,0,0,0,0,0,0,0,0,0,0,0,0,0,0,0,0,0,0,0,0,0,0,0,0,0,0,0,0,0,0,0,0,0,0,0],"sum_hessian":[4.729E3,3.3E3,1.429E3,1.488E3,1.812E3,3.14E2,1.115E3,1.44E3,4.8E1,1.531E3,2.81E2,1.87E2,1.27E2,9.22E2,1.93E2,5.59E2,8.81E2,7E0,4.1E1,1.319E3,2.12E2,2.12E2,6.9E1,1.78E2,9E0,5.22E2,4E2,1.4E2,5.3E1,3.9E2,1.69E2,6.4E1,8.17E2,8.28E2,4.91E2,7.1E1,1.41E2,1.91E2,2.1E1,5.1E1,1.27E2,3.72E2,1.5E2,2.61E2,1.39E2,1.74E2,2.16E2,1.12E2,5.7E1,3.4E1,3E1,6.5E1,7.52E2,6.92E2,1.36E2,2.08E2,2.83E2,4.8E1,2.3E1,7.1E1,7E1,8.9E1,1.02E2,1.7E1,3.4E1,1.12E2,1.5E1,3.2E2,5.2E1,1.06E2,4.4E1,1.5E1,2.46E2],"tree_param":{"num_deleted":"0","num_feature":"7","num_nodes":"73","size_leaf_vector":"0"}},{"base_weights":[2.5911484E1,2.225408E1,3.5412495E1,1.3552978E1,2.4584082E1,3.2996914E1,5.9686634E1,2.3171871E1,8.210713E0,-1.848997E-2,2.4976519E1,2.8369394E1,3.710147E1,5.5545643E1,8.388321E1,-0E0,2.4412376E1,-2.0305073E0,1.0780019E1,2.3832396E1,3.0220879E1,2.3398083E1,3.8850895E1,4.1026894E1,2.4066906E1,5.7336113E1,1.6395893E1,2.6106644E1,7.631858E0,-5.4354597E-2,-7.327044E0,1.371263E1,5.2924523E0,2.4340046E1,1.1472255E1,3.2887E1,9.483623E0,2.2147528E1,4.9011066E1,4.298348E1,2.4594273E1,4.554256E1,3.0532661E1,-1.027901E1,2.9857695E1,2.2853886E1,5.169218E1,8.39939E0,1.6408937E1,-1.5349023E0,1.241329E1,2.505599E1,1.6298317E1,-1.0155355E1,1.8039818E1,4.0631908E-1,3.4094296E1,-1.3600559E1,5.0755306E1,2.4667671E1,9.167556E0,3.1792246E1,6.035235E1,3.850609E1,4.979015E1,3.8121773E1,2.170885E1,4.453169E1,7.3453026E1,4.856412E1,2.810467E1,-5.203954E0,-2.2297373E1,1.9137842E1,3.607957E1],"categories":[],"categories_nodes":[],"categories_segments":[],"categories_sizes":[],"default_left":[true,true,true,true,true,true,true,true,true,false,true,true,true,true,false,false,true,true,true,true,true,true,true,true,true,false,false,true,false,false,false,true,true,true,true,true,true,true,true,true,true,true,true,true,true,false,false,false,false,false,false,false,false,false,false,false,false,false,false,false,false,false,false,false,false,false,false,false,false,false,false,false,false,false,false],"id":6,"left_children":[1,3,5,7,9,11,13,15,17,-1,19,21,23,25,-1,-1,27,29,31,33,35,37,39,41,43,-1,-1,45,-1,-1,-1,47,49,51,53,55,57,59,61,63,65,67,69,71,73,-1,-1,-1,-1,-1,-1,-1,-1,-1,-1,-1,-1,-1,-1,-1,-1,-1,-1,-1,-1,-1,-1,-1,-1,-1,-1,-1,-1,-1,-1],"loss_changes":[1.6276E5,6.8570375E4,7.43665E4,3.678892E4,2.6021E4,2.133375E4,6.521875E3,7.4228125E3,1.2317672E4,0E0,1.492825E4,2.8289312E4,3.0891875E4,5.99325E3,0E0,0E0,6.6067188E3,9.5478796E2,5.856211E3,1.322875E4,2.5453531E4,1.1001703E4,9.285219E3,2.1107625E4,2.981871E4,0E0,0E0,1.6921297E4,0E0,0E0,0E0,3.2326719E3,6.4787104E3,1.14525E4,1.2713429E4,1.612575E4,5.3234484E4,1.17455625E4,1.0429375E3,1.9452969E3,6.1827344E2,5.6939375E3,4.8166094E3,1.1189392E3,7.565492E3,0E0,0E0,0E0,0E0,0E0,0E0,0E0,0E0,0E0,0E0,0E0,0E0,0E0,0E0,0E0,0E0,0E0,0E0,0E0,0E0,0E0,0E0,0E0,0E0,0E0,0E0,0E0,0E0,0E0,0E0],"parents":[2147483647,0,0,1,1,2,2,3,3,4,4,5,5,6,6,7,7,8,8,10,10,11,11,12,12,13,13,16,16,17,17,18,18,19,19,20,20,21,21,22,22,23,23,24,24,27,27,31,31,32,32,33,33,34,34,35,35,36,36,37,37,38,38,39,39,40,40,41,41,42,42,43,43,44,44],"right_children":[2,4,6,8,10,12,14,16,18,-1,20,22,24,26,-1,-1,28,30,32,34,36,38,40,42,44,-1,-1,46,-1,-1,-1,48,50,52,54,56,58,60,62,64,66,68,70,72,74,-1,-1,-1,-1,-1,-1,-1,-1,-1,-1,-1,-1,-1,-1,-1,-1,-1,-1,-1,-1,-1,-1,-1,-1,-1,-1,-1,-1,-1,-1],"split_conditions":[1.994E3,9.85E1,5.175E2,1.25E1,4.94E2,1.92E2,6.2145E3,4.375E2,3.3E1,-4.753477E-3,2.27E2,2.4E1,5E-1,7.275E2,2.1565037E1,-0E0,1.4145E3,6.66E2,1.4755E3,1.985E2,3.15E2,2.1955E3,5E-1,2.4E1,2.5E0,1.4740201E1,4.215123E0,1.305E3,1.9620291E0,-1.3973701E-2,-1.8836663E0,8.25E1,3E0,1.9855E3,1.436E3,1.5375E3,4.13E2,1.855E2,1.695E2,2.07E3,2.241E3,2.15E1,2.31E2,2.25E1,2.4905E3,5.87537E0,1.3289236E1,2.1593494E0,4.2184763E0,-3.9459893E-1,3.1912591E0,6.441496E0,4.1900377E0,-2.6107802E0,4.6377497E0,1.0445816E-1,8.7651005E0,-3.4964871E0,1.3048381E1,6.3416653E0,2.3568325E0,8.17328E0,1.5515628E1,9.899302E0,1.2800255E1,9.800501E0,5.581E0,1.1448388E1,1.8883602E1,1.2485062E1,7.225263E0,-1.3378538E0,-5.7322993E0,4.9200344E0,9.275483E0],"split_indices":[0,1,1,2,0,1,0,0,1,0,1,2,6,1,0,0,0,0,0,1,1,0,6,2,6,0,0,0,0,0,0,1,6,0,0,0,1,1,1,0,0,2,1,2,0,0,0,0,0,0,0,0,0,0,0,0,0,0,0,0,0,0,0,0,0,0,0,0,0,0,0,0,0,0,0],"split_type":[0,0,0,0,0,0,0,0,0,0,0,0,0,0,0,0,0,0,0,0,0,0,0,0,0,0,0,0,0,0,0,0,0,0,0,0,0,0,0,0,0,0,0,0,0,0,0,0,0,0,0,0,0,0,0,0,0,0,0,0,0,0,0,0,0,0,0,0,0,0,0,0,0,0,0],"sum_hessian":[4.712E3,3.405E3,1.307E3,7.21E2,2.684E3,1.191E3,1.16E2,2.56E2,4.65E2,4.2E1,2.642E3,5.64E2,6.27E2,1.02E2,1.4E1,1.3E1,2.43E2,9.3E1,3.72E2,2.174E3,4.68E2,3.85E2,1.79E2,4.8E2,1.47E2,9.7E1,5E0,2.2E2,2.3E1,6.9E1,2.4E1,2.41E2,1.31E2,2.087E3,8.7E1,4.14E2,5.4E1,3.69E2,1.6E1,1.37E2,4.2E1,3.33E2,1.47E2,2.1E1,1.26E2,1.97E2,2.3E1,8.3E1,1.58E2,6.7E1,6.4E1,1.914E3,1.73E2,2E1,6.7E1,1.5E1,3.99E2,3.5E1,1.9E1,3.08E2,6.1E1,8E0,8E0,8.7E1,5E1,5E0,3.7E1,3.24E2,9E0,1.5E1,1.32E2,1.6E1,5E0,4.8E1,7.8E1],"tree_param":{"num_deleted":"0","num_feature":"7","num_nodes":"75","size_leaf_vector":"0"}},{"base_weights":[1.948293E1,1.6962091E1,2.7592447E1,1.2142759E1,1.9360043E1,3.6443066E1,2.0703926E1,-1.0043644E0,1.3411385E1,2.0881239E1,1.4988664E1,3.3583076E1,4.6974014E1,1.3402542E1,2.5603292E1,-1.4934683E0,2.3105102E0,1.5953442E1,9.451658E0,1.8676577E1,2.4195316E1,-3.6251383E0,1.770558E1,3.863272E1,3.0601746E1,5.420249E1,4.1490147E1,2.2484385E1,-7.0658374E0,2.6332796E1,-6.5571613E0,-5.3457856E0,-4.078015E-2,1.7092922E1,8.168146E0,4.5013347E0,1.1065579E1,2.0336874E1,1.7023634E1,3.1493093E1,2.0678246E1,9.094468E0,-4.646195E0,1.6142338E1,2.4283258E1,5.503359E1,3.317713E1,2.67294E1,3.8803757E1,1.8520676E1,2.8508455E1,1.1873434E0,-1.5660744E1,1.6419888E1,2.8359594E1,1.5847133E1,3.1735472E1,9.138591E0,-2.0714753E0,1.623983E1,2.6831555E0,2.9706257E1,9.984655E0,1.8211332E1,2.1726309E1,1.3289293E1,1.8062529E1,2.8053858E1,3.9939034E1,1.3116872E1,2.2966309E1,-7.508039E0,-0E0,6.0934715E0,1.6926807E1,2.7863802E1,1.5458614E1,4.4022823E1,7.030995E1,2.0768368E1,2.903814E1,4.3093132E1,1.9514263E1,1.9603998E1,8.630438E0,1.5835683E1,2.9639389E1,-2.1987038E0,5.0469666E0,-3.0838411E1,-1.0623758E1,-4.254964E0,1.866041E1,2.750164E1,4.5084064E1],"categories":[],"categories_nodes":[],"categories_segments":[],"categories_sizes":[],"default_left":[true,true,true,true,true,true,true,true,true,true,true,true,true,true,true,true,false,true,true,true,true,true,true,true,true,false,false,true,true,true,false,false,false,true,true,true,true,true,true,true,true,false,true,true,true,true,false,true,true,true,true,true,true,true,true,false,false,false,false,false,false,false,false,false,false,false,false,false,false,false,false,false,false,false,false,false,false,false,false,false,false,false,false,false,false,false,false,false,false,false,false,false,false,false,false],"id":7,"left_children":[1,3,5,7,9,11,13,15,17,19,21,23,25,27,29,31,-1,33,35,37,39,41,43,45,47,-1,-1,49,51,53,-1,-1,-1,55,57,59,61,63,65,67,69,-1,71,73,75,77,-1,79,81,83,85,87,89,91,93,-1,-1,-1,-1,-1,-1,-1,-1,-1,-1,-1,-1,-1,-1,-1,-1,-1,-1,-1,-1,-1,-1,-1,-1,-1,-1,-1,-1,-1,-1,-1,-1,-1,-1,-1,-1,-1,-1,-1,-1],"loss_changes":[9.5562625E4,4.1165062E4,6.694131E4,2.0026188E4,1.5487E4,1.27469375E4,2.2005938E4,1.7213475E2,1.0742375E4,1.2350375E4,3.1625344E4,4.35975E3,1.3828438E3,4.76209E4,9.047469E3,5.0488992E2,0E0,5.643797E3,3.3251406E3,2.4478125E3,1.7241094E4,1.0639606E3,5.0445625E3,1.0268516E4,6.584828E3,0E0,0E0,3.5155547E3,5.6787393E3,6.7338594E3,0E0,0E0,0E0,9.837516E3,9.109165E2,2.1878875E3,6.0573047E3,1.0084375E3,1.7485938E3,5.2090938E3,7.8456406E3,0E0,9.7401514E2,3.2995547E3,2.6237773E3,2.0111172E3,0E0,1.5704844E3,5.286703E3,8.996406E2,3.2847266E2,5.5799084E2,2.4927637E3,3.1463496E3,2.8256875E3,0E0,0E0,0E0,0E0,0E0,0E0,0E0,0E0,0E0,0E0,0E0,0E0,0E0,0E0,0E0,0E0,0E0,0E0,0E0,0E0,0E0,0E0,0E0,0E0,0E0,0E0,0E0,0E0,0E0,0E0,0E0,0E0,0E0,0E0,0E0,0E0,0E0,0E0,0E0,0E0],"parents":[2147483647,0,0,1,1,2,2,3,3,4,4,5,5,6,6,7,7,8,8,9,9,10,10,11,11,12,12,13,13,14,14,15,15,17,17,18,18,19,19,20,20,21,21,22,22,23,23,24,24,27,27,28,28,29,29,33,33,34,34,35,35,36,36,37,37,38,38,39,39,40,40,42,42,43,43,44,44,45,45,47,47,48,48,49,49,50,50,51,51,52,52,53,53,54,54],"right_children":[2,4,6,8,10,12,14,16,18,20,22,24,26,28,30,32,-1,34,36,38,40,42,44,46,48,-1,-1,50,52,54,-1,-1,-1,56,58,60,62,64,66,68,70,-1,72,74,76,78,-1,80,82,84,86,88,90,92,94,-1,-1,-1,-1,-1,-1,-1,-1,-1,-1,-1,-1,-1,-1,-1,-1,-1,-1,-1,-1,-1,-1,-1,-1,-1,-1,-1,-1,-1,-1,-1,-1,-1,-1,-1,-1,-1,-1,-1,-1],"split_conditions":[2.315E2,1.165E2,5E-1,6.65E1,1.5E0,5.175E2,4E0,3.3E1,2.5E0,1.615E2,4E0,5.5E0,8E0,1.5E0,6.5E0,1.15E1,5.9399533E-1,1.145E2,4E0,4.5E0,1.775E2,1.33E2,5.5E0,2.75E2,1.35E1,1.3934597E1,1.0666456E1,1.35E1,3.365E2,9.5E0,-1.6857418E0,-1.3743163E0,-1.0483927E-2,1.105E2,1.155E2,9.05E1,5.5E0,1.315E2,5.5E0,1.67E2,5E-1,2.338043E0,2.5E0,4E0,1.955E2,2.665E2,8.529312E0,6.5E0,1.8E1,3.35E2,2.365E2,3.1E1,2.8E1,2.475E2,5.3E2,4.074045E0,8.158685E0,2.3493862E0,-5.325433E-1,4.1750016E0,6.8979657E-1,7.6370053E0,2.566896E0,4.6818433E0,5.585488E0,3.4164655E0,4.6435885E0,7.2122E0,1.026769E1,3.3721387E0,5.904272E0,-1.9301972E0,-0E0,1.5665345E0,4.3516126E0,7.1633396E0,3.9741635E0,1.1317567E1,1.807557E1,5.3392167E0,7.465243E0,1.1078558E1,5.016806E0,5.0398755E0,2.218748E0,4.0711017E0,7.619815E0,-5.652517E-1,1.2974948E0,-7.9280643E0,-2.731199E0,-1.0938834E0,4.797294E0,7.070234E0,1.1590395E1],"split_indices":[1,1,5,1,5,1,5,1,3,1,5,3,3,5,5,3,0,1,3,3,1,1,5,1,3,0,0,3,1,3,0,0,0,1,1,1,3,1,3,1,4,0,5,3,1,1,0,3,3,1,1,3,3,1,1,0,0,0,0,0,0,0,0,0,0,0,0,0,0,0,0,0,0,0,0,0,0,0,0,0,0,0,0,0,0,0,0,0,0,0,0,0,0,0,0],"split_type":[0,0,0,0,0,0,0,0,0,0,0,0,0,0,0,0,0,0,0,0,0,0,0,0,0,0,0,0,0,0,0,0,0,0,0,0,0,0,0,0,0,0,0,0,0,0,0,0,0,0,0,0,0,0,0,0,0,0,0,0,0,0,0,0,0,0,0,0,0,0,0,0,0,0,0,0,0,0,0,0,0,0,0,0,0,0,0,0,0,0,0,0,0,0,0],"sum_hessian":[4.705E3,3.592E3,1.113E3,1.196E3,2.396E3,4.85E2,6.28E2,1.05E2,1.091E3,1.774E3,6.22E2,3.85E2,1E2,2.54E2,3.74E2,9.3E1,1.2E1,6.62E2,4.29E2,1.07E3,7.04E2,7.9E1,5.43E2,1.38E2,2.47E2,3.9E1,6.1E1,1.76E2,7.8E1,3.66E2,8E0,2.4E1,6.9E1,5.76E2,8.6E1,1.07E2,3.22E2,5.27E2,5.43E2,2.26E2,4.78E2,5E0,7.4E1,4.42E2,1.01E2,3.2E1,1.06E2,1.71E2,7.6E1,1.09E2,6.7E1,4E1,3.8E1,6.4E1,3.02E2,5.33E2,4.3E1,7.9E1,7E0,1.3E1,9.4E1,1.6E1,3.06E2,2.15E2,3.12E2,1.22E2,4.21E2,1.64E2,6.2E1,1.13E2,3.65E2,4.5E1,2.9E1,3.3E1,4.09E2,7E1,3.1E1,2.1E1,1.1E1,5.1E1,1.2E2,6.1E1,1.5E1,9.7E1,1.2E1,7E0,6E1,2.1E1,1.9E1,8E0,3E1,6E0,5.8E1,2.9E2,1.2E1],"tree_param":{"num_deleted":"0","num_feature":"7","num_nodes":"95","size_leaf_vector":"0"}},{"base_weights":[1.42548065E1,1.58201685E1,1.0688801E1,1.2838751E1,1.81644E1,-4.4190784E0,1.4400964E1,1.6365213E1,1.0643149E1,1.7405014E1,2.2137896E1,-7.579882E0,-2.4814895E-1,1.3125884E1,2.0584494E1,1.8406094E1,1.1339571E1,7.363272E0,1.2646612E1,1.6761042E1,2.3629784E1,1.4038645E1,2.8971928E1,-8.557626E0,7.65114E0,-1.7259805E0,-9.036294E-3,1.6737339E1,8.682788E0,2.165076E1,1.7161152E1,1.5819268E1,2.0472897E1,2.6271968E0,1.2881873E1,9.455406E0,4.477599E0,1.170759E1,2.3112295E1,1.7936161E1,1.1151302E1,4.1169693E1,1.6721308E1,1.5399345E1,1.0229602E1,3.0057379E1,4.7837577E0,-1.2008952E1,-7.466958E0,1.4351599E-1,-1.0126528E0,1.7369877E1,-4.3465676E0,6.5380454E0,1.27007885E1,1.808578E1,9.223037E0,2.2877888E1,1.5817063E1,7.513109E0,1.3352793E1,1.18396635E1,8.614624E-1,3.7739565E0,8.7776985E0,2.1525517E1,1.0604124E1,3.476487E1,2.0627308E1,1.1581243E1,1.8440773E1,2.3217005E1,8.664805E0,5.0681637E1,3.295105E1,2.048422E1,-7.882768E-1,1.5945952E1,6.907574E0,1.3925602E1,3.1285107E0,3.3839275E1,2.5655073E1,-7.2806797E0,-1.6630295E1,-1.3673915E1,-5.7140355E0,4.3776694E-1,-0E0,-3.5913627E0,2.5208503E-1,1.4956605E1,2.2925007E1,9.583924E0,4.944207E0,1.2968125E1,7.814659E0],"categories":[],"categories_nodes":[],"categories_segments":[],"categories_sizes":[],"default_left":[true,true,true,true,true,true,true,true,true,true,true,true,true,true,true,true,true,true,true,true,true,true,true,true,false,false,true,true,true,false,false,true,true,false,true,true,true,true,true,true,true,true,true,true,true,true,false,true,true,true,true,true,false,true,true,false,false,false,false,false,false,false,false,false,false,false,false,false,false,false,false,false,false,false,false,false,false,false,false,false,false,false,false,false,false,false,false,false,false,false,false,false,false,false,false,false,false],"id":8,"left_children":[1,3,5,7,9,11,13,15,17,19,21,23,25,27,29,31,33,35,37,39,41,43,45,47,-1,-1,49,51,53,-1,-1,55,57,-1,59,61,63,65,67,69,71,73,75,77,79,81,-1,83,85,87,89,91,-1,93,95,-1,-1,-1,-1,-1,-1,-1,-1,-1,-1,-1,-1,-1,-1,-1,-1,-1,-1,-1,-1,-1,-1,-1,-1,-1,-1,-1,-1,-1,-1,-1,-1,-1,-1,-1,-1,-1,-1,-1,-1,-1,-1],"loss_changes":[2.5952562E4,2.2444812E4,8.069358E4,1.0870328E4,4.96175E3,3.7118042E3,8.6975E3,5.316875E3,5.683961E3,5.604125E3,1.5367047E4,2.4666182E3,3.7058456E1,1.51600625E4,1.8938281E2,1.6148438E3,2.0826914E3,1.9621992E3,5.0090312E3,8.889531E3,1.6172125E4,4.37375E2,3.7903281E3,4.0679785E2,0E0,0E0,2.0364904E1,7.1677188E3,3.5735938E3,0E0,0E0,2.3882266E3,1.8615547E3,0E0,1.6494922E2,3.9565078E3,3.5984497E2,5.1504062E3,3.416836E2,3.3639062E3,7.0252383E3,1.0537656E3,6.8790645E3,2.4662695E2,9.137278E2,1.3646875E3,0E0,5.289165E2,1.1412676E3,5.55845E0,7.2589386E1,6.387203E3,0E0,1.2797197E3,1.2509766E1,0E0,0E0,0E0,0E0,0E0,0E0,0E0,0E0,0E0,0E0,0E0,0E0,0E0,0E0,0E0,0E0,0E0,0E0,0E0,0E0,0E0,0E0,0E0,0E0,0E0,0E0,0E0,0E0,0E0,0E0,0E0,0E0,0E0,0E0,0E0,0E0,0E0,0E0,0E0,0E0,0E0,0E0],"parents":[2147483647,0,0,1,1,2,2,3,3,4,4,5,5,6,6,7,7,8,8,9,9,10,10,11,11,12,12,13,13,14,14,15,15,16,16,17,17,18,18,19,19,20,20,21,21,22,22,23,23,26,26,27,27,28,28,31,31,32,32,34,34,35,35,36,36,37,37,38,38,39,39,40,40,41,41,42,42,43,43,44,44,45,45,47,47,48,48,49,49,50,50,51,51,53,53,54,54],"right_children":[2,4,6,8,10,12,14,16,18,20,22,24,26,28,30,32,34,36,38,40,42,44,46,48,-1,-1,50,52,54,-1,-1,56,58,-1,60,62,64,66,68,70,72,74,76,78,80,82,-1,84,86,88,90,92,-1,94,96,-1,-1,-1,-1,-1,-1,-1,-1,-1,-1,-1,-1,-1,-1,-1,-1,-1,-1,-1,-1,-1,-1,-1,-1,-1,-1,-1,-1,-1,-1,-1,-1,-1,-1,-1,-1,-1,-1,-1,-1,-1,-1],"split_conditions":[1.5E0,5E-1,3.5E0,1.75E1,1.6E1,2.5E0,3.95E1,5E-1,2.4E1,3.15E1,1.85E1,4.05E1,1.4E1,2.8E1,5.5E0,1E0,1E0,2.2E1,4E0,2.95E1,5.5E0,5E-1,3.7E1,1.85E1,1.9669863E0,-4.437221E-1,3.25E1,6.5E0,3.95E1,5.566066E0,4.411859E0,1.05E1,1.25E1,6.7541045E-1,7.5E0,5E-1,5E-1,2.75E1,3.4E1,2.5E0,4E0,3.55E1,1.15E1,3.2E1,1.75E1,5E-1,1.2298279E0,1.45E1,4E0,1.5E0,3.6E1,2.25E1,-1.1174333E0,3.8E1,5.5E0,4.6495657E0,2.371096E0,5.8815403E0,4.066315E0,1.9315007E0,3.4327903E0,3.043789E0,2.2146827E-1,9.7022414E-1,2.2566066E0,5.5338674E0,2.7261515E0,8.937494E0,5.3029523E0,2.977353E0,4.740829E0,5.9687223E0,2.2275834E0,1.3029442E1,8.47119E0,5.2661667E0,-2.0265341E-1,4.0994506E0,1.7758273E0,3.5800505E0,8.042903E-1,8.699538E0,6.5955105E0,-1.8717468E0,-4.275384E0,-3.5153458E0,-1.4689875E0,1.12542905E-1,-0E0,-9.2328215E-1,6.480704E-2,3.845105E0,5.893654E0,2.4638743E0,1.2710769E0,3.3338985E0,2.0090244E0],"split_indices":[5,4,5,2,3,5,3,5,2,2,2,3,2,2,5,3,3,2,3,2,3,5,2,2,0,0,2,5,2,0,0,2,2,0,2,5,5,2,2,2,3,2,3,3,2,5,0,2,3,4,2,2,0,2,5,0,0,0,0,0,0,0,0,0,0,0,0,0,0,0,0,0,0,0,0,0,0,0,0,0,0,0,0,0,0,0,0,0,0,0,0,0,0,0,0,0,0],"split_type":[0,0,0,0,0,0,0,0,0,0,0,0,0,0,0,0,0,0,0,0,0,0,0,0,0,0,0,0,0,0,0,0,0,0,0,0,0,0,0,0,0,0,0,0,0,0,0,0,0,0,0,0,0,0,0,0,0,0,0,0,0,0,0,0,0,0,0,0,0,0,0,0,0,0,0,0,0,0,0,0,0,0,0,0,0,0,0,0,0,0,0,0,0,0,0,0,0],"sum_hessian":[4.697E3,3.261E3,1.436E3,1.439E3,1.822E3,2.83E2,1.153E3,5.49E2,8.9E2,1.535E3,2.87E2,1.6E2,1.23E2,9.59E2,1.94E2,3.88E2,1.61E2,3.4E2,5.5E2,1.395E3,1.4E2,1.33E2,1.54E2,1.51E2,9E0,1.4E1,1.09E2,5.27E2,4.32E2,1.43E2,5.1E1,1.77E2,2.11E2,2.5E1,1.36E2,1.95E2,1.45E2,5.07E2,4.3E1,1.151E3,2.44E2,3.8E1,1.02E2,9.5E1,3.8E1,1.47E2,7E0,3.3E1,1.18E2,9.2E1,1.7E1,5.12E2,1.5E1,2.84E2,1.48E2,1.3E2,4.7E1,1.36E2,7.5E1,1.3E1,1.23E2,1.52E2,4.3E1,1.27E2,1.8E1,4.9E1,4.58E2,5E0,3.8E1,8.7E1,1.064E3,4E1,2.04E2,1.5E1,2.3E1,8.4E1,1.8E1,8.8E1,7E0,2.4E1,1.4E1,7.5E1,7.2E1,1.8E1,1.5E1,2.4E1,9.4E1,3.8E1,5.4E1,6E0,1.1E1,3.6E2,1.52E2,9.5E1,1.89E2,1.38E2,1E1],"tree_param":{"num_deleted":"0","num_feature":"7","num_nodes":"97","size_leaf_vector":"0"}},{"base_weights":[1.0805975E1,6.0849075E0,1.2857949E1,1.1743141E1,3.2004495E0,1.2277649E1,2.8958174E1,6.1914797E0,1.3727657E1,1.7602305E0,5.048948E0,1.3765971E1,9.048702E0,2.2791935E1,3.1609121E1,7.6633916E0,-4.0549532E-1,1.1733838E1,1.8480875E1,1.9916682E0,-1.3248839E1,1.3967806E0,7.090195E0,1.2115097E1,1.7397175E1,-4.128491E0,1.18661375E1,3.6143524E1,2.3322027E1,-2.3550246E0,8.326915E0,3.4578833E-1,-1.678154E0,9.862009E0,1.4534989E1,2.3921043E1,1.1253542E1,1.3019483E0,5.5755606E0,2.3299417E0,-2.1351333E0,4.672717E0,1.5719292E1,1.1447452E1,2.0439425E1,9.096109E0,1.8233215E1,-2.4139054E0,-1.0668933E1,1.0230212E1,1.41863E1,1.9036217E1,3.0775255E1,9.906972E0,4.5382385E0,7.042407E0,1.5236813E1,2.2508524E1,1.0451781E1,2.0382854E1,3.0818573E1,1.6684965E1,7.027208E0,2.8767383E0,-2.8124611E0,2.0529468E0,9.683469E0,1.8075726E0,8.139789E0,1.0975314E1,2.841558E0,3.2602337E1,7.631769E0,1.2117385E1,6.473543E0,2.1436913E1,1.3551618E1,1.4544254E1,2.7019224E0,5.2270435E1,1.7572332E1,-8.585526E-1,-8.862804E0,-1.3634624E1,5.784163E0,1.3152071E1,6.81072E0,1.5130622E1,9.197321E0],"categories":[],"categories_nodes":[],"categories_segments":[],"categories_sizes":[],"default_left":[true,true,true,true,true,true,true,true,true,true,true,true,true,false,true,true,true,true,true,true,false,true,true,true,true,true,true,false,true,false,true,false,false,true,true,true,true,true,true,true,false,true,true,true,true,true,true,true,true,true,true,false,false,false,false,false,false,false,false,false,false,false,false,false,false,false,false,false,false,false,false,false,false,false,false,false,false,false,false,false,false,false,false,false,false,false,false,false,false],"id":9,"left_children":[1,3,5,7,9,11,13,15,17,19,21,23,25,-1,27,29,31,33,35,37,-1,39,41,43,45,47,49,-1,51,-1,53,-1,-1,55,57,59,61,63,65,67,-1,69,71,73,75,77,79,81,83,85,87,-1,-1,-1,-1,-1,-1,-1,-1,-1,-1,-1,-1,-1,-1,-1,-1,-1,-1,-1,-1,-1,-1,-1,-1,-1,-1,-1,-1,-1,-1,-1,-1,-1,-1,-1,-1,-1,-1],"loss_changes":[4.5398812E4,2.319432E4,3.0091688E4,5.1369375E3,2.48579E3,1.49920625E4,9.152656E2,1.2839292E3,3.0111094E3,1.8410437E3,3.0360156E3,1.26409375E4,3.7279203E4,0E0,1.7817812E3,7.474507E2,2.8705948E1,1.0831367E3,3.6045156E3,1.2711631E3,0E0,5.001085E2,5.354502E3,7.9286094E3,4.3985625E3,1.9082998E3,2.8951484E3,0E0,1.7884375E2,0E0,4.9752734E2,0E0,0E0,2.1550967E3,2.8272812E3,5.6389453E2,8.465176E2,2.8916426E3,1.150032E3,3.1080975E2,0E0,2.3156504E3,7.377702E3,4.457703E3,3.2239062E2,2.1232036E3,1.2531734E4,1.3789108E3,1.8659902E3,4.7185664E3,1.3586719E3,0E0,0E0,0E0,0E0,0E0,0E0,0E0,0E0,0E0,0E0,0E0,0E0,0E0,0E0,0E0,0E0,0E0,0E0,0E0,0E0,0E0,0E0,0E0,0E0,0E0,0E0,0E0,0E0,0E0,0E0,0E0,0E0,0E0,0E0,0E0,0E0,0E0,0E0],"parents":[2147483647,0,0,1,1,2,2,3,3,4,4,5,5,6,6,7,7,8,8,9,9,10,10,11,11,12,12,14,14,15,15,16,16,17,17,18,18,19,19,21,21,22,22,23,23,24,24,25,25,26,26,28,28,30,30,33,33,34,34,35,35,36,36,37,37,38,38,39,39,41,41,42,42,43,43,44,44,45,45,46,46,47,47,48,48,49,49,50,50],"right_children":[2,4,6,8,10,12,14,16,18,20,22,24,26,-1,28,30,32,34,36,38,-1,40,42,44,46,48,50,-1,52,-1,54,-1,-1,56,58,60,62,64,66,68,-1,70,72,74,76,78,80,82,84,86,88,-1,-1,-1,-1,-1,-1,-1,-1,-1,-1,-1,-1,-1,-1,-1,-1,-1,-1,-1,-1,-1,-1,-1,-1,-1,-1,-1,-1,-1,-1,-1,-1,-1,-1,-1,-1,-1,-1],"split_conditions":[1.245E2,1.4E1,5.175E2,8.75E1,1.055E2,5E-1,1.8E1,8.55E1,1.1E1,1.035E2,2.4E1,1.985E2,3E0,5.8594437E0,6.06E2,6.75E1,8.65E1,1.105E2,1.14E2,4.5E0,-3.4060655E0,1.215E2,1.165E2,3.4E1,6.5E0,3.365E2,2.24E2,9.291924E0,6.255E2,-6.054393E-1,1E0,8.889667E-2,-4.3142667E-1,2.5E0,5E-1,5E-1,5E-1,1.5E0,9.25E1,1.205E2,-5.4890877E-1,1.115E2,1.21E2,1.855E2,1.775E2,1.5E0,8.5E0,4E0,2.5E0,3.8E1,5.5E0,4.893908E0,7.911828E0,2.5469246E0,1.1667088E0,1.8104907E0,3.917142E0,5.786583E0,2.6869864E0,5.240107E0,7.922964E0,4.2894387E0,1.8065832E0,7.395636E-1,-7.23039E-1,5.2777994E-1,2.4894655E0,4.6469814E-1,2.0926101E0,2.8215785E0,7.305193E-1,8.381541E0,1.9620063E0,3.1151867E0,1.6642449E0,5.511089E0,3.483905E0,3.7390962E0,6.946212E-1,1.3437897E1,4.5175667E0,-2.2072019E-1,-2.2784858E0,-3.5052445E0,1.4870162E0,3.381188E0,1.7509276E0,3.8898418E0,2.3644848E0],"split_indices":[1,2,1,1,1,6,2,1,2,1,2,1,6,0,1,1,1,1,1,6,0,1,1,2,2,1,1,0,1,0,6,0,0,5,5,5,5,5,1,1,0,1,1,1,1,2,2,5,5,2,5,0,0,0,0,0,0,0,0,0,0,0,0,0,0,0,0,0,0,0,0,0,0,0,0,0,0,0,0,0,0,0,0,0,0,0,0,0,0],"split_type":[0,0,0,0,0,0,0,0,0,0,0,0,0,0,0,0,0,0,0,0,0,0,0,0,0,0,0,0,0,0,0,0,0,0,0,0,0,0,0,0,0,0,0,0,0,0,0,0,0,0,0,0,0,0,0,0,0,0,0,0,0,0,0,0,0,0,0,0,0,0,0,0,0,0,0,0,0,0,0,0,0,0,0,0,0,0,0,0,0],"sum_hessian":[4.701E3,1.426E3,3.275E3,4.8E2,9.46E2,3.163E3,1.12E2,1.28E2,3.52E2,5.34E2,4.12E2,2.162E3,1.001E3,3.7E1,7.5E1,1.05E2,2.3E1,2.51E2,1.01E2,5.27E2,7E0,1.49E2,2.63E2,1.49E3,6.72E2,1.76E2,8.25E2,4.6E1,2.9E1,6E0,9.9E1,1.3E1,1E1,1.54E2,9.7E1,5.6E1,4.5E1,4.44E2,8.3E1,1.19E2,3E1,2.07E2,5.6E1,1.382E3,1.08E2,6.3E1,6.09E2,1.41E2,3.5E1,4.88E2,3.37E2,2.1E1,8E0,6.8E1,3.1E1,1.03E2,5.1E1,3.1E1,6.6E1,4E1,1.6E1,1.8E1,2.7E1,3.22E2,1.22E2,4.6E1,3.7E1,1.11E2,8E0,4.5E1,1.62E2,1.7E1,3.9E1,1.216E3,1.66E2,9.2E1,1.6E1,3.3E1,3E1,1E1,5.99E2,1.15E2,2.6E1,3E1,5E0,2.61E2,2.27E2,2.81E2,5.6E1],"tree_param":{"num_deleted":"0","num_feature":"7","num_nodes":"89","size_leaf_vector":"0"}},{"base_weights":[7.896894E0,4.8004465E0,9.270433E0,9.2429E0,2.505385E0,8.869995E0,1.9942448E1,4.7304854E0,1.0715703E1,-3.46344E-1,3.051293E0,9.709015E0,7.0302362E0,1.8586126E1,2.8315893E1,5.9037E0,-2.4194616E-1,8.906367E0,1.4947378E1,-1.95211E0,9.3439955E-1,-4.3711367E0,3.3385787E0,7.336628E0,1.1356386E1,-2.2041306E0,8.643897E0,5.5970592E0,2.002049E1,-1.9987549E0,6.5547924E0,1.7658201E-1,-1.2342207E0,7.2091603E0,1.1394445E1,-4.8699597E-1,1.6380209E1,-9.9619627E-1,-3.2936409E0,5.040324E-1,5.1026626E0,2.7012873E0,5.0761647E0,8.342176E0,4.702973E0,1.4391103E1,9.114317E0,-1.3332201E0,-1.2576381E1,7.4121785E0,1.258556E1,1.2372844E1,-2.59307E0,1.7934216E1,2.654434E1,7.7652082E0,3.8454883E0,5.1954446E0,1.1585491E1,1.7811314E1,7.825047E0,2.256111E1,9.133236E0,-2.6053247E0,1.4840994E0,1.0806865E0,-2.4817793E0,3.5029888E0,-1.0405836E1,8.339155E0,3.3067877E0,7.062585E0,1.218454E1,8.799079E0,8.5587704E-1,1.3435418E1,4.655783E1,6.7023153E0,1.7129725E1,-1.8576039E0,5.9574847E0,9.585458E0,4.4420376E0,1.1460485E1,1.8908432E1,2.0638983E1,1.4219597E1],"categories":[],"categories_nodes":[],"categories_segments":[],"categories_sizes":[],"default_left":[true,true,true,true,true,true,true,true,true,true,true,true,true,true,false,true,true,true,true,true,true,false,true,true,true,true,true,true,true,false,true,false,false,true,true,false,true,true,false,true,false,true,true,true,true,true,true,true,false,true,true,false,false,true,false,false,false,false,false,false,false,false,false,false,false,false,false,false,false,false,false,false,false,false,false,false,false,false,false,false,false,false,false,false,false,false,false],"id":10,"left_children":[1,3,5,7,9,11,13,15,17,19,21,23,25,27,-1,29,31,33,35,37,39,-1,41,43,45,47,49,51,53,-1,55,-1,-1,57,59,-1,61,63,-1,65,-1,67,69,71,73,75,77,79,-1,81,83,-1,-1,85,-1,-1,-1,-1,-1,-1,-1,-1,-1,-1,-1,-1,-1,-1,-1,-1,-1,-1,-1,-1,-1,-1,-1,-1,-1,-1,-1,-1,-1,-1,-1,-1,-1],"loss_changes":[1.9971156E4,1.4745539E4,1.3672594E4,3.1723438E3,1.5060806E3,4.730547E3,6.201992E2,7.4681665E2,2.6147305E3,3.2249216E2,1.7313936E3,8.285734E3,1.4826004E4,1.7260039E3,0E0,5.50478E2,1.4295815E1,9.561387E2,2.4802695E3,6.981241E1,1.2811629E2,0E0,8.175762E2,2.264375E3,8.432219E3,1.2660981E3,3.9314727E3,7.3603E2,6.1685156E2,0E0,2.3327295E2,0E0,0E0,1.2846143E3,2.143037E3,0E0,4.150037E3,1.8383354E2,0E0,1.3325696E2,0E0,6.0307065E3,1.1164917E3,2.990711E3,3.8787124E3,1.5680086E4,1.4002449E4,5.2272296E2,0E0,4.07925E3,1.0808906E3,0E0,0E0,3.145254E2,0E0,0E0,0E0,0E0,0E0,0E0,0E0,0E0,0E0,0E0,0E0,0E0,0E0,0E0,0E0,0E0,0E0,0E0,0E0,0E0,0E0,0E0,0E0,0E0,0E0,0E0,0E0,0E0,0E0,0E0,0E0,0E0,0E0],"parents":[2147483647,0,0,1,1,2,2,3,3,4,4,5,5,6,6,7,7,8,8,9,9,10,10,11,11,12,12,13,13,15,15,16,16,17,17,18,18,19,19,20,20,22,22,23,23,24,24,25,25,26,26,27,27,28,28,30,30,33,33,34,34,36,36,37,37,39,39,41,41,42,42,43,43,44,44,45,45,46,46,47,47,49,49,50,50,53,53],"right_children":[2,4,6,8,10,12,14,16,18,20,22,24,26,28,-1,30,32,34,36,38,40,-1,42,44,46,48,50,52,54,-1,56,-1,-1,58,60,-1,62,64,-1,66,-1,68,70,72,74,76,78,80,-1,82,84,-1,-1,86,-1,-1,-1,-1,-1,-1,-1,-1,-1,-1,-1,-1,-1,-1,-1,-1,-1,-1,-1,-1,-1,-1,-1,-1,-1,-1,-1,-1,-1,-1,-1,-1,-1],"split_conditions":[1.245E2,1.4E1,5.175E2,8.75E1,7.35E1,1.5E0,2.85E1,8.55E1,1.1E1,1.55E1,1.55E1,1.615E2,4E0,5.5E0,7.2795653E0,6.75E1,8.65E1,1.105E2,1E0,7.1E1,3.25E1,-1.1237496E0,4E0,1.495E2,2.25E1,3.975E2,3.7E1,7.2E2,6.275E2,-5.1384807E-1,1.5E0,4.539642E-2,-3.172985E-1,2.5E0,5E-1,-1.251989E-1,1.14E2,2.7E1,-8.4674263E-1,2.35E1,1.3118132E0,1.5E0,1.1E1,5E-1,5E-1,2.15E1,3.05E1,4.05E1,-3.2331872E0,2.9E1,2.75E2,3.180861E0,-6.66637E-1,5.925E2,6.824127E0,1.9963113E0,9.886138E-1,1.3356661E0,2.9784453E0,4.5790052E0,2.011695E0,5.8001018E0,2.3480096E0,-6.6978747E-1,3.815383E-1,2.7782726E-1,-6.3802594E-1,9.0056264E-1,-2.6751747E0,2.143864E0,8.5012245E-1,1.8156781E0,3.132451E0,2.262103E0,2.2003235E-1,3.454032E0,1.1969276E1,1.7230585E0,4.4037795E0,-4.7756037E-1,1.5315745E0,2.4642684E0,1.1419771E0,2.9463084E0,4.861057E0,5.3059535E0,3.6556318E0],"split_indices":[1,2,1,1,1,5,2,1,2,3,2,1,5,3,0,1,1,1,3,1,3,0,5,1,2,1,3,1,1,0,5,0,0,5,5,0,1,2,0,3,0,5,3,5,5,2,2,3,0,2,1,0,0,1,0,0,0,0,0,0,0,0,0,0,0,0,0,0,0,0,0,0,0,0,0,0,0,0,0,0,0,0,0,0,0,0,0],"split_type":[0,0,0,0,0,0,0,0,0,0,0,0,0,0,0,0,0,0,0,0,0,0,0,0,0,0,0,0,0,0,0,0,0,0,0,0,0,0,0,0,0,0,0,0,0,0,0,0,0,0,0,0,0,0,0,0,0,0,0,0,0,0,0,0,0,0,0,0,0,0,0,0,0,0,0,0,0,0,0,0,0,0,0,0,0,0,0],"sum_hessian":[4.718E3,1.452E3,3.266E3,4.93E2,9.59E2,3.15E3,1.16E2,1.23E2,3.7E2,1.53E2,8.06E2,2.159E3,9.91E2,1.03E2,1.3E1,1E2,2.3E1,2.62E2,1.08E2,6.9E1,8.4E1,2.9E1,7.77E2,8.88E2,1.271E3,1.47E2,8.44E2,1.1E1,9.2E1,7E0,9.3E1,1.4E1,9E0,1.59E2,1.03E2,9E0,9.9E1,4.3E1,2.6E1,7.8E1,6E0,5.72E2,2.05E2,6.4E2,2.48E2,5.37E2,7.34E2,1.37E2,1E1,6.46E2,1.98E2,6E0,5E0,7.3E1,1.9E1,6.2E1,3.1E1,1.11E2,4.8E1,3.5E1,6.8E1,5.2E1,4.7E1,2.7E1,1.6E1,6.7E1,1.1E1,5.4E2,3.2E1,7E1,1.35E2,4.83E2,1.57E2,1.19E2,1.29E2,5.23E2,1.4E1,5.66E2,1.68E2,1.29E2,8E0,3.71E2,2.75E2,1.71E2,2.7E1,3.9E1,3.4E1],"tree_param":{"num_deleted":"0","num_feature":"7","num_nodes":"87","size_leaf_vector":"0"}},{"base_weights":[6.1272073E0,6.734367E0,4.715275E0,5.1388183E0,7.959033E0,-2.3947122E0,6.6884623E0,7.301005E0,4.2634296E0,9.194275E0,6.9888015E0,-6.3519955E0,-2.7791023E-1,8.764544E0,5.577534E0,6.639316E0,9.473733E0,3.9089603E0,8.289534E0,6.578226E0,1.6099697E1,6.390158E0,9.991938E0,2.0165618E-1,-6.7818007E0,9.6746296E-1,-2.4680703E0,5.3818216E0,1.0336149E1,4.581639E0,9.564551E0,8.967037E0,5.981279E0,5.3583446E0,1.2745756E1,4.1196604E0,4.9340275E-1,-3.4302711E0,1.0043267E1,9.18477E0,3.809203E0,1.4121928E1,3.242871E1,7.633792E0,3.2475615E0,1.7606256E1,7.8743334E0,-1.3202927E1,-6.045686E0,9.432327E0,5.1872575E-1,-7.7592025E0,9.780433E-2,6.9888506E0,-5.010014E0,6.4393597E0,1.0498778E1,7.416181E0,3.1716511E0,1.3879309E0,6.694547E0,3.1687338E0,5.198871E0,-3.088735E-1,7.5336885E-1,1.4120395E1,6.4333153E0,3.5444252E0,1.1314258E1,-3.683147E-1,5.6593356E0,1.4639736E1,-0E0,3.7426247E1,1.5103914E1,5.3205786E0,8.53233E0,1.1222668E1,1.5262202E0,2.1455997E1,1.4004477E1,1.0553417E1,4.6347365E0,-4.09632E0,-8.222699E0,-6.7465866E-1,7.248009E-1,-8.46982E0,-3.4494834E0,-7.555809E-1,4.5960855E0,5.471219E0,9.68916E0,8.665077E0,1.0992477E1,1.2408806E1,4.985532E0,4.561827E0,1.5391209E0],"categories":[],"categories_nodes":[],"categories_segments":[],"categories_sizes":[],"default_left":[true,true,true,true,true,true,true,true,true,true,true,true,true,true,true,true,true,true,true,true,true,true,true,false,true,true,true,true,true,true,false,false,true,false,false,true,true,false,true,true,true,true,true,true,true,true,true,false,true,false,true,true,true,true,false,false,true,true,true,false,false,false,false,false,false,false,false,false,false,false,false,false,false,false,false,false,false,false,false,false,false,false,false,false,false,false,false,true,true,false,false,false,false,false,false,false,false,false,false],"id":11,"left_children":[1,3,5,7,9,11,13,15,17,19,21,23,25,27,29,31,33,35,37,39,41,43,45,-1,47,49,51,53,55,57,-1,-1,59,-1,-1,61,63,-1,65,67,69,71,73,75,77,79,81,-1,83,-1,85,-1,89,91,-1,-1,93,95,97,-1,-1,-1,-1,-1,-1,-1,-1,-1,-1,-1,-1,-1,-1,-1,-1,-1,-1,-1,-1,-1,-1,-1,-1,-1,-1,-1,-1,-1,-1,-1,-1,-1,-1,-1,-1,-1,-1,-1,-1],"loss_changes":[3.9597656E3,6.3329844E3,1.9968393E4,2.6343477E3,2.0984062E3,2.5608926E3,2.462371E3,4.6391797E2,1.3801387E3,1.4474656E4,1.7529805E3,3.2833984E2,5.619163E2,1.9300566E3,2.7958027E3,3.7688672E2,1.1001768E3,6.586758E2,1.724981E3,4.1800996E3,6.5306055E3,3.3565352E3,2.5195488E3,0E0,3.2275977E2,4.4643622E2,1.0487656E3,2.130203E3,3.1964844E1,2.277374E3,0E0,0E0,7.881953E2,0E0,0E0,8.6128613E2,1.384853E1,0E0,8.742661E2,3.5414922E3,2.2563188E3,1.4783555E3,1.2219141E3,1.2019062E3,3.3790176E3,6.0867188E1,1.0724199E3,0E0,3.131089E2,0E0,3.1178818E1,1.0197754E0,2.1417694E2,3.347539E2,0E0,0E0,5.285742E1,2.2126445E3,8.634509E2,0E0,0E0,0E0,0E0,0E0,0E0,0E0,0E0,0E0,0E0,0E0,0E0,0E0,0E0,0E0,0E0,0E0,0E0,0E0,0E0,0E0,0E0,0E0,0E0,0E0,0E0,0E0,0E0,0E0,0E0,0E0,0E0,0E0,0E0,0E0,0E0,0E0,0E0,0E0,0E0],"parents":[2147483647,0,0,1,1,2,2,3,3,4,4,5,5,6,6,7,7,8,8,9,9,10,10,11,11,12,12,13,13,14,14,15,15,16,16,17,17,18,18,19,19,20,20,21,21,22,22,24,24,25,25,26,26,27,27,28,28,29,29,32,32,35,35,36,36,38,38,39,39,40,40,41,41,42,42,43,43,44,44,45,45,46,46,48,48,50,50,51,51,52,52,53,53,56,56,57,57,58,58],"right_children":[2,4,6,8,10,12,14,16,18,20,22,24,26,28,30,32,34,36,38,40,42,44,46,-1,48,50,52,54,56,58,-1,-1,60,-1,-1,62,64,-1,66,68,70,72,74,76,78,80,82,-1,84,-1,86,-1,90,92,-1,-1,94,96,98,-1,-1,-1,-1,-1,-1,-1,-1,-1,-1,-1,-1,-1,-1,-1,-1,-1,-1,-1,-1,-1,-1,-1,-1,-1,-1,-1,-1,-1,-1,-1,-1,-1,-1,-1,-1,-1,-1,-1,-1],"split_conditions":[5E-1,5E-1,2.5E0,1.25E1,2.25E1,1.25E1,4.5E0,1.1E1,3.4E1,1.85E1,3.15E1,9E0,1.65E1,5E-1,3.95E1,7.5E0,1E0,3.2E1,1E0,1.35E1,2.15E1,2.95E1,5.5E0,5.1842593E-2,2.15E1,1.5E0,1.95E1,1.7E1,1.45E1,1.1E1,2.4588938E0,2.3052824E0,8.5E0,1.377545E0,3.2767308E0,2.4E1,1E0,-8.8186806E-1,1.15E1,2.5E0,6.5E0,1.8E1,7E0,5.5E0,4E0,3.55E1,3.75E1,-3.394262E0,3.05E1,2.424901E0,1.4E1,-1.9947673E0,4.05E1,1.25E1,-1.2879949E0,1.6554568E0,9.5E0,2.8E1,3.8E1,3.5681492E-1,1.7210615E0,8.14631E-1,1.336547E0,-7.9406455E-2,1.9367914E-1,3.6301286E0,1.6539029E0,9.1121525E-1,2.9087155E0,-9.468785E-2,1.4549251E0,3.763643E0,-0E0,9.621692E0,3.8829758E0,1.367836E0,2.193526E0,2.885169E0,3.9236692E-1,5.515995E0,3.600328E0,2.7131155E0,1.191517E0,-1.0530987E0,-2.113925E0,-1.7344399E-1,1.8633476E-1,-2.177456E0,-8.8680726E-1,-1.9424781E-1,1.1815804E0,1.4065633E0,2.490929E0,2.2276533E0,2.825991E0,3.1901064E0,1.2817008E0,1.1727731E0,3.9568347E-1],"split_indices":[6,4,6,2,2,3,6,2,2,2,2,2,3,4,3,2,3,2,3,2,2,2,3,0,2,6,2,2,2,3,0,0,2,0,0,2,3,0,3,2,3,3,3,3,3,2,2,0,2,0,2,3,3,2,0,0,3,2,2,0,0,0,0,0,0,0,0,0,0,0,0,0,0,0,0,0,0,0,0,0,0,0,0,0,0,0,0,2147483647,2147483647,0,0,0,0,0,0,0,0,0,0],"split_type":[0,0,0,0,0,0,0,0,0,0,0,0,0,0,0,0,0,0,0,0,0,0,0,0,0,0,0,0,0,0,0,0,0,0,0,0,0,0,0,0,0,0,0,0,0,0,0,0,0,0,0,0,0,0,0,0,0,0,0,0,0,0,0,0,0,0,0,0,0,0,0,0,0,0,0,0,0,0,0,0,0,0,0,0,0,0,0,0,0,0,0,0,0,0,0,0,0,0,0],"sum_hessian":[4.707E3,3.287E3,1.42E3,1.431E3,1.856E3,3.08E2,1.112E3,4.09E2,1.022E3,8.11E2,1.045E3,1.06E2,2.02E2,3.84E2,7.28E2,3.18E2,9.1E1,9.42E2,8E1,5.9E2,2.21E2,8.75E2,1.7E2,6E0,1E2,1.28E2,7.4E1,1.24E2,2.6E2,5.85E2,1.43E2,6.6E1,2.52E2,4.2E1,4.9E1,8.86E2,5.6E1,1E1,7E1,3.02E2,2.88E2,1.99E2,2.2E1,6.25E2,2.5E2,3.5E1,1.35E2,8E0,9.2E1,5E0,1.23E2,2.4E1,5E1,1.08E2,1.6E1,1.3E1,2.47E2,1.92E2,3.93E2,3.5E1,2.17E2,4.75E2,4.11E2,1E1,4.6E1,3.1E1,3.9E1,8.4E1,2.18E2,8.8E1,2E2,1.92E2,7E0,1.6E1,6E0,1.78E2,4.47E2,4.3E1,2.07E2,1.4E1,2.1E1,7.2E1,6.3E1,5.1E1,4.1E1,1.5E1,1.08E2,1.9E1,5E0,4.2E1,8E0,7.2E1,3.6E1,5.8E1,1.89E2,6.1E1,1.31E2,2.1E2,1.83E2],"tree_param":{"num_deleted":"2","num_feature":"7","num_nodes":"99","size_leaf_vector":"0"}},{"base_weights":[4.5223403E0,3.493989E0,7.160181E0,3.158356E0,5.7216563E0,1.0670196E1,6.057118E0,3.4919116E0,-2.2919767E0,3.7932546E0,6.324021E0,8.423668E0,1.2909724E1,-1.1585557E0,7.561748E0,2.7142649E0,5.0218205E0,2.0243734E-1,-1.2030122E1,7.023623E0,-5.348238E-1,1.3569339E1,6.677835E0,1.3832985E1,7.436906E0,-3.4440327E0,1.782681E0,6.4630113E0,1.1518307E1,9.60929E0,2.3821883E0,2.664099E1,4.220999E0,-5.5473485E0,2.136195E0,4.2434835E0,8.418947E0,2.9539838E0,-2.556168E0,6.79956E0,2.9830017E1,5.636275E0,1.2550824E1,1.1432434E1,1.713921E1,-3.7783937E0,1.7205014E0,8.704145E0,6.65008E-1,7.3377533E0,1.4369383E0,1.0326519E1,2.0282362E1,6.5593705E0,2.1918564E1,2.5456293E0,-1.1119544E1,3.9760058E0,1.8184069E1,-2.668388E-1,-1.780521E1,4.0890617E0,-2.0071901E-2,1.0278675E1,3.4667852E0,4.896064E0,7.384618E0,1.614098E1,2.6309144E0,1.4805159E1,-1.5103478E0,5.038651E0,9.766066E0,-9.8475685E0,6.308153E0,6.340028E0,1.1943704E1],"categories":[],"categories_nodes":[],"categories_segments":[],"categories_sizes":[],"default_left":[true,true,true,true,true,true,true,true,true,true,false,true,true,true,true,true,true,true,false,true,true,true,true,true,false,true,true,true,true,true,true,false,true,true,true,false,true,false,false,false,false,true,true,true,false,false,false,false,false,true,true,true,false,false,false,false,false,false,false,false,false,false,false,false,false,false,false,false,false,false,false,false,false,false,false,false,false],"id":12,"left_children":[1,3,5,7,9,11,13,15,17,19,-1,21,23,25,27,29,31,33,-1,35,37,39,41,43,-1,45,47,49,51,53,55,-1,57,59,61,-1,63,-1,-1,-1,-1,65,67,69,-1,-1,-1,-1,-1,71,73,75,-1,-1,-1,-1,-1,-1,-1,-1,-1,-1,-1,-1,-1,-1,-1,-1,-1,-1,-1,-1,-1,-1,-1,-1,-1],"loss_changes":[1.2699195E4,2.4813008E3,4.973336E3,5.373916E3,4.4895312E2,1.3830898E3,1.0955707E4,3.26375E3,4.177871E3,1.552937E3,0E0,1.2680469E3,5.925918E2,1.1822473E3,3.4769023E3,4.159533E3,1.5938029E4,1.5107341E3,0E0,1.5944775E2,3.3745245E2,3.9479648E3,6.04854E2,7.2478516E2,0E0,1.8545435E2,5.4572687E2,2.8350703E3,1.5412207E3,2.8990933E3,3.887662E3,0E0,2.9271797E3,2.1257505E3,4.496201E2,0E0,2.793274E2,0E0,0E0,0E0,0E0,5.3291504E1,4.9001074E2,3.5225771E3,0E0,0E0,0E0,0E0,0E0,3.0029473E3,5.490319E3,8.8471484E2,0E0,0E0,0E0,0E0,0E0,0E0,0E0,0E0,0E0,0E0,0E0,0E0,0E0,0E0,0E0,0E0,0E0,0E0,0E0,0E0,0E0,0E0,0E0,0E0,0E0],"parents":[2147483647,0,0,1,1,2,2,3,3,4,4,5,5,6,6,7,7,8,8,9,9,11,11,12,12,13,13,14,14,15,15,16,16,17,17,19,19,20,20,21,21,22,22,23,23,25,25,26,26,27,27,28,28,29,29,30,30,32,32,33,33,34,34,36,36,41,41,42,42,43,43,49,49,50,50,51,51],"right_children":[2,4,6,8,10,12,14,16,18,20,-1,22,24,26,28,30,32,34,-1,36,38,40,42,44,-1,46,48,50,52,54,56,-1,58,60,62,-1,64,-1,-1,-1,-1,66,68,70,-1,-1,-1,-1,-1,72,74,76,-1,-1,-1,-1,-1,-1,-1,-1,-1,-1,-1,-1,-1,-1,-1,-1,-1,-1,-1,-1,-1,-1,-1,-1,-1],"split_conditions":[1.994E3,3.95E1,1.9975E3,3.75E1,3E0,1.85E1,1.9985E3,1.5895E3,1.8925E3,1.723E3,1.625805E0,7.5E0,3.75E1,5E-1,3.827E3,7.5E0,1.594E3,1.5E0,-3.0927527E0,5E-1,5E-1,6E0,2E0,3.05E1,1.91191E0,2.55E1,2.05E1,2.997E3,6.207E3,1.377E3,1.5395E3,6.848974E0,3.4E1,1.708E3,1.648E3,1.090932E0,5E-1,7.594222E-1,-6.571501E-1,1.7480586E0,7.6688223E0,1.9965E3,1.55E1,2.45E1,4.406218E0,-9.7136486E-1,4.4231352E-1,2.2376971E0,1.7096296E-1,2.1E1,2.5E0,1.8E1,5.214272E0,1.6863097E0,5.6349134E0,6.5444076E-1,-2.8586576E0,1.0221678E0,4.6748343E0,-6.86E-2,-4.577436E0,1.0512327E0,-5.160166E-3,2.6424837E0,8.9125526E-1,1.2587E0,1.8984677E0,4.1495886E0,6.763662E-1,3.8061705E0,-3.8828638E-1,1.2953569E0,2.5107E0,-2.531653E0,1.6217257E0,1.6299201E0,3.070536E0],"split_indices":[0,2,0,2,6,2,0,0,0,0,0,2,2,4,0,2,0,6,0,4,6,2,6,2,0,2,2,0,0,0,0,0,2,0,0,0,6,0,0,0,0,0,2,2,0,0,0,0,0,2,6,2,0,0,0,0,0,0,0,0,0,0,0,0,0,0,0,0,0,0,0,0,0,0,0,0,0],"split_type":[0,0,0,0,0,0,0,0,0,0,0,0,0,0,0,0,0,0,0,0,0,0,0,0,0,0,0,0,0,0,0,0,0,0,0,0,0,0,0,0,0,0,0,0,0,0,0,0,0,0,0,0,0,0,0,0,0,0,0,0,0,0,0,0,0,0,0,0,0,0,0,0,0,0,0,0,0],"sum_hessian":[4.705E3,3.388E3,1.317E3,2.948E3,4.4E2,3.12E2,1.005E3,2.779E3,1.69E2,1.08E2,3.32E2,1.59E2,1.53E2,1.73E2,8.32E2,1.846E3,9.33E2,1.35E2,3.4E1,6.2E1,4.6E1,3.8E1,1.21E2,1.29E2,2.4E1,9.8E1,7.5E1,6.54E2,1.78E2,8.3E1,1.763E3,3.2E1,9.01E2,3.3E1,1.02E2,2.3E1,3.9E1,1.6E1,3E1,2.8E1,1E1,1.05E2,1.6E1,7.8E1,5.1E1,9.3E1,5E0,9E0,6.6E1,5.56E2,9.8E1,1.59E2,1.9E1,6.8E1,1.5E1,1.743E3,2E1,8.87E2,1.4E1,2.4E1,9E0,5.4E1,4.8E1,2.7E1,1.2E1,7.8E1,2.7E1,1.1E1,5E0,6.2E1,1.6E1,2.88E2,2.68E2,2.9E1,6.9E1,4.8E1,1.11E2],"tree_param":{"num_deleted":"0","num_feature":"7","num_nodes":"77","size_leaf_vector":"0"}},{"base_weights":[3.381894E0,2.6355948E0,5.2893744E0,3.8158777E0,1.5943627E0,4.9178896E0,1.1647434E1,2.0165572E0,6.7445145E0,-1.04414575E-1,3.1849937E0,7.639034E0,4.045312E0,1.354398E1,7.121413E-1,8.131051E0,1.2298526E0,7.4887996E0,-7.638258E-1,-1.2601653E0,2.1980917E0,4.0881543E0,-1.709536E0,1.0569333E1,5.5840473E0,-7.5752556E-1,5.259977E0,2.5104937E1,1.1994042E1,-1.678695E0,4.030555E0,6.9827943E0,1.2589231E1,-3.9034063E-1,3.0068183E0,5.550785E0,9.637304E0,8.3891463E-1,-2.289734E0,-2.0747144E0,4.701615E0,2.1468923E0,5.4262195E0,-1.0574776E1,2.4353542E0,5.0569634E0,1.1884287E1,1.0272859E1,-2.8344926E-1,5.792238E0,-1.2452393E0,8.59164E0,4.3055034E0,9.391608E0,1.5699129E1,8.315863E0,2.4530406E0,-9.7530365E-1,5.1675564E-1,7.519232E0,1.0119972E0,9.923289E0,1.5687481E0,1.54675255E1,5.2032194E0,-7.7415365E-1,6.0599775E0,-2.79087E0,3.97988E0,9.536616E0,-6.5070176E0,1.9197735E1,1.4282543E-2,6.1706433E0,1.4159662E0,1.0090729E1,4.820769E0,5.032345E0,-1.6704708E1,1.8767452E1,1.0844675E1,7.526036E0,2.1526894E1,-2.4639463E0,1.1012779E1,2.127194E0,7.331146E0,-2.3397865E0,8.695526E-2,1.0450771E0,1.1747541E1,9.42371E0,3.653914E0,1.47883415E1,4.1404667E0],"categories":[],"categories_nodes":[],"categories_segments":[],"categories_sizes":[],"default_left":[true,true,true,true,true,true,true,true,true,true,true,true,true,true,true,true,true,true,false,true,true,true,true,true,true,true,true,false,true,false,false,true,false,true,true,true,true,true,true,true,true,true,true,false,true,false,true,true,true,true,true,true,true,true,false,false,false,false,false,false,false,false,false,false,false,false,false,false,false,false,false,false,false,false,false,false,false,false,false,false,false,false,false,false,false,false,false,false,false,false,false,false,false,false,false],"id":13,"left_children":[1,3,5,7,9,11,13,15,17,19,21,23,25,27,29,31,33,35,-1,37,39,41,43,45,47,49,51,-1,53,-1,-1,55,-1,57,59,61,63,65,67,69,71,73,75,-1,77,-1,79,81,83,85,87,89,91,93,-1,-1,-1,-1,-1,-1,-1,-1,-1,-1,-1,-1,-1,-1,-1,-1,-1,-1,-1,-1,-1,-1,-1,-1,-1,-1,-1,-1,-1,-1,-1,-1,-1,-1,-1,-1,-1,-1,-1,-1,-1],"loss_changes":[6.690078E3,4.1562266E3,3.0149688E3,8.346752E3,4.908562E3,2.9083145E3,1.4281729E3,4.7110034E3,3.4128066E3,2.3302686E3,4.158285E3,1.7027793E3,5.592798E3,6.4774023E2,1.1111262E2,4.0936328E2,2.5391294E3,2.1817441E3,0E0,1.2718306E3,3.1435085E3,2.0161641E3,5.422224E3,7.656221E2,5.0213354E3,6.060606E2,2.339211E3,0E0,2.9500342E2,0E0,0E0,4.9328418E2,0E0,2.4583981E2,3.739844E3,5.041327E3,6.5347676E3,1.6422468E3,1.2444065E3,5.6084937E3,1.2495458E4,9.205624E2,1.2122666E3,0E0,5.0093525E3,0E0,3.8264844E2,2.8472627E3,1.9890503E3,2.0964966E1,2.728849E2,3.939123E3,1.9023779E3,8.8540186E2,0E0,0E0,0E0,0E0,0E0,0E0,0E0,0E0,0E0,0E0,0E0,0E0,0E0,0E0,0E0,0E0,0E0,0E0,0E0,0E0,0E0,0E0,0E0,0E0,0E0,0E0,0E0,0E0,0E0,0E0,0E0,0E0,0E0,0E0,0E0,0E0,0E0,0E0,0E0,0E0,0E0],"parents":[2147483647,0,0,1,1,2,2,3,3,4,4,5,5,6,6,7,7,8,8,9,9,10,10,11,11,12,12,13,13,14,14,15,15,16,16,17,17,19,19,20,20,21,21,22,22,23,23,24,24,25,25,26,26,28,28,31,31,33,33,34,34,35,35,36,36,37,37,38,38,39,39,40,40,41,41,42,42,44,44,46,46,47,47,48,48,49,49,50,50,51,51,52,52,53,53],"right_children":[2,4,6,8,10,12,14,16,18,20,22,24,26,28,30,32,34,36,-1,38,40,42,44,46,48,50,52,-1,54,-1,-1,56,-1,58,60,62,64,66,68,70,72,74,76,-1,78,-1,80,82,84,86,88,90,92,94,-1,-1,-1,-1,-1,-1,-1,-1,-1,-1,-1,-1,-1,-1,-1,-1,-1,-1,-1,-1,-1,-1,-1,-1,-1,-1,-1,-1,-1,-1,-1,-1,-1,-1,-1,-1,-1,-1,-1,-1,-1],"split_conditions":[1.994E3,5E-1,4.677E3,1.3605E3,3.5E0,1.9975E3,1.8E1,9.93E2,1.992E3,1.6735E3,1.978E3,5E-1,1.9985E3,4.984E3,5.0035E3,2.5E0,1.2205E3,1.4985E3,-1.9636744E-1,1.45E1,5.5E0,9.5E0,1.989E3,4E0,4E0,2.05E1,2.147E3,6.454079E0,6.207E3,-4.3156573E-1,1.0361915E0,9.43E2,3.2364907E0,2.5E0,1.331E3,1.4795E3,5.5E0,1.25E1,3.45E1,1.754E3,7.5E0,1.05E1,1.1E1,-2.7186065E0,5.5E0,1.3000648E0,1.1E1,2.5E0,3.35E1,1.5E1,2.5E0,1.8E1,4E0,4.9995E3,4.035996E0,2.1378758E0,6.3063765E-1,-2.5073504E-1,1.3284965E-1,1.9330747E0,2.6016837E-1,2.5511196E0,4.0330017E-1,3.9764545E0,1.3376648E0,-1.9902258E-1,1.5579237E0,-7.174882E-1,1.0231638E0,2.4517121E0,-1.6728506E0,4.935432E0,3.6718145E-3,1.5863742E0,3.6402234E-1,2.5941656E0,1.2393429E0,1.2937357E0,-4.294514E0,4.824813E0,2.7879932E0,1.9348239E0,5.5342216E0,-6.334413E-1,2.8312101E0,5.4686767E-1,1.8847208E0,-6.0152185E-1,2.2354811E-2,2.6867267E-1,3.0201058E0,2.4226856E0,9.3936306E-1,3.801847E0,1.064448E0],"split_indices":[0,5,0,0,5,0,3,0,0,0,0,5,0,0,0,3,0,0,0,2,3,3,0,2,3,2,0,0,0,0,0,0,0,3,0,0,3,2,2,0,3,2,3,0,5,0,2,3,2,2,3,2,3,0,0,0,0,0,0,0,0,0,0,0,0,0,0,0,0,0,0,0,0,0,0,0,0,0,0,0,0,0,0,0,0,0,0,0,0,0,0,0,0,0,0],"split_type":[0,0,0,0,0,0,0,0,0,0,0,0,0,0,0,0,0,0,0,0,0,0,0,0,0,0,0,0,0,0,0,0,0,0,0,0,0,0,0,0,0,0,0,0,0,0,0,0,0,0,0,0,0,0,0,0,0,0,0,0,0,0,0,0,0,0,0,0,0,0,0,0,0,0,0,0,0,0,0,0,0,0,0,0,0,0,0,0,0,0,0,0,0,0,0],"sum_hessian":[4.73E3,3.403E3,1.327E3,1.592E3,1.811E3,1.256E3,7.1E1,9.88E2,6.04E2,8.75E2,9.36E2,3.02E2,9.54E2,6E1,1.1E1,1.11E2,8.77E2,5.5E2,5.4E1,5.84E2,2.91E2,7.91E2,1.45E2,1.22E2,1.8E2,1.92E2,7.62E2,5E0,5.5E1,6E0,5E0,9.1E1,2E1,4.58E2,4.19E2,2.92E2,2.58E2,1.91E2,3.93E2,1.07E2,1.84E2,3.25E2,4.66E2,4.6E1,9.9E1,2.5E1,9.7E1,1E2,8E1,1.2E1,1.8E2,1.67E2,5.95E2,3.5E1,2E1,6.9E1,2.2E1,2.81E2,1.77E2,1.27E2,2.92E2,1.38E2,1.54E2,1.1E2,1.48E2,1.46E2,4.5E1,3.65E2,2.8E1,2.9E1,7.8E1,4.4E1,1.4E2,4.8E1,2.77E2,5.1E1,4.15E2,8.8E1,1.1E1,1E1,8.7E1,8.2E1,1.8E1,6.8E1,1.2E1,5E0,7E0,1E2,8E1,5E1,1.17E2,6.5E1,5.3E2,1.6E1,1.9E1],"tree_param":{"num_deleted":"0","num_feature":"7","num_nodes":"95","size_leaf_vector":"0"}},{"base_weights":[2.5748847E0,2.2887511E0,6.713794E0,4.0077573E-1,2.6646588E0,7.7248173E0,-6.3104856E-1,1.7398305E0,-1.2975644E0,2.7564971E0,-2.6466928E0,1.1613587E1,6.1166596E0,-1.3789809E0,1.0135487E-1,2.251434E0,-4.2683716E0,-4.6196313E0,1.5911163E-1,2.5408306E0,5.5243797E0,-7.2902336E0,8.041503E0,1.3023704E1,8.592299E0,3.029363E0,9.885334E0,3.16706E0,-1.1160464E0,1.4932461E0,1.0060866E1,-1.3763413E-1,-6.700221E0,-3.296283E-1,3.8812659E0,2.6259117E0,-1.0241361E1,9.675761E0,2.7230756E0,-9.666052E0,-0E0,1.4610549E1,1.58244E0,7.3871484E0,1.1851099E0,1.3475323E1,7.2731867E0,-3.558336E0,5.81527E-1,2.3832362E0,-4.4440645E-1,-1.4480147E0,1.2815981E1,5.4860325E0,-3.375504E0,-1.4636911E1,-2.9287853E0,5.9694663E-2,-6.693006E0,3.0170202E0,1.7746084E0,-2.0002441E1,-1.1635787E-1,1.1866676E1,5.6764784E0,2.2054368E-1,1.1581946E1,-7.3283277E0,-1.20376E1,-5.127251E0,3.1238458E0,9.097123E0,2.0420029E1,-1.064617E0,8.901682E0],"categories":[],"categories_nodes":[],"categories_segments":[],"categories_sizes":[],"default_left":[true,true,true,true,true,true,true,true,true,true,true,true,true,false,true,true,false,true,true,true,true,true,true,false,false,true,true,false,true,true,true,true,true,true,false,true,true,true,true,true,false,false,false,false,true,true,true,false,false,false,false,false,false,false,false,false,false,false,false,false,false,false,false,false,false,false,false,false,false,false,false,false,false,false,false],"id":14,"left_children":[1,3,5,7,9,11,13,15,17,19,21,23,25,-1,27,29,-1,31,33,35,37,39,41,-1,-1,43,45,-1,47,49,51,53,55,57,-1,59,61,63,65,67,-1,-1,-1,-1,69,71,73,-1,-1,-1,-1,-1,-1,-1,-1,-1,-1,-1,-1,-1,-1,-1,-1,-1,-1,-1,-1,-1,-1,-1,-1,-1,-1,-1,-1],"loss_changes":[5.506287E3,3.10333E3,2.27504E3,1.6686693E3,1.7930156E3,1.5235498E3,2.5373768E1,1.26511E3,1.5762866E3,2.103002E3,3.1328308E3,1.2786719E2,2.142146E3,0E0,7.49537E1,2.1900557E3,0E0,8.956953E2,4.225768E2,3.631791E3,2.925815E3,7.447842E2,7.2010913E2,0E0,0E0,8.178709E2,6.184404E2,0E0,6.3391037E1,6.0871814E2,1.1091155E3,6.1120215E2,1.8943496E3,5.167087E2,0E0,1.0817559E3,2.093757E3,7.6694824E2,3.4100308E3,1.9466553E1,0E0,0E0,0E0,0E0,9.50556E2,7.332905E2,7.459978E2,0E0,0E0,0E0,0E0,0E0,0E0,0E0,0E0,0E0,0E0,0E0,0E0,0E0,0E0,0E0,0E0,0E0,0E0,0E0,0E0,0E0,0E0,0E0,0E0,0E0,0E0,0E0,0E0],"parents":[2147483647,0,0,1,1,2,2,3,3,4,4,5,5,6,6,7,7,8,8,9,9,10,10,11,11,12,12,14,14,15,15,17,17,18,18,19,19,20,20,21,21,22,22,25,25,26,26,28,28,29,29,30,30,31,31,32,32,33,33,35,35,36,36,37,37,38,38,39,39,44,44,45,45,46,46],"right_children":[2,4,6,8,10,12,14,16,18,20,22,24,26,-1,28,30,-1,32,34,36,38,40,42,-1,-1,44,46,-1,48,50,52,54,56,58,-1,60,62,64,66,68,-1,-1,-1,-1,70,72,74,-1,-1,-1,-1,-1,-1,-1,-1,-1,-1,-1,-1,-1,-1,-1,-1,-1,-1,-1,-1,-1,-1,-1,-1,-1,-1,-1,-1],"split_conditions":[3.735E2,9.85E1,1.8E1,5E-1,3.365E2,4.28E2,4.27E2,9.65E1,2.5E0,2.955E2,3.5E0,1.3E1,5.535E2,-3.5451403E-1,4.62E2,9.35E1,-1.0973303E0,1E0,9.25E1,2.83E2,5E-1,1.35E1,3.63E2,3.3481867E0,2.2089434E0,4.355E2,6.07E2,8.1420064E-1,5.85E2,8.95E1,1E0,9.2E1,2.5E0,9.15E1,9.978116E-1,1.05E1,2.885E2,3.02E2,3.75E1,5E-1,-0E0,3.7561395E0,4.0682012E-1,1.8991182E0,4.725E2,8E0,5.5E0,-9.147915E-1,1.4950132E-1,6.1269206E-1,-1.1424982E-1,-3.7226152E-1,3.2947845E0,1.4103715E0,-8.677883E-1,-3.7629168E0,-7.5294405E-1,1.5346547E-2,-1.7206652E0,7.7562785E-1,4.5622355E-1,-5.142309E0,-2.9913755E-2,3.0507336E0,1.4593322E0,5.6698266E-2,2.9775338E0,-1.8839964E0,-3.094675E0,-1.3181345E0,8.03091E-1,2.3387256E0,5.2496643E0,-2.736961E-1,2.2884805E0],"split_indices":[1,1,3,5,1,1,1,1,5,1,5,3,1,0,1,1,0,3,1,1,5,3,1,0,0,1,1,0,1,1,3,1,3,1,0,3,1,1,3,5,0,0,0,0,1,3,3,0,0,0,0,0,0,0,0,0,0,0,0,0,0,0,0,0,0,0,0,0,0,0,0,0,0,0,0],"split_type":[0,0,0,0,0,0,0,0,0,0,0,0,0,0,0,0,0,0,0,0,0,0,0,0,0,0,0,0,0,0,0,0,0,0,0,0,0,0,0,0,0,0,0,0,0,0,0,0,0,0,0,0,0,0,0,0,0,0,0,0,0,0,0,0,0,0,0,0,0,0,0,0,0,0,0],"sum_hessian":[4.691E3,4.39E3,3.01E2,7.31E2,3.659E3,2.65E2,3.6E1,4.1E2,3.21E2,3.598E3,6.1E1,7.5E1,1.9E2,2E1,1.6E1,3.79E2,3.1E1,9.8E1,2.23E2,3.341E3,2.57E2,4.3E1,1.8E1,4.8E1,2.7E1,1.06E2,8.4E1,5E0,1.1E1,3.47E2,3.2E1,3.2E1,6.6E1,1.97E2,2.6E1,3.32E3,2.1E1,1.02E2,1.55E2,3.2E1,1.1E1,8E0,1E1,3E1,7.6E1,3.3E1,5.1E1,5E0,6E0,2.39E2,1.08E2,6E0,2.6E1,1.1E1,2.1E1,2E1,4.6E1,1.86E2,1.1E1,2.27E3,1.05E3,1E1,1.1E1,6.4E1,3.8E1,1.22E2,3.3E1,1.9E1,1.3E1,1.7E1,5.9E1,2.2E1,1.1E1,8E0,4.3E1],"tree_param":{"num_deleted":"0","num_feature":"7","num_nodes":"75","size_leaf_vector":"0"}},{"base_weights":[1.8614143E0,1.6321875E0,5.1306567E0,-4.1191196E-1,1.8110033E0,5.9908037E0,1.4537631E0,3.4341818E-1,-5.9205604E0,1.8904382E0,-3.31824E0,8.937673E0,4.6233206E0,-7.44718E0,6.9052024E0,-3.1535983E-1,3.5321314E0,-2.333607E0,-1.3719655E1,5.6077495E0,1.816327E0,5.17702E0,-7.377138E0,1.3276678E1,8.098651E0,-4.7716066E-1,6.064229E0,5.7006896E-1,-2.6409012E1,-7.267986E-1,7.7567714E-1,2.2162469E-1,6.459445E0,-3.5744584E0,-2.9391387E-1,6.705108E0,2.22934E0,-3.2772878E-1,1.9869983E0,1.0771212E1,-1.1056162E0,-8.6262665E0,-3.2115653E0,4.586647E0,9.861782E0,1.6711414E0,-9.228032E0,5.13464E0,1.0386618E1,-8.833785E0,-3.914845E-1,1.1501808E-2,5.35213E0,3.0665305E0,-7.3308045E-1,2.0985942E0,9.839825E0,5.2699046E0,8.661082E0,2.4083705E0,-1.6787773E0,2.011636E0,-8.856309E0,4.4821677E0,-1.0014082E0,6.3484707E0,6.793135E-1],"categories":[],"categories_nodes":[],"categories_segments":[],"categories_sizes":[],"default_left":[true,true,true,true,true,true,true,true,true,true,true,true,true,true,false,true,true,true,false,true,true,true,true,false,true,true,true,false,false,true,true,true,true,false,false,true,false,true,true,false,false,false,false,false,false,true,false,true,false,false,false,false,false,false,false,false,false,false,false,false,false,false,false,false,false,false,false],"id":15,"left_children":[1,3,5,7,9,11,13,15,17,19,21,23,25,27,-1,29,31,33,-1,35,37,39,41,-1,43,45,47,-1,-1,49,51,53,55,-1,-1,57,-1,59,61,-1,-1,-1,-1,-1,-1,63,-1,65,-1,-1,-1,-1,-1,-1,-1,-1,-1,-1,-1,-1,-1,-1,-1,-1,-1,-1,-1],"loss_changes":[3.4717725E3,1.6053223E3,9.269702E2,1.4841681E3,1.6406738E3,8.972988E2,2.9606948E3,6.627189E2,1.108513E3,1.0532949E3,2.1501084E3,8.6075195E1,1.2813442E3,3.6119844E3,0E0,1.1529087E2,4.9590875E2,6.2373596E1,0E0,2.3208276E2,1.4305645E3,7.524023E2,1.448252E2,0E0,3.1348193E2,7.5917487E2,4.247588E2,0E0,0E0,4.7446036E2,2.1690167E2,8.465084E1,3.457057E2,0E0,0E0,5.741455E1,0E0,1.0584359E3,9.542998E2,0E0,0E0,0E0,0E0,0E0,0E0,2.5090823E2,0E0,5.794773E2,0E0,0E0,0E0,0E0,0E0,0E0,0E0,0E0,0E0,0E0,0E0,0E0,0E0,0E0,0E0,0E0,0E0,0E0,0E0],"parents":[2147483647,0,0,1,1,2,2,3,3,4,4,5,5,6,6,7,7,8,8,9,9,10,10,11,11,12,12,13,13,15,15,16,16,17,17,19,19,20,20,21,21,22,22,24,24,25,25,26,26,29,29,30,30,31,31,32,32,35,35,37,37,38,38,45,45,47,47],"right_children":[2,4,6,8,10,12,14,16,18,20,22,24,26,28,-1,30,32,34,-1,36,38,40,42,-1,44,46,48,-1,-1,50,52,54,56,-1,-1,58,-1,60,62,-1,-1,-1,-1,-1,-1,64,-1,66,-1,-1,-1,-1,-1,-1,-1,-1,-1,-1,-1,-1,-1,-1,-1,-1,-1,-1,-1],"split_conditions":[3.735E2,8.75E1,1E0,8.45E1,3.35E2,4.28E2,2.5E0,1.8E1,2.15E1,8.95E1,2.3E1,3.85E2,4.725E2,3.975E2,1.7752175E0,7.25E1,7.5E1,1E0,-3.5271049E0,5E-1,9.85E1,1.5E0,3.5E0,3.4132226E0,2.3E1,4.665E2,6.37E2,1.4655565E-1,-6.789336E0,9.5E0,3.55E1,2.35E1,2.5E1,-9.189363E-1,-7.556058E-2,2E1,5.731278E-1,1.25E1,6.5E0,2.7691069E0,-2.842363E-1,-2.2176757E0,-8.256423E-1,1.1791539E0,2.5353072E0,4.495E2,-2.37238E0,6.07E2,2.670234E0,-2.2710254E0,-1.0064443E-1,2.9569315E-3,1.3759474E0,7.883561E-1,-1.884633E-1,5.3951514E-1,2.5296621E0,1.3548086E0,2.2266264E0,6.191537E-1,-4.3158692E-1,5.171596E-1,-2.276816E0,1.1522939E0,-2.574461E-1,1.6320907E0,1.7464067E-1],"split_indices":[1,1,5,1,1,1,5,3,2,1,2,1,1,1,0,1,1,3,0,5,1,5,5,0,2,1,1,0,0,2,2,3,3,0,0,2,0,2,5,0,0,0,0,0,0,1,0,1,0,0,0,0,0,0,0,0,0,0,0,0,0,0,0,0,0,0,0],"split_type":[0,0,0,0,0,0,0,0,0,0,0,0,0,0,0,0,0,0,0,0,0,0,0,0,0,0,0,0,0,0,0,0,0,0,0,0,0,0,0,0,0,0,0,0,0,0,0,0,0,0,0,0,0,0,0,0,0,0,0,0,0,0,0,0,0,0,0],"sum_hessian":[4.678E3,4.374E3,3.04E2,3.5E2,4.024E3,2.45E2,5.9E1,3.08E2,4.2E1,3.964E3,6E1,7.5E1,1.7E2,2.2E1,3.7E1,2.55E2,5.3E1,3E1,1.2E1,7.5E1,3.889E3,1.9E1,4.1E1,9E0,6.6E1,3.7E1,1.33E2,1.6E1,6E0,1.88E2,6.7E1,2.6E1,2.7E1,1.7E1,1.3E1,5.5E1,2E1,2.85E2,3.604E3,1E1,9E0,3E1,1.1E1,2.4E1,4.2E1,3E1,7E0,1.12E2,2.1E1,6E0,1.82E2,5.9E1,8E0,7E0,1.9E1,1.3E1,1.4E1,3.5E1,2E1,9.3E1,1.92E2,3.597E3,7E0,1.5E1,1.5E1,8.7E1,2.5E1],"tree_param":{"num_deleted":"0","num_feature":"7","num_nodes":"67","size_leaf_vector":"0"}},{"base_weights":[1.4943367E0,9.891088E-1,2.8170035E0,1.1123455E0,-2.6872482E0,5.488957E0,2.0405262E0,6.497655E-1,1.7164485E0,-8.593172E0,-1.5492195E0,8.595447E0,3.720602E0,-1.9449741E0,2.8885834E0,4.784605E0,4.7763985E-1,3.202252E0,1.1075597E0,-3.8231823E0,-1.19765005E1,-1.319677E-1,-2.5697587E0,6.3123055E0,2.1462147E1,2.1824496E0,5.1941886E0,-3.1976817E0,-4.4089034E-1,4.950321E0,1.7556328E0,2.1371202E0,5.4685235E0,8.34733E-2,1.640976E0,1.374033E1,1.4998444E0,1.577527E0,-8.129568E0,4.063169E0,8.200878E0,3.8967113E0,-2.7930927E-1,-5.265496E-1,-0E0,1.2637083E-1,6.093579E0,4.7333603E0,1.3871398E0,-1.17598124E-1,2.258711E0,5.3334394E0,1.7870358E-1,4.731349E0,2.214148E1,-1.4432676E-1,2.630322E0,5.9967524E-1,2.7979317E0,2.0132306E0,1.0442959E1,-4.2699523E0,3.4695613E0,5.027917E0,1.02119E1,4.9879603E0,1.6106015E0,5.8877045E-1,2.9176435E0],"categories":[],"categories_nodes":[],"categories_segments":[],"categories_sizes":[],"default_left":[true,true,true,true,true,true,true,true,true,true,true,true,true,true,true,true,true,true,true,false,false,false,false,true,false,true,false,false,true,true,true,false,false,true,true,true,true,true,false,true,false,false,false,true,true,true,true,true,true,false,false,false,false,false,false,false,false,false,false,false,false,false,false,false,false,false,false,false,false],"id":16,"left_children":[1,3,5,7,9,11,13,15,17,19,21,23,25,27,29,31,33,35,37,-1,-1,-1,-1,39,-1,41,-1,-1,-1,45,47,-1,-1,49,51,53,55,57,-1,59,-1,-1,-1,-1,-1,61,63,65,67,-1,-1,-1,-1,-1,-1,-1,-1,-1,-1,-1,-1,-1,-1,-1,-1,-1,-1,-1,-1],"loss_changes":[3.131873E3,1.5436206E3,2.6566592E3,9.132566E2,6.865885E2,1.5187217E3,3.4230176E3,1.313145E3,1.2725029E3,1.6715552E2,1.2511783E2,2.8117266E3,3.8611353E2,3.1794727E2,1.9133418E3,9.274072E1,8.203814E2,7.329419E3,4.402307E3,0E0,0E0,0E0,0E0,3.0130005E2,0E0,4.1605783E2,0E0,0E0,4.1056805E0,1.5964692E3,5.6326917E2,0E0,0E0,5.994855E2,2.4289443E3,4.104884E3,6.7359753E2,1.1414966E3,0E0,5.0600134E2,0E0,0E0,0E0,0E0,0E0,8.6417316E2,9.2955176E2,1.2432373E1,5.760568E2,0E0,0E0,0E0,0E0,0E0,0E0,0E0,0E0,0E0,0E0,0E0,0E0,0E0,0E0,0E0,0E0,0E0,0E0,0E0,0E0],"parents":[2147483647,0,0,1,1,2,2,3,3,4,4,5,5,6,6,7,7,8,8,9,9,10,10,11,11,12,12,13,13,14,14,15,15,16,16,17,17,18,18,23,23,25,25,28,28,29,29,30,30,33,33,34,34,35,35,36,36,37,37,39,39,45,45,46,46,47,47,48,48],"right_children":[2,4,6,8,10,12,14,16,18,20,22,24,26,28,30,32,34,36,38,-1,-1,-1,-1,40,-1,42,-1,-1,-1,46,48,-1,-1,50,52,54,56,58,-1,60,-1,-1,-1,-1,-1,62,64,66,68,-1,-1,-1,-1,-1,-1,-1,-1,-1,-1,-1,-1,-1,-1,-1,-1,-1,-1,-1,-1],"split_conditions":[1.994E3,1.9915E3,1.9975E3,7.5E0,1.2E1,4E0,1.9985E3,9.43E2,1.05E1,1.9925E3,1.45E1,2.5E0,5.5E0,5E-1,7.5E0,8.865E2,1.5445E3,1.547E3,1.978E3,-9.828793E-1,-3.0789676E0,-3.3926792E-2,-6.60644E-1,1.9965E3,5.517576E0,1.996E3,1.3353431E0,-8.2207304E-1,-1.13345884E-1,1.9995E3,2.075E3,5.494196E-1,1.4058703E0,2E0,5E-1,9.5E0,2.5E0,1.59E3,-2.0899825E0,2E0,2.1083152E0,1.0017824E0,-7.180596E-2,-1.3536751E-1,-0E0,6E0,5.5E0,2.1E1,3.2275E3,-3.0232605E-2,5.8067864E-1,1.3711423E0,4.5941845E-2,1.2163545E0,5.6922216E0,-3.710411E-2,6.7621386E-1,1.5416695E-1,7.1930367E-1,5.175695E-1,2.6847184E0,-1.0977367E0,8.9196897E-1,1.2925973E0,2.6253169E0,1.2823251E0,4.1406E-1,1.513635E-1,7.500797E-1],"split_indices":[0,0,0,3,3,3,0,0,3,0,3,3,3,4,3,0,0,0,0,0,0,0,0,0,0,0,0,0,3,0,0,0,0,6,4,3,6,0,0,6,0,0,0,2147483647,2147483647,3,3,3,0,0,0,0,0,0,0,0,0,0,0,0,0,0,0,0,0,0,0,0,0],"split_type":[0,0,0,0,0,0,0,0,0,0,0,0,0,0,0,0,0,0,0,0,0,0,0,0,0,0,0,0,0,0,0,0,0,0,0,0,0,0,0,0,0,0,0,0,0,0,0,0,0,0,0,0,0,0,0,0,0,0,0,0,0,0,0,0,0,0,0,0,0],"sum_hessian":[4.712E3,3.413E3,1.299E3,3.304E3,1.09E2,2.9E2,1.009E3,1.876E3,1.428E3,1.6E1,9.3E1,1.03E2,1.87E2,1.76E2,8.33E2,7.3E1,1.803E3,4.12E2,1.016E3,8E0,8E0,4.1E1,5.2E1,8.9E1,1.4E1,9.4E1,9.3E1,9.4E1,8.2E1,2.93E2,5.4E2,1.7E1,5.6E1,1.35E3,4.53E2,5.6E1,3.56E2,9.68E2,4.8E1,4.3E1,4.6E1,5.6E1,3.8E1,7.2E1,1E1,5.7E1,2.36E2,5.7E1,4.83E2,1.235E3,1.15E2,1.27E2,3.26E2,2.8E1,2.8E1,1.44E2,2.12E2,5.4E2,4.28E2,3.4E1,9E0,2.4E1,3.3E1,1.9E2,4.6E1,5.1E1,6E0,3.2E2,1.63E2],"tree_param":{"num_deleted":"2","num_feature":"7","num_nodes":"69","size_leaf_vector":"0"}},{"base_weights":[1.0509043E0,1.6490993E0,5.0984806E-1,3.0547678E0,1.2470698E0,-9.438495E0,6.2027526E-1,2.609562E0,8.40215E0,6.6284233E-1,2.1825435E0,-3.045034E-1,1.105831E0,3.0279305E0,-2.4460883E0,1.2246204E1,9.345634E-1,1.107665E0,-7.0841616E-1,8.303652E-1,3.3581467E0,-7.006848E-1,7.3964705E0,7.1835003E0,6.027923E-1,4.5504007E0,2.3676448E0,-7.3327575E0,1.0115184E1,6.2220373E0,2.3030937E1,-1.7306632E-1,3.0880423E0,6.9224316E-1,3.8252904E0,-1.8268964E0,4.6642246E0,4.7795555E-1,4.729632E0,4.433871E0,-1.0447698E0,1.2083936E0,-2.0349097E0,4.548288E0,9.7073555E0,1.4599117E1,-5.292967E-1,-6.3578427E-1,1.3423128E0,3.1592824E0,8.107367E0,-3.2429492E0,3.0150528E0,-1.663781E-2,1.5107695E0,-3.5677347E0,6.290391E0,-2.8848267E0,-9.140969E-1,1.7706776E0,-9.3188874E-2,1.3042451E1,5.563564E-1,3.7993426E0,8.644439E0,-1.1046745E1,2.5551443E0,8.549458E-1,1.2079898E1,-1.6046466E0,-7.8332033E0,1.3663031E1,2.4831452E0,-3.0011768E0,5.816417E0,-4.739488E0,-3.2779333E-1,1.6316172E0,-2.5231072E-1],"categories":[],"categories_nodes":[],"categories_segments":[],"categories_sizes":[],"default_left":[true,true,true,true,true,false,true,true,true,true,true,true,true,true,true,true,true,true,true,true,true,true,true,true,true,true,true,false,false,false,false,false,false,true,true,true,false,true,true,true,true,true,true,false,true,false,true,true,true,false,false,false,false,false,false,false,false,false,false,false,false,false,false,false,false,false,false,false,false,false,false,false,false,false,false,false,false,false,false],"id":17,"left_children":[1,3,5,7,9,-1,11,13,15,17,19,21,23,25,27,29,31,33,35,37,39,41,43,45,47,49,51,-1,-1,-1,-1,-1,-1,53,55,57,-1,59,61,63,65,67,69,-1,71,-1,73,75,77,-1,-1,-1,-1,-1,-1,-1,-1,-1,-1,-1,-1,-1,-1,-1,-1,-1,-1,-1,-1,-1,-1,-1,-1,-1,-1,-1,-1,-1,-1],"loss_changes":[1.5219893E3,1.2470347E3,2.7059148E3,1.1160942E3,9.4282764E2,0E0,1.1094161E3,9.826255E2,9.9943945E2,6.611006E2,1.0443911E3,2.5602888E3,4.912122E3,3.9058032E2,2.211755E3,1.3022576E3,4.525788E1,9.0328345E2,1.5779108E3,4.0897845E2,1.7039358E3,2.0586663E3,1.7029468E2,7.097417E3,1.3738647E3,5.5406396E2,1.102227E3,0E0,0E0,0E0,0E0,0E0,0E0,4.1896173E2,1.9830518E3,1.94081E2,0E0,2.20801E2,8.0718036E2,6.855757E2,2.5816687E3,1.2112683E3,1.1382688E3,0E0,5.034253E2,0E0,9.633504E2,6.8400934E2,4.3896313E2,0E0,0E0,0E0,0E0,0E0,0E0,0E0,0E0,0E0,0E0,0E0,0E0,0E0,0E0,0E0,0E0,0E0,0E0,0E0,0E0,0E0,0E0,0E0,0E0,0E0,0E0,0E0,0E0,0E0,0E0],"parents":[2147483647,0,0,1,1,2,2,3,3,4,4,6,6,7,7,8,8,9,9,10,10,11,11,12,12,13,13,14,14,15,15,16,16,17,17,18,18,19,19,20,20,21,21,22,22,23,23,24,24,25,25,26,26,33,33,34,34,35,35,37,37,38,38,39,39,40,40,41,41,42,42,44,44,46,46,47,47,48,48],"right_children":[2,4,6,8,10,-1,12,14,16,18,20,22,24,26,28,30,32,34,36,38,40,42,44,46,48,50,52,-1,-1,-1,-1,-1,-1,54,56,58,-1,60,62,64,66,68,70,-1,72,-1,74,76,78,-1,-1,-1,-1,-1,-1,-1,-1,-1,-1,-1,-1,-1,-1,-1,-1,-1,-1,-1,-1,-1,-1,-1,-1,-1,-1,-1,-1,-1,-1],"split_conditions":[5E-1,1.25E1,5.5E0,6.5E0,6.5E0,-2.4264867E0,5.5E0,5.5E0,1.05E1,5.5E0,1.85E1,3.6E1,6.5E0,7.5E0,6.5E0,5.5E0,8E0,4E0,3.2E1,2.85E1,3.75E1,1.35E1,2.5E0,3E1,4E0,6.5E0,8.5E0,-1.8851352E0,2.6004527E0,1.5995867E0,5.920887E0,-4.4492595E-2,7.938865E-1,2.55E1,1.75E1,2.7E1,1.1990979E0,1.6E1,3.15E1,2.95E1,3.95E1,5.5E0,3.2E1,1.1692923E0,4E0,3.7532005E0,3E0,5E-1,5.5E0,8.122012E-1,2.0842748E0,-8.337106E-1,7.7512205E-1,-4.277316E-3,3.8839477E-1,-9.172078E-1,1.6171594E0,-7.41643E-1,-2.3499975E-1,4.55213E-1,-2.3957375E-2,3.3530064E0,1.4303036E-1,9.767505E-1,2.2223475E0,-2.8399422E0,6.568869E-1,2.1979295E-1,3.1055493E0,-4.1252908E-1,-2.0137918E0,3.5125475E0,6.383771E-1,-7.7155477E-1,1.4953083E0,-1.2184469E0,-8.427045E-2,4.194628E-1,-6.486507E-2],"split_indices":[5,2,2,3,3,0,3,3,3,3,2,2,3,2,2,2,2,3,2,3,2,2,3,2,5,2,2,0,0,0,0,0,0,2,2,2,0,3,3,2,2,5,2,0,3,0,5,4,5,0,0,0,0,0,0,0,0,0,0,0,0,0,0,0,0,0,0,0,0,0,0,0,0,0,0,0,0,0,0],"split_type":[0,0,0,0,0,0,0,0,0,0,0,0,0,0,0,0,0,0,0,0,0,0,0,0,0,0,0,0,0,0,0,0,0,0,0,0,0,0,0,0,0,0,0,0,0,0,0,0,0,0,0,0,0,0,0,0,0,0,0,0,0,0,0,0,0,0,0,0,0,0,0,0,0,0,0,0,0,0,0],"sum_hessian":[4.73E3,2.242E3,2.488E3,4.95E2,1.747E3,2.6E1,2.462E3,4.59E2,3.6E1,1.079E3,6.68E2,8.45E2,1.617E3,4.25E2,3.4E1,2.3E1,1.3E1,8.17E2,2.62E2,3.13E2,3.55E2,8.05E2,4E1,1.22E2,1.495E3,1.25E2,3E2,2.5E1,9E0,1.6E1,7E0,8E0,5E0,7.11E2,1.06E2,2.18E2,4.4E1,2.89E2,2.4E1,2.86E2,6.9E1,3.3E2,4.75E2,2E1,2E1,6.2E1,6E1,5.57E2,9.38E2,9.2E1,3.3E1,3E1,2.7E2,3.79E2,3.32E2,2.6E1,8E1,9.8E1,1.2E2,9E1,1.99E2,7E0,1.7E1,2.51E2,3.5E1,1.8E1,5.1E1,3.21E2,9E0,4.44E2,3.1E1,1.2E1,8E0,4.4E1,1.6E1,3.7E1,5.2E2,7.96E2,1.42E2],"tree_param":{"num_deleted":"0","num_feature":"7","num_nodes":"79","size_leaf_vector":"0"}},{"base_weights":[8.0455774E-1,3.2014784E-1,1.3573856E0,1.1179981E-1,3.0931022E0,3.974748E0,9.6484494E-1,4.4135022E-1,-1.4842386E0,4.7962213E0,-6.6365547E0,-2.2753856E0,5.6410594E0,-1.9729967E0,1.2027246E0,1.8134505E-1,3.8649185E1,-1.0022154E-1,-1.6184097E1,1.3653752E0,8.392374E0,-1.2219816E1,-2.7332644E0,5.971143E-1,-3.715907E0,1.2179759E1,1.0806992E0,2.6195605E0,-6.4030347E0,6.4371023E0,7.735558E-1,8.229319E-1,-7.283562E-1,2.3947852E0,-2.9363718E0,-2.6738014E1,-2.3968942E0,-3.5304928E-1,3.7139192E0,1.0391299E1,2.0649493E0,2.992732E-1,-6.6681247E0,-5.474561E0,-2.5650558E0,2.0647154E1,4.57647E0,-1.2604474E1,2.4386518E0,5.1323277E-1,7.0151844E0,-1.0697737E1,-4.1357813E0,1.2513161E1,-4.8643312E0,-1.5063327E1,1.0014476E0,3.1448987E-1,1.0007092E1,7.837913E-1,-2.0033398E0,3.5180218E0,-6.3701224E0,-5.12797E0,-1.3439537E0,4.729183E0,-1.6847739E0,1.0203692E0,1.3402306E1,1.255439E1,8.256065E0,-7.7011256E0,-1.5925831E0,1.0496867E1,2.2910946E1,-3.0687327E0,6.911155E0,1.8877E0,1.0743785E1,5.811582E0,-1.6611016E0,1.06130495E1,4.369526E0,-5.3170047E0,-3.11491E0,2.5030148E1,9.503831E0,-3.2217367E0,-8.228411E0,-1.3670565E0,1.4968255E0],"categories":[],"categories_nodes":[],"categories_segments":[],"categories_sizes":[],"default_left":[true,true,true,true,true,true,true,true,true,true,true,true,true,true,true,true,false,true,true,true,true,false,true,false,true,true,true,true,true,true,true,true,true,true,true,false,false,true,true,true,false,false,false,true,false,true,true,false,true,true,true,false,true,true,true,false,true,false,false,false,false,false,false,false,false,false,false,false,false,false,false,false,false,false,false,false,false,false,false,false,false,false,false,false,false,false,false,false,false,false,false],"id":18,"left_children":[1,3,5,7,9,11,13,15,17,19,21,23,25,27,29,31,-1,33,35,37,39,-1,41,-1,43,45,47,49,51,53,55,57,59,61,63,-1,-1,65,67,69,-1,-1,-1,71,-1,73,75,-1,77,79,81,-1,83,85,87,-1,89,-1,-1,-1,-1,-1,-1,-1,-1,-1,-1,-1,-1,-1,-1,-1,-1,-1,-1,-1,-1,-1,-1,-1,-1,-1,-1,-1,-1,-1,-1,-1,-1,-1,-1],"loss_changes":[1.2511475E3,1.4367461E3,2.2270183E3,1.2252795E3,2.9079902E3,2.9836826E3,1.3320912E3,1.9104547E4,8.0323374E3,1.7889546E3,4.7510107E2,2.6261475E2,6.644533E3,2.9204973E3,3.9341924E3,1.125665E3,0E0,2.591955E3,4.7699766E3,3.2916614E2,8.407871E2,0E0,2.2960425E2,0E0,3.7691223E1,5.7304346E3,2.4814568E3,6.1524207E2,6.08916E2,9.223463E3,5.8576914E3,5.247407E3,1.5390413E3,1.9212675E3,5.6822327E2,0E0,0E0,3.007007E2,8.175364E2,6.4875E1,0E0,0E0,0E0,7.262146E1,0E0,6.177168E2,9.2860034E2,0E0,4.934378E2,5.9028436E2,1.0480408E2,0E0,1.0958984E1,2.9049863E3,1.8869958E2,0E0,1.8939175E3,0E0,0E0,0E0,0E0,0E0,0E0,0E0,0E0,0E0,0E0,0E0,0E0,0E0,0E0,0E0,0E0,0E0,0E0,0E0,0E0,0E0,0E0,0E0,0E0,0E0,0E0,0E0,0E0,0E0,0E0,0E0,0E0,0E0,0E0],"parents":[2147483647,0,0,1,1,2,2,3,3,4,4,5,5,6,6,7,7,8,8,9,9,10,10,11,11,12,12,13,13,14,14,15,15,17,17,18,18,19,19,20,20,22,22,24,24,25,25,26,26,27,27,28,28,29,29,30,30,31,31,32,32,33,33,34,34,37,37,38,38,39,39,43,43,45,45,46,46,48,48,49,49,50,50,52,52,53,53,54,54,56,56],"right_children":[2,4,6,8,10,12,14,16,18,20,22,24,26,28,30,32,-1,34,36,38,40,-1,42,-1,44,46,48,50,52,54,56,58,60,62,64,-1,-1,66,68,70,-1,-1,-1,72,-1,74,76,-1,78,80,82,-1,84,86,88,-1,90,-1,-1,-1,-1,-1,-1,-1,-1,-1,-1,-1,-1,-1,-1,-1,-1,-1,-1,-1,-1,-1,-1,-1,-1,-1,-1,-1,-1,-1,-1,-1,-1,-1,-1],"split_conditions":[1.615E2,1.996E3,1.785E2,1.405E2,2.167E3,1.377E3,1.815E2,1.993E3,1.994E3,2.4E1,2.5E0,5E-1,2.85E1,2.1E1,1.855E2,2.95E1,9.9360895E0,1.6735E3,3.5E0,1.445E2,3.5E1,-3.14152E0,7E0,1.5350859E-1,4E0,1.9755E3,3.05E1,1.75E1,2.5E0,1.2E1,1.87E2,1.6735E3,1.3325E3,2.4E1,1.9805E3,-6.8739176E0,-6.162033E-1,1.215E2,2.1E1,3.05E1,5.3086555E-1,7.693837E-2,-1.7142687E0,1.35E3,-6.59435E-1,1.4975E3,2E1,-3.2404096E0,2.6265E3,1.483E3,1.75E1,-2.7502177E0,1.992E3,1.4E1,3.45E1,-3.8725414E0,1.9595E3,8.085033E-2,2.572664E0,2.0150027E-1,-5.1502675E-1,9.0442735E-1,-1.637657E0,-1.3183194E0,-3.4550908E-1,1.2157977E0,-4.3312854E-1,2.6232067E-1,3.4455192E0,3.2275336E0,2.1225028E0,-1.9798367E0,-4.0942773E-1,2.6985774E0,5.8900394E0,-7.889223E-1,1.776748E0,4.852976E-1,2.7620559E0,1.4940652E0,-4.2704275E-1,2.728446E0,1.1233355E0,-1.3669173E0,-8.007937E-1,6.434852E0,2.4432836E0,-8.282572E-1,-2.1153934E0,-3.5144845E-1,3.8480997E-1],"split_indices":[1,0,1,1,0,0,1,0,0,2,3,3,2,2,1,2,0,0,3,1,2,0,3,0,3,0,2,3,3,3,1,0,0,3,0,0,0,1,2,2,0,0,0,0,0,0,2,0,0,0,2,0,0,2,3,0,0,0,0,0,0,0,0,0,0,0,0,0,0,0,0,0,0,0,0,0,0,0,0,0,0,0,0,0,0,0,0,0,0,0,0],"split_type":[0,0,0,0,0,0,0,0,0,0,0,0,0,0,0,0,0,0,0,0,0,0,0,0,0,0,0,0,0,0,0,0,0,0,0,0,0,0,0,0,0,0,0,0,0,0,0,0,0,0,0,0,0,0,0,0,0,0,0,0,0,0,0,0,0,0,0,0,0,0,0,0,0,0,0,0,0,0,0,0,0,0,0,0,0,0,0,0,0,0,0],"sum_hessian":[4.697E3,2.508E3,2.189E3,2.335E3,1.73E2,2.83E2,1.906E3,1.938E3,3.97E2,1.48E2,2.5E1,5.9E1,2.24E2,1.41E2,1.765E3,1.926E3,1.2E1,3.64E2,3.3E1,7.7E1,7.1E1,9E0,1.6E1,1.9E1,4E1,9.1E1,1.33E2,6.9E1,7.2E1,1.32E2,1.633E3,1.132E3,7.94E2,1.93E2,1.71E2,1.8E1,1.5E1,4.4E1,3.3E1,5.3E1,1.8E1,9E0,7E0,1.3E1,2.7E1,4.2E1,4.9E1,1.1E1,1.22E2,4.8E1,2.1E1,2.3E1,4.9E1,8.6E1,4.6E1,2.2E1,1.611E3,1.074E3,5.8E1,3.62E2,4.32E2,1.72E2,2.1E1,7E1,1.01E2,8E0,3.6E1,2.7E1,6E0,2.3E1,3E1,7E0,6E0,9E0,3.3E1,1.1E1,3.8E1,1.16E2,6E0,1.4E1,3.4E1,7E0,1.4E1,1.9E1,3E1,1.5E1,7.1E1,3.3E1,1.3E1,2.77E2,1.334E3],"tree_param":{"num_deleted":"0","num_feature":"7","num_nodes":"91","size_leaf_vector":"0"}},{"base_weights":[4.277822E-1,1.0022888E0,-8.090274E-2,4.8956472E-1,2.7931085E0,-7.859476E0,3.1639598E-3,7.17153E-1,-8.28091E0,3.014248E0,-1.4826342E1,-5.4578342E0,-1.4707788E1,-1.2512877E0,1.8034628E-1,5.294678E-1,6.367079E0,-1.5153338E0,-1.1712394E1,9.075106E0,2.2844448E0,-3.2957249E0,-2.7359825E-1,2.5646603E0,3.6436252E-2,6.885331E-1,-9.915115E0,1.4371308E1,4.7521286E0,-6.425437E0,9.4731927E-1,-5.5550985E0,-1.264042E1,5.238994E0,1.621052E1,-2.845571E-1,3.5261908E0,-5.6378794E0,-2.0321643E0,-7.8877425E-1,4.3626385E0,2.8100252E0,-1.958712E0,-1.0906184E1,1.3057353E-1,5.0970477E-1,8.109499E0,8.4739886E-2,6.2826333E0,7.4355407E0,3.025468E0,1.6700528E0,-4.0678415E0,6.5798945E0,1.8653016E0,-2.216845E0,-9.60038E0,2.8348713E0,-4.507832E0,-5.290881E-1,-4.9436336E0,1.1228496E0,3.5368085E0,-5.880395E0,-1.6690575E1,8.306056E-2,7.7383785E0],"categories":[],"categories_nodes":[],"categories_segments":[],"categories_sizes":[],"default_left":[true,true,true,true,true,true,true,true,true,true,false,false,false,true,true,true,true,true,true,true,true,true,true,true,true,true,false,false,true,false,false,false,false,true,false,true,true,true,true,true,false,true,false,true,true,false,false,false,false,false,false,false,false,false,false,false,false,false,false,false,false,false,false,false,false,false,false],"id":19,"left_children":[1,3,5,7,9,11,13,15,17,19,-1,-1,-1,21,23,25,27,29,31,33,35,37,39,41,43,45,-1,-1,47,-1,-1,-1,-1,49,-1,51,53,55,57,59,-1,61,-1,63,65,-1,-1,-1,-1,-1,-1,-1,-1,-1,-1,-1,-1,-1,-1,-1,-1,-1,-1,-1,-1,-1,-1],"loss_changes":[1.3710664E3,2.006824E3,1.6516256E3,3.3977822E3,1.9002009E3,2.8542236E2,5.412833E2,1.7428245E3,9.29125E2,2.071538E3,0E0,0E0,0E0,5.8687134E2,7.285485E2,2.662386E3,5.42478E2,2.2084921E2,1.9055176E1,1.2276885E3,1.3948938E3,2.4283875E2,4.8157678E2,1.4310803E2,2.0537524E3,2.0817112E3,0E0,0E0,3.0331824E2,0E0,0E0,0E0,0E0,1.0701843E2,0E0,1.0587863E3,1.440958E3,3.6657385E2,8.024772E2,1.778786E2,0E0,1.2015814E2,0E0,3.0833386E2,6.980409E2,0E0,0E0,0E0,0E0,0E0,0E0,0E0,0E0,0E0,0E0,0E0,0E0,0E0,0E0,0E0,0E0,0E0,0E0,0E0,0E0,0E0,0E0],"parents":[2147483647,0,0,1,1,2,2,3,3,4,4,5,5,6,6,7,7,8,8,9,9,13,13,14,14,15,15,16,16,17,17,18,18,19,19,20,20,21,21,22,22,23,23,24,24,25,25,28,28,33,33,35,35,36,36,37,37,38,38,39,39,41,41,43,43,44,44],"right_children":[2,4,6,8,10,12,14,16,18,20,-1,-1,-1,22,24,26,28,30,32,34,36,38,40,42,44,46,-1,-1,48,-1,-1,-1,-1,50,-1,52,54,56,58,60,-1,62,-1,64,66,-1,-1,-1,-1,-1,-1,-1,-1,-1,-1,-1,-1,-1,-1,-1,-1,-1,-1,-1,-1,-1,-1],"split_conditions":[5E-1,2.28E2,6E0,2.02E2,3.6E1,2E2,9.6E1,1.875E2,5.5E0,4E0,-3.8116162E0,-1.4031223E0,-3.7811382E0,2.5E0,9.5E0,1.85E2,1.895E2,2.3E1,2.14E2,2.5E0,1.75E1,8.7E1,9.25E1,1.05E1,1.25E1,1.83E2,-2.5490181E0,3.6946344E0,1.92E2,-1.6518775E0,2.4354069E-1,-1.4281274E0,-3.2496507E0,3.1E2,4.1674666E0,1.2E1,3.385E2,4.25E1,9E1,9.15E1,1.1215649E0,1.145E2,-5.035536E-1,1.05E1,5.335E2,1.3103698E-1,2.0848231E0,2.1785274E-2,1.615165E0,1.9115591E0,7.7779967E-1,4.2934397E-1,-1.0457773E0,1.6915861E0,4.7953933E-1,-5.6991553E-1,-2.4681048E0,7.2880024E-1,-1.1588918E0,-1.3602012E-1,-1.2709295E0,2.8866675E-1,9.092571E-1,-1.5117558E0,-4.2908807E0,2.1353548E-2,1.9894139E0],"split_indices":[5,1,2,1,2,1,1,1,3,3,0,0,0,5,2,1,1,2,1,3,2,1,1,3,2,1,0,0,1,0,0,0,0,1,0,2,1,1,1,1,0,1,0,2,1,0,0,0,0,0,0,0,0,0,0,0,0,0,0,0,0,0,0,0,0,0,0],"split_type":[0,0,0,0,0,0,0,0,0,0,0,0,0,0,0,0,0,0,0,0,0,0,0,0,0,0,0,0,0,0,0,0,0,0,0,0,0,0,0,0,0,0,0,0,0,0,0,0,0,0,0,0,0,0,0,0,0,0,0,0,0,0,0,0,0,0,0],"sum_hessian":[4.678E3,2.2E3,2.478E3,1.713E3,4.87E2,2.6E1,2.452E3,1.671E3,4.2E1,4.82E2,5E0,2.1E1,5E0,3E2,2.152E3,1.619E3,5.2E1,1.5E1,2.7E1,5E1,4.32E2,9.5E1,2.05E2,1.2E2,2.032E3,1.596E3,2.3E1,7E0,4.5E1,5E0,1E1,5E0,2.2E1,3.4E1,1.6E1,1.4E2,2.92E2,3.1E1,6.4E1,1.86E2,1.9E1,1.15E2,5E0,1.6E1,2.016E3,1.56E3,3.6E1,1.2E1,3.3E1,1.5E1,1.9E1,9.2E1,4.8E1,1.01E2,1.91E2,1.8E1,1.3E1,2.1E1,4.3E1,1.77E2,9E0,3.7E1,7.8E1,1E1,6E0,2.005E3,1.1E1],"tree_param":{"num_deleted":"0","num_feature":"7","num_nodes":"67","size_leaf_vector":"0"}},{"base_weights":[4.629477E-1,-5.0562066E-1,6.901406E-1,1.9058437E0,-1.3762707E0,4.294858E0,5.891756E-1,-4.358944E-2,4.1774907E0,-1.0492219E0,-3.4162655E0,1.4117997E0,5.2621117E0,-2.2092948E0,6.753256E-1,-3.2021466E-1,3.1562548E0,2.5111544E0,9.001255E0,-2.138226E0,-4.218935E-1,-2.1709391E-1,-4.5518317E0,4.800614E0,-5.843902E0,5.7607183E0,-0E0,-1.1990026E0,-3.5861864E0,-7.908484E-1,7.958931E-1,-0E0,-6.55544E-1,1.3886791E1,1.5540806E0,-1.3128145E0,-2.695733E0,-1.149131E0,2.572616E0,1.0834644E0,-3.0814457E0,-6.2155995E0,-3.3720996E0,2.2164373E0,9.813158E0,-3.4811244E0,5.787241E-1,-4.1456575E0,-5.179726E-1,-2.7817056E0,1.9654307E0,3.9499125E0,6.499627E-1,-1.2130752E0,-0E0,-2.5276637E0,2.3934042E0,-2.8133862E0,9.9474186E-1,-1.9392529E0,-4.6308217E0,-8.1745815E-1,-4.5164933E0,4.561654E0,1.351196E0,-6.89546E0,-2.3591316E-1,2.2606268E0,-3.799799E0,2.1613812E0,-4.508584E0,3.9626162E0,-9.451622E-1,7.432565E0,2.1098437E0,-1.7548759E0,8.447013E-1],"categories":[],"categories_nodes":[],"categories_segments":[],"categories_sizes":[],"default_left":[true,true,true,true,true,true,true,true,true,true,true,true,true,true,true,true,false,true,false,true,true,true,true,true,false,false,false,true,true,true,true,false,true,false,true,true,true,true,true,false,false,false,false,false,false,true,true,false,false,true,true,true,true,false,false,false,false,false,false,false,false,false,false,false,false,false,false,false,false,false,false,false,false,false,false,false,false],"id":20,"left_children":[1,3,5,7,9,11,13,15,17,19,21,23,25,27,29,31,-1,33,-1,35,37,39,41,43,-1,-1,-1,45,47,49,51,-1,53,-1,55,57,59,61,63,-1,-1,-1,-1,-1,-1,65,67,-1,-1,69,71,73,75,-1,-1,-1,-1,-1,-1,-1,-1,-1,-1,-1,-1,-1,-1,-1,-1,-1,-1,-1,-1,-1,-1,-1,-1],"loss_changes":[1.0291484E3,1.8586589E3,1.3571305E3,1.0525007E3,4.1405933E2,2.5107324E2,8.8442224E2,1.0151751E2,8.0879395E2,3.7513452E2,3.0016882E2,7.124696E2,2.1308911E2,1.2872705E2,6.3331934E2,1.1965907E1,0E0,8.220516E2,0E0,7.475592E1,7.8575793E2,1.0423574E2,6.739441E1,1.9055942E2,0E0,0E0,0E0,2.8105682E2,5.5255676E1,1.4902266E3,1.5030383E3,0E0,1.8609663E1,0E0,2.7274847E2,3.111181E2,1.3821838E2,3.028167E2,1.4091602E2,0E0,0E0,0E0,0E0,0E0,0E0,3.0306244E2,2.7508478E2,0E0,0E0,1.3675731E3,6.7234174E2,8.764358E2,1.4806296E3,0E0,0E0,0E0,0E0,0E0,0E0,0E0,0E0,0E0,0E0,0E0,0E0,0E0,0E0,0E0,0E0,0E0,0E0,0E0,0E0,0E0,0E0,0E0,0E0],"parents":[2147483647,0,0,1,1,2,2,3,3,4,4,5,5,6,6,7,7,8,8,9,9,10,10,11,11,12,12,13,13,14,14,15,15,17,17,19,19,20,20,21,21,22,22,23,23,27,27,28,28,29,29,30,30,32,32,34,34,35,35,36,36,37,37,38,38,45,45,46,46,49,49,50,50,51,51,52,52],"right_children":[2,4,6,8,10,12,14,16,18,20,22,24,26,28,30,32,-1,34,-1,36,38,40,42,44,-1,-1,-1,46,48,50,52,-1,54,-1,56,58,60,62,64,-1,-1,-1,-1,-1,-1,66,68,-1,-1,70,72,74,76,-1,-1,-1,-1,-1,-1,-1,-1,-1,-1,-1,-1,-1,-1,-1,-1,-1,-1,-1,-1,-1,-1,-1,-1],"split_conditions":[1.245E3,9.97E2,1.331E3,4.375E2,1.198E3,1.345E2,9.25E1,3.15E2,5E-1,9.985E2,7.2E1,1.289E3,1.44E2,1.589E3,1.343E3,3.5E1,8.114228E-1,8.55E1,2.3140793E0,8.65E1,5E-1,5E-1,1.205E2,5E-1,-1.5023742E0,1.480989E0,-0E0,5E-1,9.15E1,1.44E2,1.3905E3,-0E0,1.575E2,3.570073E0,8.865E2,7.25E1,5E-1,1.225E2,9.6E1,2.7854145E-1,-7.921906E-1,-1.5979316E0,-8.669131E-1,5.6981075E-1,2.5228066E0,8.7E1,9.1E1,-1.0657825E0,-1.331625E-1,1.33E2,1.615E2,1.345E2,1.486E3,-3.118623E-1,-0E0,-6.4982206E-1,6.153061E-1,-7.232768E-1,2.557323E-1,-4.98551E-1,-1.1905105E0,-2.1015547E-1,-1.1611185E0,1.1727287E0,3.4737098E-1,-1.772713E0,-6.0649514E-2,5.8117115E-1,-9.768678E-1,5.556567E-1,-1.1590852E0,1.0187255E0,-2.4298614E-1,1.9107941E0,5.424072E-1,-4.5115066E-1,2.1715924E-1],"split_indices":[0,0,0,0,0,1,1,1,4,0,1,0,1,0,0,1,0,1,0,1,4,4,1,4,0,0,0,4,1,1,0,0,1,0,0,1,4,1,1,0,0,0,0,0,0,1,1,0,0,1,1,1,0,0,0,0,0,0,0,0,0,0,0,0,0,0,0,0,0,0,0,0,0,0,0,0,0],"split_type":[0,0,0,0,0,0,0,0,0,0,0,0,0,0,0,0,0,0,0,0,0,0,0,0,0,0,0,0,0,0,0,0,0,0,0,0,0,0,0,0,0,0,0,0,0,0,0,0,0,0,0,0,0,0,0,0,0,0,0,0,0,0,0,0,0,0,0,0,0,0,0,0,0,0,0,0,0],"sum_hessian":[4.671E3,8.84E2,3.787E3,2.33E2,6.51E2,1.01E2,3.686E3,1.25E2,1.08E2,5.64E2,8.7E1,2.7E1,7.4E1,1.08E2,3.578E3,1.17E2,8E0,8.2E1,2.6E1,2.03E2,3.61E2,2.4E1,6.3E1,1.9E1,8E0,6.8E1,6E0,6.5E1,4.3E1,2.69E2,3.309E3,6.2E1,5.5E1,5E0,7.7E1,8.6E1,1.17E2,2.92E2,6.9E1,1.6E1,8E0,2.3E1,4E1,1.4E1,5E0,2.9E1,3.6E1,3.5E1,8E0,1.57E2,1.12E2,1.44E2,3.165E3,2.8E1,2.7E1,1.2E1,6.5E1,5.3E1,3.3E1,8.7E1,3E1,2.68E2,2.4E1,2.4E1,4.5E1,1.3E1,1.6E1,2.7E1,9E0,4E1,1.17E2,6.7E1,4.5E1,4.8E1,9.6E1,2.35E2,2.93E3],"tree_param":{"num_deleted":"0","num_feature":"7","num_nodes":"77","size_leaf_vector":"0"}},{"base_weights":[2.4060227E-1,1.9249251E-1,3.3509376E0,2.2184008E-1,-6.1383643E0,5.4953833E0,1.821797E0,5.566207E-1,-6.355808E-2,-8.352708E0,-4.156944E0,-3.7078078E0,3.8951373E0,-2.7315146E-1,1.2479892E0,-5.667956E-1,5.581371E-1,-2.067106E0,-5.951082E0,1.5243242E0,-8.218059E0,6.689919E0,9.785586E-1,2.5079849E0,-6.269663E-1,2.9034014E0,2.7988052E-1,-4.6790105E-1,-2.265269E1,-9.510329E0,6.518428E-1,-7.4769986E-1,3.1599536E0,-2.558174E-1,-2.6441145E0,1.4908335E0,8.286921E0,6.2610996E-1,-1.7072299E0,-1.175621E0,1.0923163E0,1.8744357E0,7.8863464E-2],"categories":[],"categories_nodes":[],"categories_segments":[],"categories_sizes":[],"default_left":[true,true,true,true,true,false,true,true,true,false,true,true,true,true,true,true,true,false,false,false,false,false,false,true,true,true,true,true,false,false,true,false,false,false,false,false,false,false,false,false,false,false,false],"id":21,"left_children":[1,3,5,7,9,-1,11,13,15,-1,17,19,21,23,25,27,29,-1,-1,-1,-1,-1,-1,31,33,35,37,39,-1,-1,41,-1,-1,-1,-1,-1,-1,-1,-1,-1,-1,-1,-1],"loss_changes":[6.957618E2,8.471441E2,1.9436871E2,4.468129E2,8.794556E0,0E0,5.196196E2,1.2369646E3,7.850037E2,0E0,9.026047E0,3.217227E2,2.326376E2,9.5366846E2,1.869892E3,2.9355386E3,1.0275139E3,0E0,0E0,0E0,0E0,0E0,0E0,2.4310248E2,6.371425E2,3.234823E3,5.087359E2,1.5309208E3,0E0,0E0,7.698379E2,0E0,0E0,0E0,0E0,0E0,0E0,0E0,0E0,0E0,0E0,0E0,0E0],"parents":[2147483647,0,0,1,1,2,2,3,3,4,4,6,6,7,7,8,8,10,10,11,11,12,12,13,13,14,14,15,15,16,16,23,23,24,24,25,25,26,26,27,27,30,30],"right_children":[2,4,6,8,10,-1,12,14,16,-1,18,20,22,24,26,28,30,-1,-1,-1,-1,-1,-1,32,34,36,38,40,-1,-1,42,-1,-1,-1,-1,-1,-1,-1,-1,-1,-1,-1,-1],"split_conditions":[4.677E3,3.986E3,4.9995E3,5E-1,3.995E3,1.4127755E0,5.121E3,1.343E3,2.5E0,-2.1473482E0,4.1815E3,5E-1,6.5205E3,9.93E2,1.708E3,2.994E3,2.5E0,-5.3142005E-1,-1.5299284E0,3.9187947E-1,-2.112732E0,1.7198716E0,2.5157183E-1,8.865E2,1.3325E3,1.4985E3,2.997E3,1.996E3,-5.823646E0,-2.4449542E0,1.698E3,-1.9222173E-1,8.1237376E-1,-6.576658E-2,-6.7975974E-1,3.8326955E-1,2.1304352E0,1.609629E-1,-4.389016E-1,-3.0223343E-1,2.8081712E-1,4.8188755E-1,2.027454E-2],"split_indices":[0,0,0,5,0,0,0,0,6,0,0,4,0,0,0,0,5,0,0,0,0,0,0,0,0,0,0,0,0,0,0,0,0,0,0,0,0,0,0,0,0,0,0],"split_type":[0,0,0,0,0,0,0,0,0,0,0,0,0,0,0,0,0,0,0,0,0,0,0,0,0,0,0,0,0,0,0,0,0,0,0,0,0,0,0,0,0,0,0],"sum_hessian":[4.745E3,4.675E3,7E1,4.655E3,2E1,2.7E1,4.3E1,2.148E3,2.507E3,7E0,1.3E1,1.1E1,3.2E1,9.74E2,1.174E3,1.389E3,1.118E3,8E0,5E0,5E0,6E0,1.5E1,1.7E1,1.08E2,8.66E2,4.31E2,7.43E2,1.384E3,5E0,9E0,1.109E3,1.7E1,9.1E1,7.34E2,1.32E2,3.43E2,8.8E1,6.35E2,1.08E2,9.54E2,4.3E2,3.51E2,7.58E2],"tree_param":{"num_deleted":"0","num_feature":"7","num_nodes":"43","size_leaf_vector":"0"}},{"base_weights":[3.0220953E-1,-1.5474626E0,3.5467166E-1,-4.3902567E-1,-5.8968534E0,1.6490057E0,2.170635E-1,4.0922725E-1,-3.7574115E0,1.0986054E0,5.5115933E0,-5.564852E0,2.4762541E-1,8.811521E-2,9.8236734E-1,-2.920262E-1,1.6983086E0,4.98288E-1,1.0176811E1,2.2360654E-1,-7.6306443E0,-5.2057594E-1,3.9686447E-1,6.4153075E-1,-3.4803066E0,-4.7209015E0,2.8628582E-1,1.9575497E0,-4.206691E0,4.3772535E0,-3.1386433E0,1.5504198E1,2.9480128E0,-9.424787E0,-2.421815E0,1.2170609E0,-1.3001928E0,2.7457812E0,2.1262115E-1,3.9162904E-1,1.8443773E0,2.1766977E0,-2.0282252E0,1.6401321E0,4.707503E0,-0E0,-7.221015E0,1.1674217E-1,3.3588233E0,-1.0842937E0,-4.0257506E0,1.4135948E0,4.3688846E0,-3.2136846E0,3.3288383E-1],"categories":[],"categories_nodes":[],"categories_segments":[],"categories_sizes":[],"default_left":[true,true,true,true,false,true,true,true,false,true,true,true,true,true,false,true,true,true,true,false,true,true,true,true,false,false,true,true,true,false,false,false,false,false,false,true,true,true,true,false,false,false,false,false,false,false,false,false,false,false,false,false,false,false,false],"id":22,"left_children":[1,3,5,7,-1,9,11,13,-1,15,17,19,21,23,-1,25,27,29,31,-1,33,35,37,39,-1,-1,41,43,45,-1,-1,-1,-1,-1,-1,47,49,51,53,-1,-1,-1,-1,-1,-1,-1,-1,-1,-1,-1,-1,-1,-1,-1,-1],"loss_changes":[4.492732E2,5.850553E2,8.0208136E2,3.0447882E2,0E0,8.909236E2,7.075048E2,1.0844179E1,0E0,3.24537E2,1.19301E3,2.8160846E2,4.689704E2,1.0573862E2,0E0,3.1057285E2,4.1128314E2,3.9945615E2,9.2236035E2,0E0,8.0655945E1,8.98711E2,1.4731919E3,6.217703E0,0E0,0E0,4.469052E2,1.9368414E2,1.1819963E2,0E0,0E0,0E0,0E0,0E0,0E0,4.668499E2,2.4586981E2,5.075935E2,1.3022736E3,0E0,0E0,0E0,0E0,0E0,0E0,0E0,0E0,0E0,0E0,0E0,0E0,0E0,0E0,0E0,0E0],"parents":[2147483647,0,0,1,1,2,2,3,3,5,5,6,6,7,7,9,9,10,10,11,11,12,12,13,13,15,15,16,16,17,17,18,18,20,20,21,21,22,22,23,23,26,26,27,27,28,28,35,35,36,36,37,37,38,38],"right_children":[2,4,6,8,-1,10,12,14,-1,16,18,20,22,24,-1,26,28,30,32,-1,34,36,38,40,-1,-1,42,44,46,-1,-1,-1,-1,-1,-1,48,50,52,54,-1,-1,-1,-1,-1,-1,-1,-1,-1,-1,-1,-1,-1,-1,-1,-1],"split_conditions":[2.5E0,1.5E0,9.5E0,2.069E3,-1.515987E0,1.777E3,1.05E1,1.7965E3,-9.6597064E-1,8.5E0,6.5E0,1.349E3,1.2205E3,1.483E3,2.52551E-1,1.099E3,5E-1,3.5E0,7.5E0,5.748568E-2,5E-1,9.97E2,1.3325E3,5E-1,-8.947314E-1,-1.2136686E0,1.4425E3,1.5295E3,1.1645E3,1.1253221E0,-8.068952E-1,3.9858823E0,7.578871E-1,-2.4229624E0,-6.2261003E-1,8.865E2,1.198E3,2.7E1,1.343E3,1.0068159E-1,4.7416002E-1,5.5959433E-1,-5.214244E-1,4.2165184E-1,1.210224E0,-0E0,-1.8564079E0,3.0012554E-2,8.635E-1,-2.7875465E-1,-1.0349563E0,3.634127E-1,1.1231706E0,-8.2618713E-1,8.5579135E-2],"split_indices":[2,2,2,0,0,0,2,0,0,2,2,0,0,0,0,0,4,2,2,0,6,0,0,2,0,0,0,0,0,0,0,0,0,0,0,0,0,2,0,0,0,0,0,0,0,0,0,0,0,0,0,0,0,0,0],"split_type":[0,0,0,0,0,0,0,0,0,0,0,0,0,0,0,0,0,0,0,0,0,0,0,0,0,0,0,0,0,0,0,0,0,0,0,0,0,0,0,0,0,0,0,0,0,0,0,0,0,0,0,0,0,0,0],"sum_hessian":[4.671E3,1.26E2,4.545E3,1.02E2,2.4E1,4.33E2,4.112E3,8.1E1,2.1E1,3.81E2,5.2E1,2E1,4.092E3,5.7E1,2.4E1,1.13E2,2.68E2,2.6E1,2.6E1,5E0,1.5E1,6.61E2,3.431E3,5.1E1,6E0,1.3E1,1E2,2.58E2,1E1,1.3E1,1.3E1,1.4E1,1.2E1,1E1,5E0,2.03E2,4.58E2,2.47E2,3.184E3,4.6E1,5E0,5.6E1,4.4E1,2.34E2,2.4E1,5E0,5E0,1.36E2,6.7E1,4.27E2,3.1E1,1.38E2,1.09E2,1.06E2,3.078E3],"tree_param":{"num_deleted":"0","num_feature":"7","num_nodes":"55","size_leaf_vector":"0"}},{"base_weights":[1.6247803E-1,8.563114E-3,1.1478461E0,6.208593E-2,-1.7897232E1,3.510851E0,-4.9564112E-2,-6.055666E-2,6.7663026E0,3.8791676E0,-6.018392E0,-1.7320389E1,5.3223133E-1,1.7394094E-1,-8.1905705E-1,-5.3310738E0,9.495544E0,5.0755706E0,1.9314953E0,-8.957017E0,-2.3848932E1,8.613721E-3,2.2940943E0,1.0883148E-1,9.415245E0,-8.383469E0,-6.352516E-1,-1.0785457E1,-0E0,1.5073256E1,4.188395E0,9.4606084E-1,5.544423E0,-1.2209152E0,4.387709E0,1.5733273E0,-1.193519E0,4.5312967E0,1.183786E0,-9.55761E-2,1.0723243E0,2.0774906E1,-5.1184547E-1,-9.874535E0,-4.0539393E0,-4.0182686E-1,-4.3468237E0,5.6802053E0,1.6631517E1,9.79301E-1,1.5412734E1,-1.8191355E0,6.04484E0,6.750863E0,3.8115556E0,-3.9850307E0,1.2574123E0,1.9087068E0,4.822329E0,1.17458515E1,1.0011798E0,-2.5017383E0,7.314037E-1,9.284482E0,-3.7373445E0,-4.9386364E-1,6.0796785E0],"categories":[],"categories_nodes":[],"categories_segments":[],"categories_sizes":[],"default_left":[true,true,true,true,false,true,true,true,true,true,false,true,true,true,true,true,true,true,true,false,false,true,true,true,true,true,true,false,false,true,true,true,true,true,true,true,true,true,true,false,false,false,false,false,false,false,false,false,false,false,false,false,false,false,false,false,false,false,false,false,false,false,false,false,false,false,false],"id":23,"left_children":[1,3,5,7,-1,9,11,13,15,17,-1,19,21,23,25,27,29,31,33,-1,-1,35,37,39,41,43,45,-1,-1,47,49,51,53,55,57,59,61,63,65,-1,-1,-1,-1,-1,-1,-1,-1,-1,-1,-1,-1,-1,-1,-1,-1,-1,-1,-1,-1,-1,-1,-1,-1,-1,-1,-1,-1],"loss_changes":[7.133157E2,3.859184E3,1.8131804E3,3.386897E3,0E0,7.6963403E2,4.3147627E3,7.166061E2,2.5100405E3,4.4764355E2,0E0,4.2328467E2,3.6835E2,1.8049532E3,1.2832626E3,4.1639758E2,1.6677085E3,2.1541626E2,6.5259125E2,0E0,0E0,6.015099E2,2.0094925E2,6.032032E2,2.4575278E3,4.7855957E1,7.8638947E2,0E0,0E0,2.4327686E2,1.109853E3,2.3890761E2,1.6945288E2,2.6222626E2,1.5272522E1,7.5352124E2,4.5947217E2,1.1960288E3,5.5038324E2,0E0,0E0,0E0,0E0,0E0,0E0,0E0,0E0,0E0,0E0,0E0,0E0,0E0,0E0,0E0,0E0,0E0,0E0,0E0,0E0,0E0,0E0,0E0,0E0,0E0,0E0,0E0,0E0],"parents":[2147483647,0,0,1,1,2,2,3,3,5,5,6,6,7,7,8,8,9,9,11,11,12,12,13,13,14,14,15,15,16,16,17,17,18,18,21,21,22,22,23,23,24,24,25,25,26,26,29,29,30,30,31,31,32,32,33,33,34,34,35,35,36,36,37,37,38,38],"right_children":[2,4,6,8,-1,10,12,14,16,18,-1,20,22,24,26,28,30,32,34,-1,-1,36,38,40,42,44,46,-1,-1,48,50,52,54,56,58,60,62,64,66,-1,-1,-1,-1,-1,-1,-1,-1,-1,-1,-1,-1,-1,-1,-1,-1,-1,-1,-1,-1,-1,-1,-1,-1,-1,-1,-1,-1],"split_conditions":[2.885E2,2.83E2,2.374E3,2.4875E3,-4.6010933E0,6E0,3.05E2,1.855E2,1.76E2,1E0,-1.5472327E0,2.745E3,5.535E2,1.845E2,1.87E2,2.983E3,2.145E2,2.995E2,2.5E0,-2.3027065E0,-6.131181E0,2.997E3,5.885E2,1.615E2,1.5E0,5E-1,2.23E3,-2.7727692E0,-0E0,1.83E2,2.9945E3,1.895E3,1.9935E3,3.65E2,9.845E2,5E-1,3.5E0,4.9995E3,5.9425E3,-2.4571093E-2,2.756775E-1,5.3408976E0,-1.3158731E-1,-2.5385857E0,-1.0422032E0,-1.0330328E-1,-1.1174991E0,1.4602903E0,4.275698E0,2.517627E-1,3.9623685E0,-4.6767077E-1,1.5540321E0,1.7355393E0,9.798902E-1,-1.0244879E0,3.2326066E-1,4.906981E-1,1.239744E0,3.0196714E0,2.5738737E-1,-6.4315706E-1,1.8803224E-1,2.3868923E0,-9.6081173E-1,-1.2696448E-1,1.5629885E0],"split_indices":[1,1,0,0,0,5,1,1,1,5,0,0,1,1,1,0,1,1,5,0,0,0,1,1,5,4,0,0,0,1,0,0,0,1,0,4,5,0,0,0,0,0,0,0,0,0,0,0,0,0,0,0,0,0,0,0,0,0,0,0,0,0,0,0,0,0,0],"split_type":[0,0,0,0,0,0,0,